{"learner":{"attributes":{},"feature_names":[],"feature_types":[],"gradient_booster":{"model":{"cats":{"enc":[],"feature_segments":[],"sorted_idx":[]},"gbtree_model_param":{"num_parallel_tree":"1","num_trees":"150"},"iteration_indptr":[0,1,2,3,4,5,6,7,8,9,10,11,12,13,14,15,16,17,18,19,20,21,22,23,24,25,26,27,28,29,30,31,32,33,34,35,36,37,38,39,40,41,42,43,44,45,46,47,48,49,50,51,52,53,54,55,56,57,58,59,60,61,62,63,64,65,66,67,68,69,70,71,72,73,74,75,76,77,78,79,80,81,82,83,84,85,86,87,88,89,90,91,92,93,94,95,96,97,98,99,100,101,102,103,104,105,106,107,108,109,110,111,112,113,114,115,116,117,118,119,120,121,122,123,124,125,126,127,128,129,130,131,132,133,134,135,136,137,138,139,140,141,142,143,144,145,146,147,148,149,150],"tree_info":[0,0,0,0,0,0,0,0,0,0,0,0,0,0,0,0,0,0,0,0,0,0,0,0,0,0,0,0,0,0,0,0,0,0,0,0,0,0,0,0,0,0,0,0,0,0,0,0,0,0,0,0,0,0,0,0,0,0,0,0,0,0,0,0,0,0,0,0,0,0,0,0,0,0,0,0,0,0,0,0,0,0,0,0,0,0,0,0,0,0,0,0,0,0,0,0,0,0,0,0,0,0,0,0,0,0,0,0,0,0,0,0,0,0,0,0,0,0,0,0,0,0,0,0,0,0,0,0,0,0,0,0,0,0,0,0,0,0,0,0,0,0,0,0,0,0,0,0,0,0],"trees":[{"base_weights":[2.8845516E-3,-2.4047894E-2,1.6198544E-1,-1.2612811E-3,-8.1722446E-2,2.0526746E-1,-2.6251253E-1,1.537689E-1,-7.953983E-3,-5.8182742E-2,-2.548108E-1,-8.108914E-2,2.5406703E-1,-6.133319E-1,-4.945262E-2,6.640632E-3,5.0749697E-2,-2.3892378E-3,4.3459996E-3,-5.370022E-3,2.2071898E-2,-2.6873989E-2,2.2545524E-2,-1.945244E-2,1.872333E-2,1.7752012E-2,4.8771285E-2,-6.3944004E-2,8.2575093E-4,-4.5334645E-2,1.1436076E-2],"categories":[],"categories_nodes":[],"categories_segments":[],"categories_sizes":[],"default_left":[0,0,0,0,0,0,0,0,0,0,0,0,0,0,0,0,0,0,0,0,0,0,0,0,0,0,0,0,0,0,0],"id":0,"left_children":[1,3,5,7,9,11,13,15,17,19,21,23,25,27,29,-1,-1,-1,-1,-1,-1,-1,-1,-1,-1,-1,-1,-1,-1,-1,-1],"loss_changes":[2.0251797E1,5.3120556E0,1.2625231E1,3.00851E0,4.649228E0,8.705172E0,4.7345233E0,4.028139E0,3.7944574E0,3.032832E0,6.046932E0,4.7170663E0,5.940773E0,2.791665E0,4.1361775E0,0E0,0E0,0E0,0E0,0E0,0E0,0E0,0E0,0E0,0E0,0E0,0E0,0E0,0E0,0E0,0E0],"parents":[2147483647,0,0,1,1,2,2,3,3,4,4,5,5,6,6,7,7,8,8,9,9,10,10,11,11,12,12,13,13,14,14],"right_children":[2,4,6,8,10,12,14,16,18,20,22,24,26,28,30,-1,-1,-1,-1,-1,-1,-1,-1,-1,-1,-1,-1,-1,-1,-1,-1],"split_conditions":[2.9589593E0,7.7597823E0,1.8568155E1,3.9566585E-1,1.5283915E0,5.691154E-1,3.2919683E0,5.8703194E0,1.1624519E0,1.4428535E0,2.9766533E0,4.281399E0,4.4713855E0,1.2901865E0,6.3818234E-1,6.640632E-3,5.0749697E-2,-2.3892378E-3,4.3459996E-3,-5.370022E-3,2.2071898E-2,-2.6873989E-2,2.2545524E-2,-1.945244E-2,1.872333E-2,1.7752012E-2,4.8771285E-2,-6.3944004E-2,8.2575093E-4,-4.5334645E-2,1.1436076E-2],"split_indices":[4,2,2,3,3,3,4,2,3,3,3,2,4,3,3,0,0,0,0,0,0,0,0,0,0,0,0,0,0,0,0],"split_type":[0,0,0,0,0,0,0,0,0,0,0,0,0,0,0,0,0,0,0,0,0,0,0,0,0,0,0,0,0,0,0],"sum_hessian":[4.724324E3,4.0410996E3,6.832246E2,2.8973923E3,1.1437075E3,6.204769E2,6.2747665E1,1.18995575E2,2.7783967E3,1.0079625E3,1.3574495E2,9.024664E1,5.302303E2,2.2999146E1,3.974852E1,1.047461E2,1.424947E1,2.0556736E3,7.2272314E2,9.8246344E2,2.5499052E1,1.18245605E2,1.749935E1,5.9747776E1,3.0498865E1,4.8773187E2,4.249842E1,1.749935E1,5.4997954E0,1.0249619E1,2.9498903E1],"tree_param":{"num_deleted":"0","num_feature":"6","num_nodes":"31","size_leaf_vector":"1"}},{"base_weights":[-2.4515525E-3,3.451959E-2,-9.65656E-2,3.607527E-3,2.2192217E-1,4.8957616E-2,-1.413633E-1,-1.02302276E-1,2.4302498E-2,1.1744074E-1,4.1698927E-1,8.743542E-2,-5.110303E-1,-7.9379857E-1,-1.3367288E-1,9.941831E-3,-1.2017471E-2,2.493515E-3,-2.6862357E-2,1.4199335E-2,-2.2096882E-2,5.771486E-2,1.3507251E-2,-4.6737567E-3,1.7714938E-2,-5.1263347E-2,4.4752497E-2,-1.366385E-2,-7.0859246E-2,-2.1294434E-2,-8.3992435E-3],"categories":[],"categories_nodes":[],"categories_segments":[],"categories_sizes":[],"default_left":[0,0,0,0,0,0,0,0,0,0,0,0,0,0,0,0,0,0,0,0,0,0,0,0,0,0,0,0,0,0,0],"id":1,"left_children":[1,3,5,7,9,11,13,15,17,19,21,23,25,27,29,-1,-1,-1,-1,-1,-1,-1,-1,-1,-1,-1,-1,-1,-1,-1,-1],"loss_changes":[1.6548136E1,1.9779932E1,8.751256E0,6.429112E0,9.804567E0,6.863632E0,5.0412064E0,5.2241926E0,6.077049E0,7.524421E0,1.2588411E1,5.817318E0,3.2049785E0,5.2169085E-1,3.8301601E0,0E0,0E0,0E0,0E0,0E0,0E0,0E0,0E0,0E0,0E0,0E0,0E0,0E0,0E0,0E0,0E0],"parents":[2147483647,0,0,1,1,2,2,3,3,4,4,5,5,6,6,7,7,8,8,9,9,10,10,11,11,12,12,13,13,14,14],"right_children":[2,4,6,8,10,12,14,16,18,20,22,24,26,28,30,-1,-1,-1,-1,-1,-1,-1,-1,-1,-1,-1,-1,-1,-1,-1,-1],"split_conditions":[7.7597823E0,2.9589593E0,5.3199554E1,-7.9534073E0,-1.1720651E0,1.9412333E1,4.5969465E-1,2.8608896E1,8.993165E0,4.709904E1,5.3929264E1,4.8153008E1,5.243277E1,5.3592922E1,9.337597E0,9.941831E-3,-1.2017471E-2,2.493515E-3,-2.6862357E-2,1.4199335E-2,-2.2096882E-2,5.771486E-2,1.3507251E-2,-4.6737567E-3,1.7714938E-2,-5.1263347E-2,4.4752497E-2,-1.366385E-2,-7.0859246E-2,-2.1294434E-2,-8.3992435E-3],"split_indices":[2,4,0,2,1,2,1,0,1,0,0,0,0,0,2,0,0,0,0,0,0,0,0,0,0,0,0,0,0,0,0],"split_type":[0,0,0,0,0,0,0,0,0,0,0,0,0,0,0,0,0,0,0,0,0,0,0,0,0,0,0,0,0,0,0],"sum_hessian":[4.753931E3,3.4135916E3,1.3403397E3,2.931122E3,4.8246948E2,3.1546707E2,1.0248727E3,4.784802E2,2.4526418E3,3.1522916E2,1.6724033E2,2.95974E2,1.9493057E1,1.0748849E1,1.01412384E3,8.324693E1,3.9523328E2,2.4076436E3,4.4998165E1,2.7398264E2,4.124651E1,7.4244545E1,9.299579E1,1.4198767E2,1.5398633E2,1.774351E1,1.7495477E0,1.7498063E0,8.9990425E0,1.7898108E2,8.3514276E2],"tree_param":{"num_deleted":"0","num_feature":"6","num_nodes":"31","size_leaf_vector":"1"}},{"base_weights":[9.109309E-3,1.8350987E-2,-2.714945E-1,1.4871497E-2,8.2969755E-1,-5.961043E-1,-1.3177867E-1,3.113729E-1,9.831681E-3,3.8280764E-1,9.899753E-2,-1.6936254E-2,-8.002738E-1,6.56623E-1,-2.1353054E-1,-3.944416E-3,4.3555558E-2,-5.480895E-4,7.7594058E-3,-2.3671067E-3,8.164069E-2,-5.6623105E-2,3.5654E-2,-1.9324876E-2,-8.380444E-2,-2.5653485E-2,7.4594565E-2,-5.9677344E-2,-6.821252E-3],"categories":[],"categories_nodes":[],"categories_segments":[],"categories_sizes":[],"default_left":[0,0,0,0,0,0,0,0,0,0,0,0,0,0,0,0,0,0,0,0,0,0,0,0,0,0,0,0,0],"id":2,"left_children":[1,3,5,7,9,11,13,15,17,19,-1,21,23,25,27,-1,-1,-1,-1,-1,-1,-1,-1,-1,-1,-1,-1,-1,-1],"loss_changes":[1.2237063E1,1.2881849E1,6.745309E0,6.7944856E0,3.0771475E0,5.306428E0,7.0026035E0,6.4153833E0,6.5061803E0,2.8559303E0,0E0,4.389594E0,4.3396626E0,3.0614276E0,6.575989E0,0E0,0E0,0E0,0E0,0E0,0E0,0E0,0E0,0E0,0E0,0E0,0E0,0E0,0E0],"parents":[2147483647,0,0,1,1,2,2,3,3,4,4,5,5,6,6,7,7,8,8,9,9,11,11,12,12,13,13,14,14],"right_children":[2,4,6,8,10,12,14,16,18,20,-1,22,24,26,28,-1,-1,-1,-1,-1,-1,-1,-1,-1,-1,-1,-1,-1,-1],"split_conditions":[7.350915E1,5.1759105E0,8.0549663E-1,2.517059E1,-8.944446E0,5.098578E-1,8.7969935E-1,1.0405679E0,2.8857005E0,1.9503174E0,9.899753E-2,7.572798E1,9.599714E0,1.7406356E0,1.0267249E0,-3.944416E-3,4.3555558E-2,-5.480895E-4,7.7594058E-3,-2.3671067E-3,8.164069E-2,-5.6623105E-2,3.5654E-2,-1.9324876E-2,-8.380444E-2,-2.5653485E-2,7.4594565E-2,-5.9677344E-2,-6.821252E-3],"split_indices":[0,4,3,0,1,3,3,3,4,3,0,0,1,4,3,0,0,0,0,0,0,0,0,0,0,0,0,0,0],"split_type":[0,0,0,0,0,0,0,0,0,0,0,0,0,0,0,0,0,0,0,0,0,0,0,0,0,0,0,0,0],"sum_hessian":[4.7158926E3,4.5664316E3,1.4946068E2,4.5479463E3,1.8485703E1,4.3989887E1,1.05470795E2,7.499631E1,4.4729497E3,9.7448225E0,8.740881E0,1.1747805E1,3.2242085E1,9.248442E0,9.622235E1,2.9748686E1,4.524762E1,3.7551304E3,7.178194E2,6.4969163E0,3.2479062E0,4.499048E0,7.248757E0,1.0498485E1,2.1743599E1,1.999795E0,7.2486463E0,1.7745161E1,7.8477196E1],"tree_param":{"num_deleted":"0","num_feature":"6","num_nodes":"29","size_leaf_vector":"1"}},{"base_weights":[-4.3248637E-3,-7.5277938E-3,7.7465653E-1,1.5291705E-3,-2.2507307E-1,4.0582022E-1,1.0379853E0,4.8271725E-1,-2.3185222E-3,-1.1541983E0,-1.7353351E-1,8.778123E-2,-5.5170566E-1,1.1623654E0,3.1501632E-2,7.1958214E-2,3.193068E-3,-5.4307114E-3,1.5661329E-3,-1.0752334E-1,-5.070495E-2,3.748576E-2,-1.7936688E-2,1.6237605E-2,-7.033986E-2,5.059195E-2,1.15796976E-1],"categories":[],"categories_nodes":[],"categories_segments":[],"categories_sizes":[],"default_left":[0,0,0,0,0,0,0,0,0,0,0,0,0,0,0,0,0,0,0,0,0,0,0,0,0,0,0],"id":3,"left_children":[1,3,5,7,9,11,13,15,17,19,21,-1,23,25,-1,-1,-1,-1,-1,-1,-1,-1,-1,-1,-1,-1,-1],"loss_changes":[1.1838828E1,9.308456E0,1.4659109E0,8.400071E0,8.841992E0,7.051048E0,3.9921856E-1,6.605994E0,6.4633746E0,1.1105251E-1,5.9646244E0,0E0,1.3520442E0,3.6157703E-1,0E0,0E0,0E0,0E0,0E0,0E0,0E0,0E0,0E0,0E0,0E0,0E0,0E0],"parents":[2147483647,0,0,1,1,2,2,3,3,4,4,5,5,6,6,7,7,8,8,9,9,10,10,12,12,13,13],"right_children":[2,4,6,8,10,12,14,16,18,20,22,-1,24,26,-1,-1,-1,-1,-1,-1,-1,-1,-1,-1,-1,-1,-1],"split_conditions":[5.1759105E0,7.2474236E1,-8.944446E0,-2.1761744E1,3.801426E0,3.736599E1,5.1938595E1,3.2881706E1,-3.0564177E0,8.318196E0,6.6862597E0,8.778123E-2,-1.5209614E1,-2.068276E0,3.1501632E-2,7.1958214E-2,3.193068E-3,-5.4307114E-3,1.5661329E-3,-1.0752334E-1,-5.070495E-2,3.748576E-2,-1.7936688E-2,1.6237605E-2,-7.033986E-2,5.059195E-2,1.15796976E-1],"split_indices":[4,0,1,2,2,0,0,0,1,1,1,0,2,1,0,0,0,0,0,0,0,0,0,0,0,0,0],"split_type":[0,0,0,0,0,0,0,0,0,0,0,0,0,0,0,0,0,0,0,0,0,0,0,0,0,0,0],"sum_hessian":[4.7416406E3,4.723211E3,1.8430042E1,4.5353843E3,1.8782663E2,8.735551E0,9.694492E0,3.4991016E1,4.500393E3,8.746968E0,1.7907967E2,4.9878235E0,3.747727E0,7.4515004E0,2.2429922E0,1.749431E1,1.7496708E1,1.1261185E3,3.3742747E3,5.249213E0,3.497755E0,1.2495991E1,1.6658368E2,1.2493899E0,2.498337E0,3.732099E0,3.7194011E0],"tree_param":{"num_deleted":"0","num_feature":"6","num_nodes":"27","size_leaf_vector":"1"}},{"base_weights":[-3.5203013E-4,4.515353E-1,-3.8885362E-3,-2.9167868E-2,1.1720393E0,1.8800559E-2,-6.0442526E-2,-3.7948272E-1,5.08578E-1,1.2354403E0,2.936384E-2,6.454663E-3,1.357793E-1,1.0337823E-1,-8.572874E-2,-3.9845314E-2,3.1084616E-2,1.4533477E-2,9.957687E-2,4.5101214E-2,1.0855743E-1,-3.8988155E-3,2.6441559E-3,6.1583087E-2,5.8279056E-3,-1.0339854E-2,3.6985148E-2,-2.604643E-4,-1.0701756E-2],"categories":[],"categories_nodes":[],"categories_segments":[],"categories_sizes":[],"default_left":[0,0,0,0,0,0,0,0,0,0,0,0,0,0,0,0,0,0,0,0,0,0,0,0,0,0,0,0,0],"id":4,"left_children":[1,3,5,7,9,11,13,15,17,19,-1,21,23,25,27,-1,-1,-1,-1,-1,-1,-1,-1,-1,-1,-1,-1,-1,-1],"loss_changes":[7.550661E0,1.2741462E1,6.0165577E0,4.5224586E0,2.9712486E-1,4.8321157E0,5.5700936E0,1.5131679E0,2.0584235E0,3.133068E-1,0E0,4.4464836E0,1.2688243E1,1.5086537E1,4.609844E0,0E0,0E0,0E0,0E0,0E0,0E0,0E0,0E0,0E0,0E0,0E0,0E0,0E0,0E0],"parents":[2147483647,0,0,1,1,2,2,3,3,4,4,5,5,6,6,7,7,8,8,9,9,11,11,12,12,13,13,14,14],"right_children":[2,4,6,8,10,12,14,16,18,20,-1,22,24,26,28,-1,-1,-1,-1,-1,-1,-1,-1,-1,-1,-1,-1,-1,-1],"split_conditions":[-1.5178395E1,1.2114903E0,7.7597823E0,-1.7642405E1,-1.2719193E1,5.2453094E0,4.9155533E1,3.4226044E1,1.0659013E0,-2.3694326E1,2.936384E-2,7.193062E-1,5.6494576E1,-1.5676998E-1,7.286221E-1,-3.9845314E-2,3.1084616E-2,1.4533477E-2,9.957687E-2,4.5101214E-2,1.0855743E-1,-3.8988155E-3,2.6441559E-3,6.1583087E-2,5.8279056E-3,-1.0339854E-2,3.6985148E-2,-2.604643E-4,-1.0701756E-2],"split_indices":[1,3,2,2,2,1,0,0,3,2,0,3,0,1,3,0,0,0,0,0,0,0,0,0,0,0,0,0,0],"split_type":[0,0,0,0,0,0,0,0,0,0,0,0,0,0,0,0,0,0,0,0,0,0,0,0,0,0,0,0,0],"sum_hessian":[4.722668E3,3.5689274E1,4.686979E3,2.1982552E1,1.3706721E1,3.3454668E3,1.3415121E3,1.3489268E1,8.493282E0,1.2210313E1,1.4964085E0,3.0270483E3,3.1841843E2,1.7896574E2,1.1625463E3,1.198961E1,1.4996586E0,6.7447786E0,1.7485039E0,2.734715E0,9.475597E0,9.8412946E2,2.042919E3,2.7737503E1,2.9068094E2,1.08977425E2,6.998833E1,4.283283E2,7.3421796E2],"tree_param":{"num_deleted":"0","num_feature":"6","num_nodes":"29","size_leaf_vector":"1"}},{"base_weights":[-2.9672207E-3,-6.2017185E-3,7.6183957E-1,1.8177517E-2,-7.891776E-2,6.2232965E-1,1.0015696E-1,-3.0669826E-1,2.3922084E-2,-9.016616E-2,3.786293E-1,8.237877E-1,2.1077419E-2,2.455733E-3,-3.7765853E-2,-1.359937E-3,4.5621474E-3,-6.5829623E-3,-5.420913E-2,-4.5594797E-2,5.231216E-2,4.021189E-2,9.250002E-2,-9.165728E-2,5.1293533E-2],"categories":[],"categories_nodes":[],"categories_segments":[],"categories_sizes":[],"default_left":[0,0,0,0,0,0,0,0,0,0,0,0,0,0,0,0,0,0,0,0,0,0,0,0,0],"id":5,"left_children":[1,3,5,7,9,11,-1,13,15,17,19,21,23,-1,-1,-1,-1,-1,-1,-1,-1,-1,-1,-1,-1],"loss_changes":[1.17739935E1,8.401822E0,5.9142494E-1,6.6318693E0,6.158572E0,2.113422E0,0E0,3.4597807E0,4.7272944E0,5.3237295E0,7.8784013E0,8.2280827E-1,4.6714025E0,0E0,0E0,0E0,0E0,0E0,0E0,0E0,0E0,0E0,0E0,0E0,0E0],"parents":[2147483647,0,0,1,1,2,2,3,3,4,4,5,5,7,7,8,8,9,9,10,10,11,11,12,12],"right_children":[2,4,6,8,10,12,-1,14,16,18,20,22,24,-1,-1,-1,-1,-1,-1,-1,-1,-1,-1,-1,-1],"split_conditions":[5.1759105E0,5.9715214E1,3.787623E0,1.2707472E0,2.9766533E0,1.5776085E0,1.0015696E-1,4.4233555E1,8.0549663E-1,3.8718557E0,6.3388596E1,9.491135E-1,1.9503174E0,2.455733E-3,-3.7765853E-2,-1.359937E-3,4.5621474E-3,-6.5829623E-3,-5.420913E-2,-4.5594797E-2,5.231216E-2,4.021189E-2,9.250002E-2,-9.165728E-2,5.1293533E-2],"split_indices":[4,0,3,4,3,3,0,0,3,4,0,3,3,0,0,0,0,0,0,0,0,0,0,0,0],"split_type":[0,0,0,0,0,0,0,0,0,0,0,0,0,0,0,0,0,0,0,0,0,0,0,0,0],"sum_hessian":[4.7566323E3,4.7375884E3,1.9044174E1,3.5486094E3,1.188979E3,1.6591318E1,2.4528565E0,6.0747227E1,3.487862E3,1.161234E3,2.7745E1,1.2150128E1,4.4411902E0,2.0249317E1,4.049791E1,1.560004E3,1.9278582E3,1.1469901E3,1.4243889E1,5.999802E0,2.1745197E1,7.458022E0,4.692106E0,1.2470421E0,3.1941483E0],"tree_param":{"num_deleted":"0","num_feature":"6","num_nodes":"25","size_leaf_vector":"1"}},{"base_weights":[-8.805751E-3,-3.8382225E-2,1.4109747E-1,-2.3729347E-2,-1.2336278E-1,1.2519234E-1,7.694977E-1,-3.1567387E-2,2.355897E-1,-3.1675184E-1,-5.4092146E-2,1.5114802E-1,-1.504548E-1,3.3709696E-1,1.0181082E0,2.2310847E-2,-2.8842783E-3,6.982242E-2,1.0797624E-2,8.918948E-2,-2.6879953E-2,-6.757723E-3,4.677829E-2,2.503618E-3,1.8106326E-2,-5.9211627E-3,-5.8780946E-2,7.4042186E-2,-2.0221217E-2,1.0041341E-1,5.5642117E-2],"categories":[],"categories_nodes":[],"categories_segments":[],"categories_sizes":[],"default_left":[0,0,0,0,0,0,0,0,0,0,0,0,0,0,0,0,0,0,0,0,0,0,0,0,0,0,0,0,0,0,0],"id":6,"left_children":[1,3,5,7,9,11,13,15,17,19,21,23,25,27,29,-1,-1,-1,-1,-1,-1,-1,-1,-1,-1,-1,-1,-1,-1,-1,-1],"loss_changes":[2.0857103E1,4.889325E0,7.651993E0,6.8211412E0,7.720108E0,5.4408865E0,1.6931562E0,4.543104E0,6.195476E0,4.5661745E0,8.325605E0,6.2338905E0,2.8788855E0,3.1531062E0,8.910179E-3,0E0,0E0,0E0,0E0,0E0,0E0,0E0,0E0,0E0,0E0,0E0,0E0,0E0,0E0,0E0,0E0],"parents":[2147483647,0,0,1,1,2,2,3,3,4,4,5,5,6,6,7,7,8,8,9,9,10,10,11,11,12,12,13,13,14,14],"right_children":[2,4,6,8,10,12,14,16,18,20,22,24,26,28,30,-1,-1,-1,-1,-1,-1,-1,-1,-1,-1,-1,-1,-1,-1,-1,-1],"split_conditions":[2.8857005E0,6.3892727E0,5.1759105E0,5.855281E0,1.9504337E0,6.596012E1,-1.0008169E1,2.517059E1,5.789387E1,5.6915257E1,2.3812778E0,7.941734E-1,3.8718557E0,-1.6753838E1,4.879999E1,2.2310847E-2,-2.8842783E-3,6.982242E-2,1.0797624E-2,8.918948E-2,-2.6879953E-2,-6.757723E-3,4.677829E-2,2.503618E-3,1.8106326E-2,-5.9211627E-3,-5.8780946E-2,7.4042186E-2,-2.0221217E-2,1.0041341E-1,5.5642117E-2],"split_indices":[4,1,4,1,4,0,1,0,0,0,3,3,4,1,0,0,0,0,0,0,0,0,0,0,0,0,0,0,0,0,0],"split_type":[0,0,0,0,0,0,0,0,0,0,0,0,0,0,0,0,0,0,0,0,0,0,0,0,0,0,0,0,0,0,0],"sum_hessian":[4.702096E3,3.9278586E3,7.742374E2,3.3512878E3,5.7657074E2,7.562945E2,1.7942963E1,3.2538179E3,9.746993E1,1.5111545E2,4.2545526E2,6.916212E2,6.467325E1,7.410329E0,1.0532634E1,4.5477108E1,3.2083408E3,1.224598E1,8.522395E1,1.249588E0,1.4986586E2,4.0696942E2,1.8485832E1,2.6715E2,4.2447122E2,5.8187683E1,6.4855638E0,3.4247925E0,3.9855363E0,4.404696E0,6.1279373E0],"tree_param":{"num_deleted":"0","num_feature":"6","num_nodes":"31","size_leaf_vector":"1"}},{"base_weights":[2.2060603E-3,3.0663183E-2,-4.840661E-2,-9.763842E-3,1.1609597E-1,5.9893435E-1,-5.40294E-2,-2.0722203E-2,3.2991418E-1,1.5831627E-1,-9.4914325E-2,3.7116742E-1,1.0940354E-1,8.081247E-2,-6.74844E-2,-3.7480142E-2,-1.114515E-3,9.567241E-2,1.8734973E-2,1.07070014E-1,1.2299561E-2,1.0798764E-2,-1.9201325E-2,4.9615655E-2,-5.1598314E-2,5.2789345E-2,-1.6693332E-3,-1.35814E-2,-3.4687656E-3],"categories":[],"categories_nodes":[],"categories_segments":[],"categories_sizes":[],"default_left":[0,0,0,0,0,0,0,0,0,0,0,0,0,0,0,0,0,0,0,0,0,0,0,0,0,0,0,0,0],"id":7,"left_children":[1,3,5,7,9,11,13,15,17,19,21,23,-1,25,27,-1,-1,-1,-1,-1,-1,-1,-1,-1,-1,-1,-1,-1,-1],"loss_changes":[6.8140335E0,1.0460184E1,6.2299643E0,7.6617665E0,8.6814575E0,2.0737352E0,3.0697255E0,6.0542274E0,5.05284E0,4.169348E0,5.463679E0,3.6256065E0,0E0,9.062954E0,3.7834644E0,0E0,0E0,0E0,0E0,0E0,0E0,0E0,0E0,0E0,0E0,0E0,0E0,0E0,0E0],"parents":[2147483647,0,0,1,1,2,2,3,3,4,4,5,5,6,6,7,7,8,8,9,9,10,10,11,11,13,13,14,14],"right_children":[2,4,6,8,10,12,14,16,18,20,22,24,-1,26,28,-1,-1,-1,-1,-1,-1,-1,-1,-1,-1,-1,-1,-1,-1],"split_conditions":[5.5856865E1,-2.067996E-1,1.7165175E-1,2.5088668E0,1.2349615E0,8.993165E0,1E0,2.6470608E-1,-1.4317121E1,4.0971767E1,5.043753E1,6.1981764E0,1.0940354E-1,5.6174517E-1,5.960879E-1,-3.7480142E-2,-1.114515E-3,9.567241E-2,1.8734973E-2,1.07070014E-1,1.2299561E-2,1.0798764E-2,-1.9201325E-2,4.9615655E-2,-5.1598314E-2,5.2789345E-2,-1.6693332E-3,-1.35814E-2,-3.4687656E-3],"split_indices":[0,1,3,3,3,1,5,3,1,0,0,1,0,3,3,0,0,0,0,0,0,0,0,0,0,0,0,0,0],"split_type":[0,0,0,0,0,0,0,0,0,0,0,0,0,0,0,0,0,0,0,0,0,0,0,0,0,0,0,0,0],"sum_hessian":[4.7289814E3,3.027279E3,1.7017024E3,2.0554978E3,9.717814E2,1.374503E1,1.6879574E3,1.9921674E3,6.333036E1,8.099675E2,1.6181383E2,1.1746904E1,1.9981258E0,1.5269449E2,1.535263E3,2.8745005E1,1.9634224E3,5.159774E0,5.8170586E1,1.9999193E0,8.079676E2,6.263892E1,9.9174904E1,9.747685E0,1.9992185E0,2.1987541E1,1.3070695E2,2.918513E2,1.2434116E3],"tree_param":{"num_deleted":"0","num_feature":"6","num_nodes":"29","size_leaf_vector":"1"}},{"base_weights":[5.0374274E-5,-5.1741176E-3,4.3036717E-1,3.358333E-3,-1.514656E-1,4.8513097E-1,-6.594755E-2,9.54153E-3,-3.550738E-1,-3.2538795E-1,-8.09335E-3,2.3724292E-1,6.919658E-1,-3.610693E-4,5.098822E-3,-3.705688E-2,3.3250082E-2,-1.7011505E-2,-5.8702E-2,-4.1673154E-2,1.4668774E-3,4.477346E-2,-4.936716E-2,6.933793E-2,1.0868206E-2],"categories":[],"categories_nodes":[],"categories_segments":[],"categories_sizes":[],"default_left":[0,0,0,0,0,0,0,0,0,0,0,0,0,0,0,0,0,0,0,0,0,0,0,0,0],"id":8,"left_children":[1,3,5,7,9,11,-1,13,15,17,19,21,23,-1,-1,-1,-1,-1,-1,-1,-1,-1,-1,-1,-1],"loss_changes":[1.0616254E1,5.824109E0,4.292079E0,9.775675E0,6.4093385E0,2.650896E0,0E0,3.3026333E0,6.4265194E0,5.1926174E0,1.9338129E0,7.643795E0,2.7403793E0,0E0,0E0,0E0,0E0,0E0,0E0,0E0,0E0,0E0,0E0,0E0,0E0],"parents":[2147483647,0,0,1,1,2,2,3,3,4,4,5,5,7,7,8,8,9,9,10,10,11,11,12,12],"right_children":[2,4,6,8,10,12,-1,14,16,18,20,22,24,-1,-1,-1,-1,-1,-1,-1,-1,-1,-1,-1,-1],"split_conditions":[4.4713855E0,1.8127363E1,6.775469E1,7.419957E1,8.993165E0,-5.9849257E0,-6.594755E-2,2.710371E0,2.6716874E0,6.4213776E1,1.8568155E1,-6.8081865E0,5.5069378E1,-3.610693E-4,5.098822E-3,-3.705688E-2,3.3250082E-2,-1.7011505E-2,-5.8702E-2,-4.1673154E-2,1.4668774E-3,4.477346E-2,-4.936716E-2,6.933793E-2,1.0868206E-2],"split_indices":[4,2,0,0,1,1,0,4,4,0,2,2,0,0,0,0,0,0,0,0,0,0,0,0,0],"split_type":[0,0,0,0,0,0,0,0,0,0,0,0,0,0,0,0,0,0,0,0,0,0,0,0,0],"sum_hessian":[4.7201504E3,4.664507E3,5.5643967E1,4.4083657E3,2.561409E2,5.390457E1,1.7393943E0,4.334565E3,7.3800804E1,1.1516577E2,1.4097513E2,2.5495577E1,2.8408997E1,3.442647E3,8.9191785E2,6.506981E1,8.730996E0,9.1441925E1,2.3723845E1,5.9923763E0,1.3498274E2,1.8760328E1,6.7352486E0,2.1191149E1,7.217847E0],"tree_param":{"num_deleted":"0","num_feature":"6","num_nodes":"25","size_leaf_vector":"1"}},{"base_weights":[-4.7652503E-3,-3.2330483E-2,9.489203E-2,-2.92032E-2,-3.3076367E-1,1.2221426E-1,-1.0806227E-1,-3.2806765E-2,2.0764229E-1,3.6565382E-2,-6.8597263E-1,1.04016334E-1,6.6644245E-1,-5.8396593E-2,-6.7590636E-1,-1.958447E-3,-2.0010583E-2,3.3687216E-3,4.869751E-2,1.3998606E-2,-8.940654E-2,-8.5910656E-2,-2.7078563E-2,7.450011E-3,5.0201777E-2,5.8149584E-2,-1.3963572E-2,-1.1875314E-2,2.2956533E-2,-8.0733806E-2,-1.5725296E-2],"categories":[],"categories_nodes":[],"categories_segments":[],"categories_sizes":[],"default_left":[0,0,0,0,0,0,0,0,0,0,0,0,0,0,0,0,0,0,0,0,0,0,0,0,0,0,0,0,0,0,0],"id":9,"left_children":[1,3,5,7,9,11,13,15,17,19,21,23,25,27,29,-1,-1,-1,-1,-1,-1,-1,-1,-1,-1,-1,-1,-1,-1,-1,-1],"loss_changes":[1.2962931E1,3.440004E0,5.6827726E0,3.1297448E0,5.013879E0,8.859887E0,3.3967667E0,6.517183E0,3.6241438E0,3.350059E0,2.2634802E0,4.922511E0,1.5999546E0,3.5608523E0,1.351996E0,0E0,0E0,0E0,0E0,0E0,0E0,0E0,0E0,0E0,0E0,0E0,0E0,0E0,0E0,0E0,0E0],"parents":[2147483647,0,0,1,1,2,2,3,3,4,4,5,5,6,6,7,7,8,8,9,9,10,10,11,11,12,12,13,13,14,14],"right_children":[2,4,6,8,10,12,14,16,18,20,22,24,26,28,30,-1,-1,-1,-1,-1,-1,-1,-1,-1,-1,-1,-1,-1,-1,-1,-1],"split_conditions":[2.710371E0,2.6902802E0,6.3803326E1,2.796578E0,1E0,6.2171032E1,3.8718557E0,1.9116482E0,6.570487E1,2.101114E0,5.800431E1,5.1759105E0,2.3812778E0,3.3240368E0,4.2173967E0,-1.958447E-3,-2.0010583E-2,3.3687216E-3,4.869751E-2,1.3998606E-2,-8.940654E-2,-8.5910656E-2,-2.7078563E-2,7.450011E-3,5.0201777E-2,5.8149584E-2,-1.3963572E-2,-1.1875314E-2,2.2956533E-2,-8.0733806E-2,-1.5725296E-2],"split_indices":[4,4,0,3,5,0,4,3,0,3,0,4,3,4,4,0,0,0,0,0,0,0,0,0,0,0,0,0,0,0,0],"split_type":[0,0,0,0,0,0,0,0,0,0,0,0,0,0,0,0,0,0,0,0,0,0,0,0,0,0,0,0,0,0,0],"sum_hessian":[4.7166934E3,3.695259E3,1.0214342E3,3.6580244E3,3.7234604E1,9.00592E2,1.2084219E2,3.604051E3,5.3973534E1,1.8746017E1,1.8488588E1,8.726049E2,2.7987076E1,1.12137115E2,8.705075E0,3.472139E3,1.3191194E2,3.8987507E1,1.4986025E1,1.7496094E1,1.2499235E0,7.7484484E0,1.0740139E1,8.5597485E2,1.6630096E1,2.6237528E1,1.7495476E0,8.9398254E1,2.273886E1,4.4829326E0,4.2221427E0],"tree_param":{"num_deleted":"0","num_feature":"6","num_nodes":"31","size_leaf_vector":"1"}},{"base_weights":[4.0406824E-4,-5.174733E-3,1.930708E-1,7.7851987E-3,-1.09493285E-1,1.2297156E0,1.316956E-1,5.341685E-3,7.16623E-1,-2.4236189E-1,-4.0012363E-2,1.14495225E-1,3.482195E-2,-3.7616324E-1,1.7747441E-1,-3.5266267E-4,8.251682E-3,-7.2582676E-3,8.161385E-2,-2.3482072E-3,-3.3450387E-2,2.0354563E-2,-7.1655377E-3,-9.000984E-3,-5.255812E-2,2.9969407E-2,5.944741E-4],"categories":[],"categories_nodes":[],"categories_segments":[],"categories_sizes":[],"default_left":[0,0,0,0,0,0,0,0,0,0,0,0,0,0,0,0,0,0,0,0,0,0,0,0,0,0,0],"id":10,"left_children":[1,3,5,7,9,11,13,15,17,19,21,-1,-1,23,25,-1,-1,-1,-1,-1,-1,-1,-1,-1,-1,-1,-1],"loss_changes":[5.0510054E0,6.175391E0,8.251816E0,7.0341015E0,4.650129E0,5.409727E-1,2.9954479E0,3.8628623E0,3.5116916E0,6.469406E0,4.8765206E0,0E0,0E0,7.209877E-1,3.893683E0,0E0,0E0,0E0,0E0,0E0,0E0,0E0,0E0,0E0,0E0,0E0,0E0],"parents":[2147483647,0,0,1,1,2,2,3,3,4,4,5,5,6,6,7,7,8,8,9,9,10,10,13,13,14,14],"right_children":[2,4,6,8,10,12,14,16,18,20,22,-1,-1,24,26,-1,-1,-1,-1,-1,-1,-1,-1,-1,-1,-1,-1],"split_conditions":[2.5088668E0,6.617904E1,-1.355713E1,1.2864765E1,7.8002715E-1,4.5730467E0,2.9324158E1,5.855281E0,4.8915347E-1,5.846116E-1,8.725672E-1,1.14495225E-1,3.482195E-2,3.787623E0,5.135174E1,-3.5266267E-4,8.251682E-3,-7.2582676E-3,8.161385E-2,-2.3482072E-3,-3.3450387E-2,2.0354563E-2,-7.1655377E-3,-9.000984E-3,-5.255812E-2,2.9969407E-2,5.944741E-4],"split_indices":[3,0,1,1,3,3,0,1,3,3,3,0,0,3,0,0,0,0,0,0,0,0,0,0,0,0,0],"split_type":[0,0,0,0,0,0,0,0,0,0,0,0,0,0,0,0,0,0,0,0,0,0,0,0,0,0,0],"sum_hessian":[4.6973384E3,4.566097E3,1.3124144E2,4.0623408E3,5.037563E2,6.2718606E0,1.24969574E2,4.0493894E3,1.2951565E1,1.7212085E2,3.3163544E2,4.363696E0,1.9081643E0,9.736647E0,1.15232925E2,3.683174E3,3.662152E2,3.7305486E0,9.221017E0,7.8344215E1,9.3776634E1,4.7179874E1,2.8445557E2,5.7441883E0,3.9924579E0,5.280702E1,6.2425907E1],"tree_param":{"num_deleted":"0","num_feature":"6","num_nodes":"27","size_leaf_vector":"1"}},{"base_weights":[8.0714235E-3,-8.438196E-3,9.186566E-2,1.21261515E-2,-5.50731E-2,-1.3400447E-1,1.3048851E-1,-2.1473889E-1,1.8826546E-2,-2.0327036E-1,-3.2580588E-2,-2.6990315E-1,5.0608E-2,1.4963146E-1,-3.487893E-1,-5.298567E-2,-4.390532E-3,5.9669917E-3,-2.3136678E-4,-5.521906E-2,-1.1871301E-2,-1.8397523E-3,-3.0636894E-2,-1.7239131E-2,-1.0648163E-1,3.946406E-2,-1.3490994E-2,2.5902675E-2,9.509828E-3,-3.5802893E-2,9.730782E-3],"categories":[],"categories_nodes":[],"categories_segments":[],"categories_sizes":[],"default_left":[0,0,0,0,0,0,0,0,0,0,0,0,0,0,0,0,0,0,0,0,0,0,0,0,0,0,0,0,0,0,0],"id":11,"left_children":[1,3,5,7,9,11,13,15,17,19,21,23,25,27,29,-1,-1,-1,-1,-1,-1,-1,-1,-1,-1,-1,-1,-1,-1,-1,-1],"loss_changes":[6.4965563E0,3.7634068E0,6.760437E0,4.144263E0,3.996251E0,2.8577776E0,6.1128626E0,5.5599375E0,3.2052093E0,4.1214166E0,3.4962473E0,3.492486E0,4.8301873E0,3.3678608E0,1.2469378E0,0E0,0E0,0E0,0E0,0E0,0E0,0E0,0E0,0E0,0E0,0E0,0E0,0E0,0E0,0E0,0E0],"parents":[2147483647,0,0,1,1,2,2,3,3,4,4,5,5,6,6,7,7,8,8,9,9,10,10,11,11,12,12,13,13,14,14],"right_children":[2,4,6,8,10,12,14,16,18,20,22,24,26,28,30,-1,-1,-1,-1,-1,-1,-1,-1,-1,-1,-1,-1,-1,-1,-1,-1],"split_conditions":[2.8857005E0,7.215565E0,5.6514925E-1,-1.6335556E1,1.6081619E0,4.038091E0,2.4446777E1,2.02132E0,1.819189E0,4.8915347E-1,2.81195E0,5.5762273E-1,1E0,6.9216573E-1,1.726371E0,-5.298567E-2,-4.390532E-3,5.9669917E-3,-2.3136678E-4,-5.521906E-2,-1.1871301E-2,-1.8397523E-3,-3.0636894E-2,-1.7239131E-2,-1.0648163E-1,3.946406E-2,-1.3490994E-2,2.5902675E-2,9.509828E-3,-3.5802893E-2,9.730782E-3],"split_indices":[4,2,3,2,4,2,2,4,4,3,4,3,5,3,3,0,0,0,0,0,0,0,0,0,0,0,0,0,0,0,0],"split_type":[0,0,0,0,0,0,0,0,0,0,0,0,0,0,0,0,0,0,0,0,0,0,0,0,0,0,0,0,0,0,0],"sum_hessian":[4.694482E3,3.9225398E3,7.7194196E2,2.7226758E3,1.199864E3,1.12362976E2,6.59579E2,7.7215904E1,2.64546E3,1.5705206E2,1.042812E3,6.445428E1,4.7908695E1,6.349078E2,2.4671202E1,1.9493404E1,5.7722496E1,7.408787E2,1.9045813E3,1.4733892E1,1.4231816E2,1.01608545E3,2.6726547E1,6.2454685E1,1.9995942E0,1.5454173E1,3.245452E1,9.387435E1,5.410334E2,2.0431147E1,4.240055E0],"tree_param":{"num_deleted":"0","num_feature":"6","num_nodes":"31","size_leaf_vector":"1"}},{"base_weights":[-3.598116E-3,-6.122E-3,6.350588E-1,-1.1949542E-1,5.163339E-4,3.6429676E-1,8.43301E-2,1.7946379E-1,-2.3780891E-1,3.7411924E-2,-3.081115E-2,5.362911E-1,-5.498667E-2,-3.2035835E-2,3.675461E-2,-7.159133E-2,-1.673401E-2,7.253176E-4,9.2198355E-3,-2.4604034E-2,-1.2065877E-3,1.8294426E-2,7.165752E-2],"categories":[],"categories_nodes":[],"categories_segments":[],"categories_sizes":[],"default_left":[0,0,0,0,0,0,0,0,0,0,0,0,0,0,0,0,0,0,0,0,0,0,0],"id":12,"left_children":[1,3,5,7,9,11,-1,13,15,17,19,21,-1,-1,-1,-1,-1,-1,-1,-1,-1,-1,-1],"loss_changes":[7.6118426E0,3.5390553E0,1.7251692E0,9.242899E0,5.1367893E0,2.6875052E0,0E0,1.2250471E1,3.3271513E0,4.501403E0,1.0457081E1,1.0755103E0,0E0,0E0,0E0,0E0,0E0,0E0,0E0,0E0,0E0,0E0,0E0],"parents":[2147483647,0,0,1,1,2,2,3,3,4,4,5,5,7,7,8,8,9,9,10,10,11,11],"right_children":[2,4,6,8,10,12,-1,14,16,18,20,22,-1,-1,-1,-1,-1,-1,-1,-1,-1,-1,-1],"split_conditions":[5.1759105E0,-1.3987043E1,1.7496588E0,-1.9772646E1,2.2101474E0,1.5283915E0,8.43301E-2,2.7901154E0,1.6159986E0,1.1624519E0,2.8903081E0,-2.038922E0,-5.498667E-2,-3.2035835E-2,3.675461E-2,-7.159133E-2,-1.673401E-2,7.253176E-4,9.2198355E-3,-2.4604034E-2,-1.2065877E-3,1.8294426E-2,7.165752E-2],"split_indices":[4,2,3,2,2,3,0,4,4,3,2,2,0,0,0,0,0,0,0,0,0,0,0],"split_type":[0,0,0,0,0,0,0,0,0,0,0,0,0,0,0,0,0,0,0,0,0,0,0],"sum_hessian":[4.7188794E3,4.7012905E3,1.7588438E1,2.5910696E2,4.4421836E3,1.1820467E1,5.767971E0,7.332063E1,1.8578632E2,2.0397257E3,2.402458E3,1.0580124E1,1.2403431E0,2.373238E1,4.9588253E1,6.4946785E0,1.7929164E2,1.4960334E3,5.4369226E2,1.2820534E2,2.2742527E3,6.582677E0,3.997447E0],"tree_param":{"num_deleted":"0","num_feature":"6","num_nodes":"23","size_leaf_vector":"1"}},{"base_weights":[1.7870157E-3,-3.8914982E-4,5.5083144E-1,2.4074847E-1,-4.350152E-3,3.7591416E-1,9.429473E-2,-1.6748688E-1,4.9609157E-1,-1.5313973E-2,6.369621E-2,5.878701E-1,-2.9852554E-1,-4.1300333E-3,-1.03720255E-1,5.388419E-2,1.2346822E-2,-1.9126954E-2,-7.076706E-4,9.935427E-3,-7.4365335E-3,-9.290614E-3,5.8388866E-2,-6.575247E-2,2.3979852E-2],"categories":[],"categories_nodes":[],"categories_segments":[],"categories_sizes":[],"default_left":[0,0,0,0,0,0,0,0,0,0,0,0,0,0,0,0,0,0,0,0,0,0,0,0,0],"id":13,"left_children":[1,3,5,7,9,11,-1,13,15,17,19,21,23,-1,-1,-1,-1,-1,-1,-1,-1,-1,-1,-1,-1],"loss_changes":[5.6372514E0,4.490525E0,1.6025357E0,8.003107E0,3.45169E0,2.4679084E0,0E0,3.8552544E0,2.7461977E0,5.7646947E0,6.0960007E0,1.33813E0,1.6547477E0,0E0,0E0,0E0,0E0,0E0,0E0,0E0,0E0,0E0,0E0,0E0,0E0],"parents":[2147483647,0,0,1,1,2,2,3,3,4,4,5,5,7,7,8,8,9,9,10,10,11,11,12,12],"right_children":[2,4,6,8,10,12,-1,14,16,18,20,22,24,-1,-1,-1,-1,-1,-1,-1,-1,-1,-1,-1,-1],"split_conditions":[5.1759105E0,2.517059E1,3.9700592E0,1.0405679E0,2.9589593E0,4.879999E1,9.429473E-2,1.0147415E0,1.8745172E0,-1.3987043E1,8.525115E0,6.6913277E-1,5.2073514E-1,-4.1300333E-3,-1.03720255E-1,5.388419E-2,1.2346822E-2,-1.9126954E-2,-7.076706E-4,9.935427E-3,-7.4365335E-3,-9.290614E-3,5.8388866E-2,-6.575247E-2,2.3979852E-2],"split_indices":[4,0,2,3,4,0,0,3,3,2,2,3,2,0,0,0,0,0,0,0,0,0,0,0,0],"split_type":[0,0,0,0,0,0,0,0,0,0,0,0,0,0,0,0,0,0,0,0,0,0,0,0,0],"sum_hessian":[4.716929E3,4.6993027E3,1.7626633E1,7.497863E1,4.6243237E3,1.5036306E1,2.5903268E0,2.8983963E1,4.599467E1,3.9832986E3,6.410253E2,1.1538472E1,3.4978344E0,2.723481E1,1.7491537E0,2.963533E1,1.6359339E1,1.1089125E2,3.8724075E3,4.6258878E2,1.7843655E2,1.9671713E0,9.5713005E0,1.6663162E0,1.8315183E0],"tree_param":{"num_deleted":"0","num_feature":"6","num_nodes":"25","size_leaf_vector":"1"}},{"base_weights":[2.5192008E-3,1.6875988E-2,-7.521156E-2,8.513929E-3,3.7373185E-1,3.0136335E-1,-9.6118E-2,1.5086652E-2,-3.0338794E-1,-1.111753E-1,4.538829E-1,1.05922505E-1,8.0523884E-1,-5.915534E-1,-8.177301E-2,9.2035945E-4,2.5218522E-2,7.203977E-2,-2.9251117E-2,5.5885162E-2,-1.9846471E-2,5.3405497E-2,1.7851472E-2,3.358479E-2,-1.7603457E-2,8.097768E-2,-1.3216279E-2,-2.7130036E-2,-8.3548486E-2,-4.595493E-2,-5.6306506E-3],"categories":[],"categories_nodes":[],"categories_segments":[],"categories_sizes":[],"default_left":[0,0,0,0,0,0,0,0,0,0,0,0,0,0,0,0,0,0,0,0,0,0,0,0,0,0,0,0,0,0,0],"id":14,"left_children":[1,3,5,7,9,11,13,15,17,19,21,23,25,27,29,-1,-1,-1,-1,-1,-1,-1,-1,-1,-1,-1,-1,-1,-1,-1,-1],"loss_changes":[5.2665343E0,1.1883403E1,5.821466E0,7.9857974E0,3.5942602E0,3.7494998E0,4.911022E0,4.096842E0,6.3543525E0,1.6961317E0,3.7187576E0,3.0809617E0,2.3227854E0,1.8719215E0,3.7716064E0,0E0,0E0,0E0,0E0,0E0,0E0,0E0,0E0,0E0,0E0,0E0,0E0,0E0,0E0,0E0,0E0],"parents":[2147483647,0,0,1,1,2,2,3,3,4,4,5,5,6,6,7,7,8,8,9,9,10,10,11,11,12,12,13,13,14,14],"right_children":[2,4,6,8,10,12,14,16,18,20,22,24,26,28,30,-1,-1,-1,-1,-1,-1,-1,-1,-1,-1,-1,-1,-1,-1,-1,-1],"split_conditions":[6.3892727E0,5.939673E0,4.049666E-1,1.7711426E1,5.244288E-1,2.6622026E0,6.483626E0,4.4713855E0,1.3544918E0,1.4332917E0,8.525115E0,2.1466827E0,3.622859E0,1.0504925E0,4.4171116E-1,9.2035945E-4,2.5218522E-2,7.203977E-2,-2.9251117E-2,5.5885162E-2,-1.9846471E-2,5.3405497E-2,1.7851472E-2,3.358479E-2,-1.7603457E-2,8.097768E-2,-1.3216279E-2,-2.7130036E-2,-8.3548486E-2,-4.595493E-2,-5.6306506E-3],"split_indices":[1,1,3,2,3,4,1,4,4,4,2,4,4,3,3,0,0,0,0,0,0,0,0,0,0,0,0,0,0,0,0],"split_type":[0,0,0,0,0,0,0,0,0,0,0,0,0,0,0,0,0,0,0,0,0,0,0,0,0,0,0,0,0,0,0],"sum_hessian":[4.7171313E3,3.982374E3,7.3475726E2,3.8921936E3,9.0180336E1,3.794066E1,6.9681665E2,3.812798E3,7.939564E1,1.2736785E1,7.744355E1,2.8209215E1,9.731442E0,1.847584E1,6.7834076E2,3.768856E3,4.3942078E1,3.2415261E0,7.615411E1,1.248702E0,1.1488083E1,3.9224712E1,3.8218838E1,1.4224192E1,1.39850235E1,7.985246E0,1.7461962E0,1.2985594E1,5.4902463E0,1.4211127E1,6.6412964E2],"tree_param":{"num_deleted":"0","num_feature":"6","num_nodes":"31","size_leaf_vector":"1"}},{"base_weights":[1.0082329E-3,-1.3462674E-2,7.5939395E-2,2.8985482E-1,-1.7105814E-2,8.95146E-2,-2.3843122E-1,9.423096E-2,1.1342409E0,-7.6839025E-3,-1.116701E-1,7.952388E-2,4.678963E-1,-8.257094E-1,-1.12116024E-1,2.681506E-2,-6.8151735E-2,-3.8971158E-3,1.1084602E-1,-5.8808834E-3,5.469755E-4,2.2626093E-2,-1.2718653E-2,2.692493E-3,1.1623989E-2,2.575185E-2,8.733982E-2,-8.000392E-2,-1.0123897E-2,-1.4188146E-3,-7.029389E-2],"categories":[],"categories_nodes":[],"categories_segments":[],"categories_sizes":[],"default_left":[0,0,0,0,0,0,0,0,0,0,0,0,0,0,0,0,0,0,0,0,0,0,0,0,0,0,0,0,0,0,0],"id":15,"left_children":[1,3,5,7,9,11,13,15,17,19,21,23,25,27,29,-1,-1,-1,-1,-1,-1,-1,-1,-1,-1,-1,-1,-1,-1,-1,-1],"loss_changes":[5.1071534E0,4.3672576E0,3.2748814E0,7.64156E0,3.475529E0,2.7282448E0,2.2687268E0,9.2166815E0,2.663907E0,3.3932328E0,6.642148E0,2.1490273E0,1.3439403E0,5.410936E-1,1.9634136E0,0E0,0E0,0E0,0E0,0E0,0E0,0E0,0E0,0E0,0E0,0E0,0E0,0E0,0E0,0E0,0E0],"parents":[2147483647,0,0,1,1,2,2,3,3,4,4,5,5,6,6,7,7,8,8,9,9,10,10,11,11,12,12,13,13,14,14],"right_children":[2,4,6,8,10,12,14,16,18,20,22,24,26,28,30,-1,-1,-1,-1,-1,-1,-1,-1,-1,-1,-1,-1,-1,-1,-1,-1],"split_conditions":[2.8857005E0,2.517059E1,7.022318E1,-6.4419327E0,1.4454077E1,5.1759105E0,7.107818E1,-9.918554E0,1.6487831E0,3.9894398E1,5.2185696E1,5.0696354E1,3.9700592E0,1.8984547E1,3.596204E1,2.681506E-2,-6.8151735E-2,-3.8971158E-3,1.1084602E-1,-5.8808834E-3,5.469755E-4,2.2626093E-2,-1.2718653E-2,2.692493E-3,1.1623989E-2,2.575185E-2,8.733982E-2,-8.000392E-2,-1.0123897E-2,-1.4188146E-3,-7.029389E-2],"split_indices":[4,0,0,2,2,4,0,2,4,0,0,0,2,2,2,0,0,0,0,0,0,0,0,0,0,0,0,0,0,0,0],"split_type":[0,0,0,0,0,0,0,0,0,0,0,0,0,0,0,0,0,0,0,0,0,0,0,0,0,0,0,0,0,0,0],"sum_hessian":[4.708055E3,3.9466816E3,7.6137335E2,4.5908497E1,3.9007732E3,7.3054224E2,3.0831131E1,3.8175705E1,7.7327924E0,3.5483179E3,3.5245532E2,7.129284E2,1.761386E1,4.477404E0,2.6353727E1,3.0941364E1,7.2343397E0,1.4963071E0,6.2364855E0,6.405427E2,2.9077751E3,3.7211143E1,3.1524417E2,4.209194E2,2.92009E2,1.5501965E1,2.1118946E0,3.2393084E0,1.2380956E0,2.437566E1,1.9780674E0],"tree_param":{"num_deleted":"0","num_feature":"6","num_nodes":"31","size_leaf_vector":"1"}},{"base_weights":[-2.1827293E-3,2.5020253E-2,-7.154066E-2,-3.3199668E-2,5.384775E-2,-2.5937548E-1,-6.0481302E-2,-1.01575926E-1,1.16951905E-1,8.136312E-1,4.8670348E-2,-3.7134483E-1,4.8356324E-2,1.14577E-1,-7.3905595E-2,-5.45487E-2,-6.991E-3,5.5636376E-2,7.2478503E-3,1.2780122E-1,3.3522815E-2,1.5075511E-2,2.5148806E-3,-5.1423743E-2,-1.6928965E-2,1.61361E-2,-9.095823E-2,1.5465877E-2,-8.562425E-2,2.677374E-3,-8.6856345E-3],"categories":[],"categories_nodes":[],"categories_segments":[],"categories_sizes":[],"default_left":[0,0,0,0,0,0,0,0,0,0,0,0,0,0,0,0,0,0,0,0,0,0,0,0,0,0,0,0,0,0,0],"id":16,"left_children":[1,3,5,7,9,11,13,15,17,19,21,23,25,27,29,-1,-1,-1,-1,-1,-1,-1,-1,-1,-1,-1,-1,-1,-1,-1,-1],"loss_changes":[8.877766E0,5.6742554E0,2.737967E0,1.1509809E1,8.85413E0,2.5471826E0,2.9534569E0,6.2803273E0,5.2864175E0,4.044155E0,5.406084E0,2.202619E0,3.9496217E0,8.571394E0,4.338058E0,0E0,0E0,0E0,0E0,0E0,0E0,0E0,0E0,0E0,0E0,0E0,0E0,0E0,0E0,0E0,0E0],"parents":[2147483647,0,0,1,1,2,2,3,3,4,4,5,5,6,6,7,7,8,8,9,9,10,10,11,11,12,12,13,13,14,14],"right_children":[2,4,6,8,10,12,14,16,18,20,22,24,26,28,30,-1,-1,-1,-1,-1,-1,-1,-1,-1,-1,-1,-1,-1,-1,-1,-1],"split_conditions":[7.7597823E0,-3.129318E0,8.177559E0,1.1624519E0,1.7165175E-1,1.0504925E0,8.733445E0,2.6470608E-1,-2.1761744E1,-2.038922E0,-2.1929362E0,1.8986247E0,8.318196E0,9.202572E0,6.273035E-1,-5.45487E-2,-6.991E-3,5.5636376E-2,7.2478503E-3,1.2780122E-1,3.3522815E-2,1.5075511E-2,2.5148806E-3,-5.1423743E-2,-1.6928965E-2,1.61361E-2,-9.095823E-2,1.5465877E-2,-8.562425E-2,2.677374E-3,-8.6856345E-3],"split_indices":[2,1,2,3,3,3,2,3,2,2,1,1,1,1,3,0,0,0,0,0,0,0,0,0,0,0,0,0,0,0,0],"split_type":[0,0,0,0,0,0,0,0,0,0,0,0,0,0,0,0,0,0,0,0,0,0,0,0,0,0,0,0,0,0,0],"sum_hessian":[4.7033916E3,3.3788188E3,1.3245725E3,1.1189133E3,2.2599055E3,7.240336E1,1.2521692E3,7.690333E2,3.4988007E2,1.4238614E1,2.245667E3,5.2935764E1,1.946759E1,8.864653E1,1.1635227E3,1.723161E1,7.518017E2,1.4138161E1,3.357419E2,3.7468429E0,1.0491771E1,2.4541045E2,2.0002565E3,1.848978E1,3.4445984E1,1.7972368E1,1.4952228E0,8.390696E1,4.739568E0,2.8397073E2,8.795519E2],"tree_param":{"num_deleted":"0","num_feature":"6","num_nodes":"31","size_leaf_vector":"1"}},{"base_weights":[-3.7443386E-3,7.904149E-2,-1.8017557E-2,8.274101E-3,2.0723437E-1,-1.4863025E-1,-6.145232E-3,-3.796701E-2,2.7254415E-1,7.007275E-1,1.753543E-1,-1.9881815E-1,2.5152788E-1,2.0941871E-1,-1.0647921E-2,1.585153E-4,-2.542227E-2,1.4362877E-2,6.947735E-2,-1.828876E-2,7.737769E-2,-3.4984702E-3,2.0653808E-2,-1.1818051E-2,-3.9241303E-2,3.743639E-2,-2.6870448E-2,-7.715463E-2,2.0359179E-2,-4.216586E-2,-6.331279E-4],"categories":[],"categories_nodes":[],"categories_segments":[],"categories_sizes":[],"default_left":[0,0,0,0,0,0,0,0,0,0,0,0,0,0,0,0,0,0,0,0,0,0,0,0,0,0,0,0,0,0,0],"id":17,"left_children":[1,3,5,7,9,11,13,15,17,19,21,23,25,27,29,-1,-1,-1,-1,-1,-1,-1,-1,-1,-1,-1,-1,-1,-1,-1,-1],"loss_changes":[5.5646286E0,6.2809877E0,6.2274847E0,5.4759216E0,3.7518692E0,6.770428E0,3.5769536E0,4.2654023E0,3.5425158E0,3.8397527E0,4.233035E0,4.3672733E0,4.9543037E0,4.234784E0,5.090411E0,0E0,0E0,0E0,0E0,0E0,0E0,0E0,0E0,0E0,0E0,0E0,0E0,0E0,0E0,0E0,0E0],"parents":[2147483647,0,0,1,1,2,2,3,3,4,4,5,5,6,6,7,7,8,8,9,9,10,10,11,11,12,12,13,13,14,14],"right_children":[2,4,6,8,10,12,14,16,18,20,22,24,26,28,30,-1,-1,-1,-1,-1,-1,-1,-1,-1,-1,-1,-1,-1,-1,-1,-1],"split_conditions":[3.7807995E1,1.19555E0,4.1162792E1,-4.1854076E0,-1.5178395E1,-1.7951095E0,4.185427E1,1.0807421E0,1.0962093E0,-2.3694326E1,-1.1105895E1,4.038091E0,-7.895762E-1,3.1709734E-1,4.2030365E1,1.585153E-4,-2.542227E-2,1.4362877E-2,6.947735E-2,-1.828876E-2,7.737769E-2,-3.4984702E-3,2.0653808E-2,-1.1818051E-2,-3.9241303E-2,3.743639E-2,-2.6870448E-2,-7.715463E-2,2.0359179E-2,-4.216586E-2,-6.331279E-4],"split_indices":[0,3,0,1,1,1,0,3,3,2,2,2,1,3,0,0,0,0,0,0,0,0,0,0,0,0,0,0,0,0,0],"split_type":[0,0,0,0,0,0,0,0,0,0,0,0,0,0,0,0,0,0,0,0,0,0,0,0,0,0,0,0,0,0,0],"sum_hessian":[4.707116E3,6.915473E2,4.0155688E3,4.462595E2,2.4528781E2,3.3363068E2,3.681938E3,3.8053165E2,6.572786E1,1.3611168E1,2.3167665E2,2.9689697E2,3.6733715E1,7.44034E1,3.6075347E3,3.3385968E2,4.667197E1,5.7979958E1,7.747902E0,3.0649598E0,1.0546207E1,6.368311E1,1.6799355E2,2.5392674E2,4.2970215E1,2.699203E1,9.741688E0,1.996908E0,7.240649E1,1.7986809E1,3.5895479E3],"tree_param":{"num_deleted":"0","num_feature":"6","num_nodes":"31","size_leaf_vector":"1"}},{"base_weights":[1.0519009E-3,-6.2214598E-2,1.1664999E-2,-2.3510797E-1,4.851921E-3,8.9770854E-1,9.439276E-3,-1.6986378E-1,-1.1722203E0,4.5883778E-1,-2.383065E-2,-1.8544845E-2,1.0815079E0,5.0909538E-2,-1.8463882E-2,-6.057474E-3,-3.337431E-2,-4.1041844E-2,-1.19112775E-1,8.937881E-3,8.7841555E-2,3.4841295E-2,-2.9800166E-3,2.4132239E-2,1.01026475E-1,2.558084E-3,1.5185638E-2,-1.9514948E-2,-6.2431337E-4],"categories":[],"categories_nodes":[],"categories_segments":[],"categories_sizes":[],"default_left":[0,0,0,0,0,0,0,0,0,0,0,0,0,0,0,0,0,0,0,0,0,0,0,0,0,0,0,0,0],"id":18,"left_children":[1,3,5,7,9,11,13,15,17,19,21,-1,23,25,27,-1,-1,-1,-1,-1,-1,-1,-1,-1,-1,-1,-1,-1,-1],"loss_changes":[3.1854653E0,7.903565E0,8.003204E0,1.1448122E1,6.4177465E0,2.3618002E0,4.6912994E0,4.1423965E0,1.7893353E0,6.3753357E0,2.8747697E0,0E0,8.8071156E-1,4.2825174E0,5.8237066E0,0E0,0E0,0E0,0E0,0E0,0E0,0E0,0E0,0E0,0E0,0E0,0E0,0E0,0E0],"parents":[2147483647,0,0,1,1,2,2,3,3,4,4,5,5,6,6,7,7,8,8,9,9,10,10,12,12,13,13,14,14],"right_children":[2,4,6,8,10,12,14,16,18,20,22,-1,24,26,28,-1,-1,-1,-1,-1,-1,-1,-1,-1,-1,-1,-1,-1,-1],"split_conditions":[-7.9534073E0,7.16199E-1,2.4123617E1,7.0294863E-1,-2.1761744E1,-7.5556726E0,2.2101474E0,1E0,3.695416E1,1.3835741E0,7.318926E-1,-1.8544845E-2,1.091308E0,5.8248985E1,2.770421E0,-6.057474E-3,-3.337431E-2,-4.1041844E-2,-1.19112775E-1,8.937881E-3,8.7841555E-2,3.4841295E-2,-2.9800166E-3,2.4132239E-2,1.01026475E-1,2.558084E-3,1.5185638E-2,-1.9514948E-2,-6.2431337E-4],"split_indices":[2,3,0,3,2,2,2,5,0,3,3,0,3,0,2,0,0,0,0,0,0,0,0,0,0,0,0,0,0],"split_type":[0,0,0,0,0,0,0,0,0,0,0,0,0,0,0,0,0,0,0,0,0,0,0,0,0,0,0,0,0],"sum_hessian":[4.7420527E3,6.805163E2,4.0615366E3,1.8949757E2,4.910187E2,9.168811E0,4.052368E3,1.782674E2,1.1230177E1,2.8287584E1,4.6273114E2,1.246621E0,7.92219E0,1.6295989E3,2.422769E3,1.3006265E2,4.8204742E1,4.4945703E0,6.7356067E0,1.909347E1,9.194115E0,1.2241885E1,4.5048926E2,1.9969789E0,5.925211E0,1.4352107E3,1.9438826E2,1.0838536E2,2.3143835E3],"tree_param":{"num_deleted":"0","num_feature":"6","num_nodes":"29","size_leaf_vector":"1"}},{"base_weights":[1.7121307E-3,1.8663896E-2,-4.600644E-2,1.5237345E-2,3.1289002E-1,1.6575674E-2,-8.000371E-2,-3.0777883E-2,3.864385E-2,8.404739E-1,8.366132E-2,1.4599018E-1,-9.788507E-2,-5.056142E-1,-6.5244354E-2,-8.090783E-4,-2.3303164E-2,3.7164856E-2,2.655903E-3,9.886201E-2,2.5262317E-2,4.972289E-2,-7.3095774E-3,-2.4906203E-2,1.644007E-2,4.148325E-3,-1.5276106E-2,-5.0984554E-2,1.9446433E-2,-1.5850294E-2,-1.7417007E-3],"categories":[],"categories_nodes":[],"categories_segments":[],"categories_sizes":[],"default_left":[0,0,0,0,0,0,0,0,0,0,0,0,0,0,0,0,0,0,0,0,0,0,0,0,0,0,0,0,0,0,0],"id":19,"left_children":[1,3,5,7,9,11,13,15,17,19,21,23,25,27,29,-1,-1,-1,-1,-1,-1,-1,-1,-1,-1,-1,-1,-1,-1,-1,-1],"loss_changes":[3.8110924E0,3.4999971E0,2.6288984E0,3.703415E0,4.763303E0,6.466172E0,4.9950557E0,6.239063E0,5.269551E0,2.0977287E0,2.7844203E0,5.63841E0,3.239236E0,2.7853699E0,4.471302E0,0E0,0E0,0E0,0E0,0E0,0E0,0E0,0E0,0E0,0E0,0E0,0E0,0E0,0E0,0E0,0E0],"parents":[2147483647,0,0,1,1,2,2,3,3,4,4,5,5,6,6,7,7,8,8,9,9,10,10,11,11,12,12,13,13,14,14],"right_children":[2,4,6,8,10,12,14,16,18,20,22,24,26,28,30,-1,-1,-1,-1,-1,-1,-1,-1,-1,-1,-1,-1,-1,-1,-1,-1],"split_conditions":[5.926917E1,5.8975224E1,7.5915873E-1,7.12886E-1,2.8300703E0,6.777494E0,7.8002715E-1,6.9216573E-1,-1.5178395E1,1.0101148E0,5.922557E-1,5.9840614E1,6.570487E1,7.1521126E1,6.2171032E1,-8.090783E-4,-2.3303164E-2,3.7164856E-2,2.655903E-3,9.886201E-2,2.5262317E-2,4.972289E-2,-7.3095774E-3,-2.4906203E-2,1.644007E-2,4.148325E-3,-1.5276106E-2,-5.0984554E-2,1.9446433E-2,-1.5850294E-2,-1.7417007E-3],"split_indices":[0,0,3,3,1,1,3,3,1,3,3,0,0,0,0,0,0,0,0,0,0,0,0,0,0,0,0,0,0,0,0],"split_type":[0,0,0,0,0,0,0,0,0,0,0,0,0,0,0,0,0,0,0,0,0,0,0,0,0,0,0,0,0,0,0],"sum_hessian":[4.7093076E3,3.4753257E3,1.2339818E3,3.4363577E3,3.8967945E1,4.3455887E2,7.994229E2,1.1585096E3,2.277848E3,1.0995229E1,2.7972717E1,2.0382718E2,2.307317E2,2.5678661E1,7.7374426E2,1.0743301E3,8.417959E1,2.7688824E1,2.2501592E3,5.497915E0,5.497314E0,6.2414813E0,2.1731237E1,2.2982637E1,1.8084454E2,8.86082E1,1.421235E2,2.196404E1,3.7146199E0,1.8985535E2,5.838889E2],"tree_param":{"num_deleted":"0","num_feature":"6","num_nodes":"31","size_leaf_vector":"1"}},{"base_weights":[9.05097E-3,1.4515202E-2,-1.5989403E-1,-4.6599206E-2,2.6354458E-2,-1.1689429E-1,-1.011566E0,-2.2663954E-1,2.5061432E-2,7.8264546E-1,2.3697581E-2,-2.6091656E-1,2.6802644E-1,-1.1252454E-1,-3.592172E-1,-1.4206431E-2,-8.084437E-2,-6.91284E-2,3.1232748E-3,-3.558228E-2,7.80186E-2,1.6852695E-2,1.4675523E-3,-2.6960053E-2,9.112277E-3,8.859846E-2,1.06786825E-2,3.6960702E-2,-8.351967E-2],"categories":[],"categories_nodes":[],"categories_segments":[],"categories_sizes":[],"default_left":[0,0,0,0,0,0,0,0,0,0,0,0,0,0,0,0,0,0,0,0,0,0,0,0,0,0,0,0,0],"id":20,"left_children":[1,3,5,7,9,11,13,15,17,19,21,23,25,-1,27,-1,-1,-1,-1,-1,-1,-1,-1,-1,-1,-1,-1,-1,-1],"loss_changes":[4.337016E0,3.2928917E0,5.272236E0,9.535566E0,7.6405454E0,7.900428E0,1.2839556E0,7.9120197E0,6.6123824E0,3.5806465E0,3.7986822E0,2.9841866E0,4.2516537E0,0E0,2.7102494E0,0E0,0E0,0E0,0E0,0E0,0E0,0E0,0E0,0E0,0E0,0E0,0E0,0E0,0E0],"parents":[2147483647,0,0,1,1,2,2,3,3,4,4,5,5,6,6,7,7,8,8,9,9,10,10,11,11,12,12,14,14],"right_children":[2,4,6,8,10,12,14,16,18,20,22,24,26,-1,28,-1,-1,-1,-1,-1,-1,-1,-1,-1,-1,-1,-1,-1,-1],"split_conditions":[7.350915E1,-7.1715083E0,3.596204E1,7.16199E-1,2.517059E1,1.9843407E1,2.5207028E0,7.0294863E-1,1.5428374E0,-6.8081865E0,-6.1275215E0,1.9503174E0,5.0485E-1,-1.1252454E-1,2.870952E0,-1.4206431E-2,-8.084437E-2,-6.91284E-2,3.1232748E-3,-3.558228E-2,7.80186E-2,1.6852695E-2,1.4675523E-3,-2.6960053E-2,9.112277E-3,8.859846E-2,1.06786825E-2,3.6960702E-2,-8.351967E-2],"split_indices":[0,2,2,3,0,2,4,3,4,2,2,3,3,0,4,0,0,0,0,0,0,0,0,0,0,0,0,0,0],"split_type":[0,0,0,0,0,0,0,0,0,0,0,0,0,0,0,0,0,0,0,0,0,0,0,0,0,0,0,0,0],"sum_hessian":[4.6945244E3,4.5483306E3,1.4619374E2,7.376476E2,3.810683E3,1.4024997E2,5.9437747E0,2.0939656E2,5.2825104E2,1.2312479E1,3.7983706E3,1.022967E2,3.7953266E1,2.9820387E0,2.9617357E0,1.9821815E2,1.1178399E1,7.235333E0,5.210157E2,1.4922652E0,1.0820214E1,1.0466224E2,3.6937083E3,8.5119354E1,1.7177343E1,4.2437534E0,3.370951E1,1.4946191E0,1.4671167E0],"tree_param":{"num_deleted":"0","num_feature":"6","num_nodes":"29","size_leaf_vector":"1"}},{"base_weights":[1.1708739E-2,8.253243E-3,3.0856472E-1,2.9930364E-2,-2.9485585E-2,4.5541856E-1,-2.5852004E-1,3.202359E-2,-8.9031506E-1,-6.0773112E-2,2.7991446E-2,5.4628927E-1,-5.7712203E-1,-9.3695706E-1,2.4697103E-1,1.871884E-3,1.65769E-2,-1.4457166E-2,-8.1499964E-2,-6.7840586E-3,3.2594083E-3,2.9291771E-3,-4.338292E-2,-7.7339415E-3,5.2814577E-2,-9.409259E-2,9.861162E-3,-2.1933924E-2,-8.6029425E-2,5.9570443E-2,-5.2738085E-2],"categories":[],"categories_nodes":[],"categories_segments":[],"categories_sizes":[],"default_left":[0,0,0,0,0,0,0,0,0,0,0,0,0,0,0,0,0,0,0,0,0,0,0,0,0,0,0,0,0,0,0],"id":21,"left_children":[1,3,5,7,9,11,13,15,17,19,21,23,25,27,29,-1,-1,-1,-1,-1,-1,-1,-1,-1,-1,-1,-1,-1,-1,-1,-1],"loss_changes":[4.8191295E0,3.8027906E0,4.619604E0,5.715598E0,3.0517359E0,4.378072E0,4.2635174E0,4.4475107E0,4.297099E-1,2.68301E0,2.9631019E0,3.0158157E0,1.8184985E0,1.8480873E-1,3.8862116E0,0E0,0E0,0E0,0E0,0E0,0E0,0E0,0E0,0E0,0E0,0E0,0E0,0E0,0E0,0E0,0E0],"parents":[2147483647,0,0,1,1,2,2,3,3,4,4,5,5,6,6,7,7,8,8,9,9,10,10,11,11,12,12,13,13,14,14],"right_children":[2,4,6,8,10,12,14,16,18,20,22,24,26,28,30,-1,-1,-1,-1,-1,-1,-1,-1,-1,-1,-1,-1,-1,-1,-1,-1],"split_conditions":[4.4713855E0,5.5856865E1,1.0566794E1,2.7726717E1,2.340149E0,5.5069378E1,4.6116028E1,1.2789543E1,4.8015877E1,6.915354E1,4.108908E0,5.922557E-1,5.5724957E1,3.6748783E1,6.617904E1,1.871884E-3,1.65769E-2,-1.4457166E-2,-8.1499964E-2,-6.7840586E-3,3.2594083E-3,2.9291771E-3,-4.338292E-2,-7.7339415E-3,5.2814577E-2,-9.409259E-2,9.861162E-3,-2.1933924E-2,-8.6029425E-2,5.9570443E-2,-5.2738085E-2],"split_indices":[4,0,2,2,4,0,0,2,0,0,4,3,0,0,0,0,0,0,0,0,0,0,0,0,0,0,0,0,0,0,0],"split_type":[0,0,0,0,0,0,0,0,0,0,0,0,0,0,0,0,0,0,0,0,0,0,0,0,0,0,0,0,0,0,0],"sum_hessian":[4.6994746E3,4.646417E3,5.3057953E1,2.9513647E3,1.6950521E3,4.2300587E1,1.0757364E1,2.9456296E3,5.7350426E0,1.0975469E3,5.9750525E2,3.9311802E1,2.988785E0,4.2285385E0,6.5288258E0,2.8084922E3,1.3713734E2,1.2478318E0,4.4872108E0,8.876216E2,2.0992531E2,5.895267E2,7.9785404E0,5.938451E0,3.3373352E1,1.2448103E0,1.7439747E0,1.2454667E0,2.9830718E0,4.32948E0,2.1993456E0],"tree_param":{"num_deleted":"0","num_feature":"6","num_nodes":"31","size_leaf_vector":"1"}},{"base_weights":[-1.3446859E-2,-3.006455E-2,3.8792737E-2,-2.448374E-2,-2.3697022E-1,1.5381942E-2,1.6658014E-1,-2.8302407E-2,1.9390917E-1,-3.9832637E-2,-4.6402225E-1,4.1038E-2,-1.4532918E-1,5.7193303E-1,9.337543E-2,-1.7521558E-3,-2.8193254E-2,-5.9443526E-2,2.3795584E-2,-1.1956807E-2,2.8153922E-2,-8.6420655E-2,-2.2204982E-2,3.7007057E-3,-6.004635E-2,-2.8937461E-3,-3.838077E-2,-2.5460815E-2,5.168077E-2,-1.1773203E-2,1.5722025E-2],"categories":[],"categories_nodes":[],"categories_segments":[],"categories_sizes":[],"default_left":[0,0,0,0,0,0,0,0,0,0,0,0,0,0,0,0,0,0,0,0,0,0,0,0,0,0,0,0,0,0,0],"id":22,"left_children":[1,3,5,7,9,11,13,15,17,19,21,23,25,27,29,-1,-1,-1,-1,-1,-1,-1,-1,-1,-1,-1,-1,-1,-1,-1,-1],"loss_changes":[4.085513E0,4.1165037E0,3.3955998E0,2.9055102E0,4.1732855E0,3.9688833E0,5.1625094E0,7.0838375E0,6.0303764E0,2.2523785E0,4.6902294E0,3.463335E0,4.820813E0,1.9658117E0,3.7527213E0,0E0,0E0,0E0,0E0,0E0,0E0,0E0,0E0,0E0,0E0,0E0,0E0,0E0,0E0,0E0,0E0],"parents":[2147483647,0,0,1,1,2,2,3,3,4,4,5,5,6,6,7,7,8,8,9,9,10,10,11,11,12,12,13,13,14,14],"right_children":[2,4,6,8,10,12,14,16,18,20,22,24,26,28,30,-1,-1,-1,-1,-1,-1,-1,-1,-1,-1,-1,-1,-1,-1,-1,-1],"split_conditions":[2.652933E0,2.6073015E0,1.5776085E0,2.6124573E0,5.2299534E1,3.8718557E0,2.7658048E0,2.101114E0,1.6720083E0,4.8015877E1,5.5069378E1,1.5611907E0,1E0,2.6023344E1,3.0218377E0,-1.7521558E-3,-2.8193254E-2,-5.9443526E-2,2.3795584E-2,-1.1956807E-2,2.8153922E-2,-8.6420655E-2,-2.2204982E-2,3.7007057E-3,-6.004635E-2,-2.8937461E-3,-3.838077E-2,-2.5460815E-2,5.168077E-2,-1.1773203E-2,1.5722025E-2],"split_indices":[4,4,3,3,0,4,4,3,4,0,0,3,5,0,4,0,0,0,0,0,0,0,0,0,0,0,0,0,0,0,0],"split_type":[0,0,0,0,0,0,0,0,0,0,0,0,0,0,0,0,0,0,0,0,0,0,0,0,0,0,0,0,0,0,0],"sum_hessian":[4.703919E3,3.5690195E3,1.1348994E3,3.4763708E3,9.264886E1,9.60124E2,1.7477542E2,3.4174854E3,5.888536E1,5.0220455E1,4.2428402E1,8.285916E2,1.3153241E2,2.5693157E1,1.4908226E2,3.352352E3,6.513331E1,5.244867E0,5.3640495E1,3.9723026E1,1.0497428E1,8.742289E0,3.368611E1,8.2409814E2,4.493474E0,1.00000595E2,3.1531813E1,1.7205538E0,2.3972605E1,4.4615166E1,1.0446709E2],"tree_param":{"num_deleted":"0","num_feature":"6","num_nodes":"31","size_leaf_vector":"1"}},{"base_weights":[-6.2920386E-3,8.952828E-3,-4.489624E-2,-1.7606117E-2,6.8765655E-2,-2.1431795E-1,-2.9662462E-2,7.664646E-2,-4.2453147E-2,5.4412293E-1,5.5303372E-2,-5.035246E-1,-1.1062943E-1,-2.5707805E-1,-1.46046085E-2,1.6278528E-2,-4.935071E-3,-1.6981138E-2,-1.306859E-3,-1.1588916E-3,5.8140673E-2,4.2896383E-2,3.99753E-3,-7.2323434E-2,-1.0248092E-2,1.0456888E-2,-3.247349E-2,1.6804758E-2,-3.141276E-2,4.189595E-2,-1.8131828E-3],"categories":[],"categories_nodes":[],"categories_segments":[],"categories_sizes":[],"default_left":[0,0,0,0,0,0,0,0,0,0,0,0,0,0,0,0,0,0,0,0,0,0,0,0,0,0,0,0,0,0,0],"id":23,"left_children":[1,3,5,7,9,11,13,15,17,19,21,23,25,27,29,-1,-1,-1,-1,-1,-1,-1,-1,-1,-1,-1,-1,-1,-1,-1,-1],"loss_changes":[2.7698472E0,5.3616886E0,3.432475E0,5.477653E0,6.6113367E0,3.2357173E0,4.1864624E0,8.575462E0,8.203804E0,2.9149752E0,2.5650113E0,4.1973944E0,5.902155E0,4.8914604E0,4.9959188E0,0E0,0E0,0E0,0E0,0E0,0E0,0E0,0E0,0E0,0E0,0E0,0E0,0E0,0E0,0E0,0E0],"parents":[2147483647,0,0,1,1,2,2,3,3,4,4,5,5,6,6,7,7,8,8,9,9,10,10,11,11,12,12,13,13,14,14],"right_children":[2,4,6,8,10,12,14,16,18,20,22,24,26,28,30,-1,-1,-1,-1,-1,-1,-1,-1,-1,-1,-1,-1,-1,-1,-1,-1],"split_conditions":[7.7597823E0,5.3444073E1,8.388969E0,1.799733E0,5.37106E1,1.776486E0,4.5110836E1,-6.438693E-2,1.9555203E0,-4.258496E0,-1.438014E1,8.075995E0,2.32727E0,3.8591278E1,4.6116028E1,1.6278528E-2,-4.935071E-3,-1.6981138E-2,-1.306859E-3,-1.1588916E-3,5.8140673E-2,4.2896383E-2,3.99753E-3,-7.2323434E-2,-1.0248092E-2,1.0456888E-2,-3.247349E-2,1.6804758E-2,-3.141276E-2,4.189595E-2,-1.8131828E-3],"split_indices":[2,0,2,4,0,4,0,2,4,2,2,2,4,0,0,0,0,0,0,0,0,0,0,0,0,0,0,0,0,0,0],"split_type":[0,0,0,0,0,0,0,0,0,0,0,0,0,0,0,0,0,0,0,0,0,0,0,0,0,0,0,0,0,0,0],"sum_hessian":[4.704812E3,3.3734136E3,1.3313987E3,2.3365923E3,1.0368213E3,1.087601E2,1.2226385E3,4.8703415E2,1.8495581E3,2.7468874E1,1.0093524E3,2.7685087E1,8.107501E1,7.4929E1,1.1477096E3,2.5383208E2,2.3320207E2,2.4559737E2,1.6039607E3,6.994912E0,2.047396E1,9.981304E0,9.9937115E2,1.2713599E1,1.4971489E1,4.491953E1,3.6155487E1,1.673169E1,5.819731E1,1.5987695E1,1.1317219E3],"tree_param":{"num_deleted":"0","num_feature":"6","num_nodes":"31","size_leaf_vector":"1"}},{"base_weights":[1.8628417E-3,3.6159104E-1,-1.0381482E-3,7.727733E-1,-2.0887066E-1,-5.6407075E-2,1.6507423E-2,3.4500223E-1,9.4261086E-1,-5.8990943E-1,-3.3006012E-2,-4.399961E-2,-7.248074E-1,5.863587E-2,-3.5871673E-2,2.1133348E-5,5.903099E-2,8.804009E-2,4.61545E-2,-5.7310913E-2,-1.7290495E-2,8.66235E-3,-5.7674825E-2,-3.1179423E-3,-7.693054E-2,-1.0799628E-1,-3.4884583E-2,5.280127E-3,-2.2559023E-2,-2.2165887E-2,-2.2340862E-3],"categories":[],"categories_nodes":[],"categories_segments":[],"categories_sizes":[],"default_left":[0,0,0,0,0,0,0,0,0,0,0,0,0,0,0,0,0,0,0,0,0,0,0,0,0,0,0,0,0,0,0],"id":24,"left_children":[1,3,5,7,9,11,13,15,17,19,21,23,25,27,29,-1,-1,-1,-1,-1,-1,-1,-1,-1,-1,-1,-1,-1,-1,-1,-1],"loss_changes":[4.922634E0,9.012993E0,4.5474772E0,1.2834835E0,1.0925071E0,9.309437E0,7.8459344E0,1.0657496E0,2.46871E-1,9.009147E-2,1.2845336E0,5.067013E0,3.105214E0,4.962397E0,3.0302153E0,0E0,0E0,0E0,0E0,0E0,0E0,0E0,0E0,0E0,0E0,0E0,0E0,0E0,0E0,0E0,0E0],"parents":[2147483647,0,0,1,1,2,2,3,3,4,4,5,5,6,6,7,7,8,8,9,9,10,10,11,11,12,12,13,13,14,14],"right_children":[2,4,6,8,10,12,14,16,18,20,22,24,26,28,30,-1,-1,-1,-1,-1,-1,-1,-1,-1,-1,-1,-1,-1,-1,-1,-1],"split_conditions":[-2.1761744E1,3.446739E1,-3.129318E0,-1.6753838E1,3.695416E1,4.943323E1,5.663003E1,2.671105E1,-1.1588539E1,-9.161351E0,5.172145E1,1.4972687E1,-4.5637574E0,1.8127363E1,-7.3853626E0,2.1133348E-5,5.903099E-2,8.804009E-2,4.61545E-2,-5.7310913E-2,-1.7290495E-2,8.66235E-3,-5.7674825E-2,-3.1179423E-3,-7.693054E-2,-1.0799628E-1,-3.4884583E-2,5.280127E-3,-2.2559023E-2,-2.2165887E-2,-2.2340862E-3],"split_indices":[2,0,1,1,0,0,0,0,1,1,0,2,1,2,2,0,0,0,0,0,0,0,0,0,0,0,0,0,0,0,0],"split_type":[0,0,0,0,0,0,0,0,0,0,0,0,0,0,0,0,0,0,0,0,0,0,0,0,0,0,0,0,0,0,0],"sum_hessian":[4.7157593E3,3.673637E1,4.679023E3,2.1142471E1,1.5593897E1,1.1253904E3,3.5536328E3,6.8700905E0,1.4272382E1,4.180923E0,1.1412974E1,1.1059269E3,1.9463411E1,1.9694703E3,1.5841624E3,4.1922565E0,2.6778338E0,8.564851E0,5.7075315E0,2.4390147E0,1.7419082E0,1.0167415E1,1.2455597E0,1.1009402E3,4.986732E0,4.988376E0,1.4475036E1,1.9285728E3,4.0897614E1,4.9440533E1,1.5347218E3],"tree_param":{"num_deleted":"0","num_feature":"6","num_nodes":"31","size_leaf_vector":"1"}},{"base_weights":[-4.1667614E-3,1.8829394E-2,-3.5097267E-2,-1.4145031E-2,8.5197635E-2,-1.5426235E-1,-2.1272823E-2,-3.0099426E-3,-3.0502385E-1,1.0128949E0,7.386426E-2,-1.2602317E-1,-7.8747645E-2,9.731478E-2,-4.6624754E-2,-3.1543136E-2,3.3530366E-4,-4.8166282E-2,-1.0954785E-2,1.0400599E-1,1.6318727E-2,7.963557E-3,-1.58841E-2,-1.2260771E-2,5.038907E-2,1.2880697E-2,-1.3862047E-2,-7.607614E-3,1.6590979E-4],"categories":[],"categories_nodes":[],"categories_segments":[],"categories_sizes":[],"default_left":[0,0,0,0,0,0,0,0,0,0,0,0,0,0,0,0,0,0,0,0,0,0,0,0,0,0,0,0,0],"id":25,"left_children":[1,3,5,7,9,11,13,15,17,19,21,23,-1,25,27,-1,-1,-1,-1,-1,-1,-1,-1,-1,-1,-1,-1,-1,-1],"loss_changes":[3.3440914E0,5.902889E0,3.2994561E0,5.8372326E0,9.337889E0,4.7573876E0,5.4088407E0,4.8960733E0,3.2353306E0,2.2265892E0,6.214676E0,4.266368E0,0E0,5.49019E0,3.497557E0,0E0,0E0,0E0,0E0,0E0,0E0,0E0,0E0,0E0,0E0,0E0,0E0,0E0,0E0],"parents":[2147483647,0,0,1,1,2,2,3,3,4,4,5,5,6,6,7,7,8,8,9,9,10,10,11,11,13,13,14,14],"right_children":[2,4,6,8,10,12,14,16,18,20,22,24,-1,26,28,-1,-1,-1,-1,-1,-1,-1,-1,-1,-1,-1,-1,-1,-1],"split_conditions":[4.1962643E0,5.0696354E1,-1.0077661E0,4.993323E1,2.6470608E-1,1.8127363E1,5.1834293E1,2.9600105E-1,-3.7142243E0,5.926917E1,6.6862597E0,1.5543404E1,-7.8747645E-2,1.1707463E0,5.855281E0,-3.1543136E-2,3.3530366E-4,-4.8166282E-2,-1.0954785E-2,1.0400599E-1,1.6318727E-2,7.963557E-3,-1.58841E-2,-1.2260771E-2,5.038907E-2,1.2880697E-2,-1.3862047E-2,-7.607614E-3,1.6590979E-4],"split_indices":[2,0,1,0,3,2,0,3,2,0,1,2,0,3,1,0,0,0,0,0,0,0,0,0,0,0,0,0,0],"split_type":[0,0,0,0,0,0,0,0,0,0,0,0,0,0,0,0,0,0,0,0,0,0,0,0,0,0,0,0,0],"sum_hessian":[4.699565E3,2.6957356E3,2.0038295E3,1.8014763E3,8.9425934E2,2.072448E2,1.7965846E3,1.7360299E3,6.544635E1,9.726432E0,8.845329E2,2.0154027E2,5.704518E0,3.159308E2,1.4806538E3,3.0401684E1,1.7056283E3,2.2717329E1,4.2729023E1,6.7299623E0,2.996469E0,8.0891254E2,7.56204E1,1.9530035E2,6.239914E0,2.560617E2,5.9869076E1,7.415881E2,7.3906573E2],"tree_param":{"num_deleted":"0","num_feature":"6","num_nodes":"29","size_leaf_vector":"1"}},{"base_weights":[4.797119E-4,2.6672173E-1,-1.5379887E-3,9.287934E-2,6.933065E-1,-1.077912E-1,3.9593154E-3,-4.9590915E-3,7.9534836E-2,9.4241476E-1,-2.0557098E-2,-1.2646364E-1,7.846222E-2,1.973809E-1,6.137736E-4,3.9927285E-2,-1.6493868E-2,8.4993124E-2,2.238323E-2,-2.9541641E-2,-4.5487997E-3,2.0219795E-2,-7.458457E-2,-1.5732985E-2,2.5535558E-4],"categories":[],"categories_nodes":[],"categories_segments":[],"categories_sizes":[],"default_left":[0,0,0,0,0,0,0,0,0,0,0,0,0,0,0,0,0,0,0,0,0,0,0,0,0],"id":26,"left_children":[1,3,5,7,9,11,13,15,-1,17,-1,19,-1,21,23,-1,-1,-1,-1,-1,-1,-1,-1,-1,-1],"loss_changes":[2.5300643E0,2.5626082E0,2.73087E0,2.3261056E0,2.6334443E0,4.7988586E0,2.8766112E0,2.6120734E0,0E0,3.5618448E-1,0E0,3.8153076E0,0E0,4.9631233E0,2.2237659E0,0E0,0E0,0E0,0E0,0E0,0E0,0E0,0E0,0E0,0E0],"parents":[2147483647,0,0,1,1,2,2,3,3,4,4,5,5,6,6,7,7,9,9,11,11,13,13,14,14],"right_children":[2,4,6,8,10,12,14,16,-1,18,-1,20,-1,22,24,-1,-1,-1,-1,-1,-1,-1,-1,-1,-1],"split_conditions":[-1.5178395E1,-1.5209614E1,-1.3987043E1,3.4226044E1,3.0729843E1,5.882602E1,-1.24265E1,2.0817387E1,7.9534836E-2,-1.0581198E1,-2.0557098E-2,-1.1588539E1,7.846222E-2,3.9154975E0,2.7465208E1,3.9927285E-2,-1.6493868E-2,8.4993124E-2,2.238323E-2,-2.9541641E-2,-4.5487997E-3,2.0219795E-2,-7.458457E-2,-1.5732985E-2,2.5535558E-4],"split_indices":[1,2,2,0,0,0,2,0,0,2,0,1,0,1,0,0,0,0,0,0,0,0,0,0,0],"split_type":[0,0,0,0,0,0,0,0,0,0,0,0,0,0,0,0,0,0,0,0,0,0,0,0,0],"sum_hessian":[4.7079907E3,3.4424145E1,4.6735664E3,2.5322437E1,9.1017065E0,2.2898976E2,4.4445767E3,2.3739923E1,1.5825142E0,7.2178516E0,1.883855E0,2.2599701E2,2.992745E0,7.4583E1,4.3699937E3,6.3507166E0,1.7389208E1,5.6003094E0,1.6175423E0,4.939189E1,1.7660512E2,7.183843E1,2.744568E0,5.5402916E1,4.314591E3],"tree_param":{"num_deleted":"0","num_feature":"6","num_nodes":"25","size_leaf_vector":"1"}},{"base_weights":[-5.42869E-3,-7.364356E-3,5.211919E-1,1.4076628E-2,-4.271511E-2,1.24442585E-1,8.4103936E-1,-5.8159564E-2,3.3763755E-2,2.752183E-1,-5.0587382E-2,5.29487E-1,-7.876431E-2,7.366245E-2,2.586159E-2,6.4663654E-3,-1.6555805E-2,2.3153296E-2,1.8486653E-3,3.256962E-2,-5.290991E-2,-6.9876336E-2,-3.721812E-3,7.324481E-2,-3.577376E-3],"categories":[],"categories_nodes":[],"categories_segments":[],"categories_sizes":[],"default_left":[0,0,0,0,0,0,0,0,0,0,0,0,0,0,0,0,0,0,0,0,0,0,0,0,0],"id":27,"left_children":[1,3,5,7,9,11,13,15,17,19,21,23,-1,-1,-1,-1,-1,-1,-1,-1,-1,-1,-1,-1,-1],"loss_changes":[4.8229556E0,3.5715215E0,2.0941448E0,4.173527E0,4.4663124E0,4.522499E0,9.1255665E-2,1.3016055E1,6.2743473E0,5.5985084E0,5.7684393E0,1.6314878E0,0E0,0E0,0E0,0E0,0E0,0E0,0E0,0E0,0E0,0E0,0E0,0E0,0E0],"parents":[2147483647,0,0,1,1,2,2,3,3,4,4,5,5,6,6,7,7,8,8,9,9,10,10,11,11],"right_children":[2,4,6,8,10,12,14,16,18,20,22,24,-1,-1,-1,-1,-1,-1,-1,-1,-1,-1,-1,-1,-1],"split_conditions":[5.1759105E0,5.3906965E0,-1.0008169E1,6.2054926E-1,-3.8391948E0,-7.5556726E0,3.1278098E0,2.1942568E0,6.519587E-1,1.4972687E1,-3.510041E0,-1.6753838E1,-7.876431E-2,7.366245E-2,2.586159E-2,6.4663654E-3,-1.6555805E-2,2.3153296E-2,1.8486653E-3,3.256962E-2,-5.290991E-2,-6.9876336E-2,-3.721812E-3,7.324481E-2,-3.577376E-3],"split_indices":[4,2,1,3,1,2,1,4,3,2,1,1,0,0,0,0,0,0,0,0,0,0,0,0,0],"split_type":[0,0,0,0,0,0,0,0,0,0,0,0,0,0,0,0,0,0,0,0,0,0,0,0,0],"sum_hessian":[4.726584E3,4.710257E3,1.6327179E1,2.932335E3,1.7779218E3,7.907511E0,8.419667E0,6.275968E2,2.3047383E3,4.2138428E1,1.7357833E3,6.174808E0,1.7327033E0,6.6215296E0,1.7981379E0,3.2471945E2,3.0287735E2,9.11698E1,2.2135684E3,3.7432114E1,4.7063136E0,7.4807925E0,1.7283026E3,3.3367908E0,2.8380172E0],"tree_param":{"num_deleted":"0","num_feature":"6","num_nodes":"25","size_leaf_vector":"1"}},{"base_weights":[-4.487249E-3,-3.172644E-3,-3.2165387E-1,-6.802157E-3,1.7700864E-1,2.4390511E-2,-8.843559E-1,-2.522826E-3,-1.3628533E-1,3.4204885E-2,6.0905474E-1,-8.175437E-2,2.22483E-1,-1.04836505E-2,-8.119828E-2,-4.6391264E-3,4.025345E-4,-7.733618E-2,-8.053784E-3,2.4792576E-2,-1.319417E-2,7.551526E-2,2.5827007E-3,6.424771E-2,-5.537319E-3],"categories":[],"categories_nodes":[],"categories_segments":[],"categories_sizes":[],"default_left":[0,0,0,0,0,0,0,0,0,0,0,0,0,0,0,0,0,0,0,0,0,0,0,0,0],"id":28,"left_children":[1,3,5,7,9,11,13,15,17,19,21,-1,23,-1,-1,-1,-1,-1,-1,-1,-1,-1,-1,-1,-1],"loss_changes":[1.953976E0,3.0555537E0,3.7882726E0,2.5370038E0,5.6713915E0,2.9117393E0,5.944567E-1,1.8581151E0,4.2346096E0,3.916162E0,4.3849163E0,0E0,2.0389824E0,0E0,0E0,0E0,0E0,0E0,0E0,0E0,0E0,0E0,0E0,0E0,0E0],"parents":[2147483647,0,0,1,1,2,2,3,3,4,4,5,5,6,6,7,7,8,8,9,9,10,10,12,12],"right_children":[2,4,6,8,10,12,14,16,18,20,22,-1,24,-1,-1,-1,-1,-1,-1,-1,-1,-1,-1,-1,-1],"split_conditions":[3.596204E1,2.3000631E1,1.7325018E1,1.8127363E1,7.486764E1,5.5856865E1,7.419957E1,-9.665743E0,-1.0674323E0,6.256507E1,1.9410103E1,-8.175437E-2,6.3803326E1,-1.04836505E-2,-8.119828E-2,-4.6391264E-3,4.025345E-4,-7.733618E-2,-8.053784E-3,2.4792576E-2,-1.319417E-2,7.551526E-2,2.5827007E-3,6.424771E-2,-5.537319E-3],"split_indices":[2,2,1,2,0,0,0,2,1,0,1,0,0,0,0,0,0,0,0,0,0,0,0,0,0],"split_type":[0,0,0,0,0,0,0,0,0,0,0,0,0,0,0,0,0,0,0,0,0,0,0,0,0],"sum_hessian":[4.6878154E3,4.669471E3,1.8344215E1,4.5782114E3,9.125975E1,1.1951231E1,6.392984E0,4.4327324E3,1.454793E2,6.9400154E1,2.1859594E1,1.2404342E0,1.0710797E1,1.2407464E0,5.1522374E0,5.3056604E2,3.9021663E3,4.9073005E0,1.4057199E2,2.887116E1,4.0528996E1,1.3426989E1,8.432606E0,2.9954123E0,7.7153845E0],"tree_param":{"num_deleted":"0","num_feature":"6","num_nodes":"25","size_leaf_vector":"1"}},{"base_weights":[-5.2388837E-3,-1.8137598E-2,4.574842E-2,-1.9604535E-1,-1.4458163E-2,9.4305617E-1,3.86698E-2,1.8019904E-1,-3.446873E-1,1.2380036E-1,-1.9466104E-2,9.9759825E-2,-6.3926377E-3,-1.7252995E-1,5.571414E-2,4.145264E-2,-1.7037598E-2,-4.7273897E-2,7.920338E-3,-5.265406E-2,1.5441683E-2,-1.4375406E-3,-2.9533723E-2,-2.1185715E-2,2.117455E-2,7.185728E-3,-1.5145285E-3],"categories":[],"categories_nodes":[],"categories_segments":[],"categories_sizes":[],"default_left":[0,0,0,0,0,0,0,0,0,0,0,0,0,0,0,0,0,0,0,0,0,0,0,0,0,0,0],"id":29,"left_children":[1,3,5,7,9,11,13,15,17,19,21,-1,-1,23,25,-1,-1,-1,-1,-1,-1,-1,-1,-1,-1,-1,-1],"loss_changes":[3.1016204E0,2.4608145E0,6.0117064E0,4.322574E0,2.5562332E0,2.403636E0,3.4142756E0,3.0641932E0,6.0620127E0,7.1132455E0,1.8570493E0,0E0,0E0,2.9298766E0,2.2317972E0,0E0,0E0,0E0,0E0,0E0,0E0,0E0,0E0,0E0,0E0,0E0,0E0],"parents":[2147483647,0,0,1,1,2,2,3,3,4,4,5,5,6,6,7,7,8,8,9,9,10,10,13,13,14,14],"right_children":[2,4,6,8,10,12,14,16,18,20,22,-1,-1,24,26,-1,-1,-1,-1,-1,-1,-1,-1,-1,-1,-1,-1],"split_conditions":[2.7539911E0,1.2707472E0,2.0817387E1,4.4233555E1,1.420561E0,3.2896404E0,2.9324158E1,1.0052149E0,5.5195465E1,-3.5859063E0,1.7325018E1,9.9759825E-2,-6.3926377E-3,2.1598723E0,5.6115135E1,4.145264E-2,-1.7037598E-2,-4.7273897E-2,7.920338E-3,-5.265406E-2,1.5441683E-2,-1.4375406E-3,-2.9533723E-2,-2.1185715E-2,2.117455E-2,7.185728E-3,-1.5145285E-3],"split_indices":[4,4,0,0,4,3,0,3,0,1,1,0,0,3,0,0,0,0,0,0,0,0,0,0,0,0,0],"split_type":[0,0,0,0,0,0,0,0,0,0,0,0,0,0,0,0,0,0,0,0,0,0,0,0,0,0,0],"sum_hessian":[4.7138076E3,3.7625945E3,9.512129E2,7.518073E1,3.6874138E3,6.4102035E0,9.448027E2,2.1230223E1,5.3950504E1,1.28066E2,3.559348E3,4.7730403E0,1.6371632E0,6.98728E1,8.749299E2,1.1245742E1,9.984481E0,3.448208E1,1.9468426E1,9.722618E0,1.18343376E2,3.5452246E3,1.4123261E1,5.801967E1,1.1853135E1,6.003926E2,2.7453726E2],"tree_param":{"num_deleted":"0","num_feature":"6","num_nodes":"27","size_leaf_vector":"1"}},{"base_weights":[1.05734905E-2,1.4324363E-2,-1.5362099E-1,-1.4455562E-3,4.5878317E-2,-2.9312962E-1,1.0199331E-1,-4.6264518E-2,2.7120773E-2,6.651094E-2,-7.935108E-2,-4.327656E-1,-8.592422E-2,2.6400283E-1,-7.865237E-1,-3.2404168E-3,-4.0400118E-2,5.9700017E-3,-2.559948E-3,4.591795E-3,3.6008716E-2,-3.4077384E-2,-2.2896728E-3,-2.1475265E-2,-6.463933E-2,-2.386929E-2,1.3068915E-2,5.828409E-2,5.8462415E-3,-8.413136E-2,-3.5803538E-2],"categories":[],"categories_nodes":[],"categories_segments":[],"categories_sizes":[],"default_left":[0,0,0,0,0,0,0,0,0,0,0,0,0,0,0,0,0,0,0,0,0,0,0,0,0,0,0,0,0,0,0],"id":30,"left_children":[1,3,5,7,9,11,13,15,17,19,21,23,25,27,29,-1,-1,-1,-1,-1,-1,-1,-1,-1,-1,-1,-1,-1,-1,-1,-1],"loss_changes":[2.9021106E0,2.2912173E0,3.7830505E0,3.9331083E0,3.9697835E0,1.9402623E0,5.6635895E0,3.1388733E0,5.2716236E0,4.581323E0,3.8122427E0,2.2853446E0,1.5719903E0,2.8564186E0,7.723212E-2,0E0,0E0,0E0,0E0,0E0,0E0,0E0,0E0,0E0,0E0,0E0,0E0,0E0,0E0,0E0,0E0],"parents":[2147483647,0,0,1,1,2,2,3,3,4,4,5,5,6,6,7,7,8,8,9,9,10,10,11,11,12,12,13,13,14,14],"right_children":[2,4,6,8,10,12,14,16,18,20,22,24,26,28,30,-1,-1,-1,-1,-1,-1,-1,-1,-1,-1,-1,-1,-1,-1,-1,-1],"split_conditions":[7.486764E1,1.0504925E0,1.9843407E1,4.8153008E1,1.1531081E1,7.8001114E1,3.596204E1,4.8015877E1,5.800431E1,1.0831174E1,1.2282476E1,1.4454077E1,1.3568227E1,6.9216573E-1,6.519587E-1,-3.2404168E-3,-4.0400118E-2,5.9700017E-3,-2.559948E-3,4.591795E-3,3.6008716E-2,-3.4077384E-2,-2.2896728E-3,-2.1475265E-2,-6.463933E-2,-2.386929E-2,1.3068915E-2,5.828409E-2,5.8462415E-3,-8.413136E-2,-3.5803538E-2],"split_indices":[0,3,2,0,2,0,2,0,0,2,2,2,2,3,3,0,0,0,0,0,0,0,0,0,0,0,0,0,0,0,0],"split_type":[0,0,0,0,0,0,0,0,0,0,0,0,0,0,0,0,0,0,0,0,0,0,0,0,0,0,0,0,0,0,0],"sum_hessian":[4.7076196E3,4.6033726E3,1.04247086E2,3.070009E3,1.5333636E3,6.734494E1,3.6902145E1,1.194806E3,1.875203E3,1.3168673E3,2.1649632E2,3.9581997E1,2.7762941E1,3.1805668E1,5.096477E0,1.1810664E3,1.3739646E1,1.0396002E3,8.356027E2,1.2874303E3,2.9437065E1,2.6696249E1,1.8980006E2,2.871993E1,1.0862067E1,1.4882852E1,1.288009E1,8.444075E0,2.3361591E1,1.6800891E0,3.4163878E0],"tree_param":{"num_deleted":"0","num_feature":"6","num_nodes":"31","size_leaf_vector":"1"}},{"base_weights":[4.6364637E-3,2.0248899E-1,1.6058881E-3,1.4297324E-1,1.0720428E0,-2.9680684E-1,2.872256E-3,3.0189866E-1,-1.3514041E-2,2.2755453E-2,9.879181E-2,-4.8477024E-1,4.442519E-1,1.8553396E-1,5.445687E-4,1.5020761E-2,8.022632E-2,-2.9329214E-2,2.5164522E-2,-1.2000401E-2,-6.640769E-2,8.151981E-2,-3.3928487E-2,-5.833146E-2,1.882613E-2,-2.4337811E-2,3.155493E-4],"categories":[],"categories_nodes":[],"categories_segments":[],"categories_sizes":[],"default_left":[0,0,0,0,0,0,0,0,0,0,0,0,0,0,0,0,0,0,0,0,0,0,0,0,0,0,0],"id":31,"left_children":[1,3,5,7,9,11,13,15,17,-1,-1,19,21,23,25,-1,-1,-1,-1,-1,-1,-1,-1,-1,-1,-1,-1],"loss_changes":[2.824962E0,3.5251102E0,1.7549978E0,1.6872106E0,2.1301079E-1,2.9489274E0,1.9655863E0,2.5014377E0,4.1764627E0,0E0,0E0,1.7404351E0,2.6742334E0,2.8208888E0,4.7322736E0,0E0,0E0,0E0,0E0,0E0,0E0,0E0,0E0,0E0,0E0,0E0,0E0],"parents":[2147483647,0,0,1,1,2,2,3,3,4,4,5,5,6,6,7,7,8,8,11,11,12,12,13,13,14,14],"right_children":[2,4,6,8,10,12,14,16,18,-1,-1,20,22,24,26,-1,-1,-1,-1,-1,-1,-1,-1,-1,-1,-1,-1],"split_conditions":[-1.9772646E1,2.3032973E0,-1.906576E1,9.1297144E-1,-2.3694326E1,4.3764687E1,2.517059E1,8.6882895E-1,1.2114903E0,2.2755453E-2,9.879181E-2,3.8778095E1,4.555462E1,4.623003E-1,2.7465208E1,1.5020761E-2,8.022632E-2,-2.9329214E-2,2.5164522E-2,-1.2000401E-2,-6.640769E-2,8.151981E-2,-3.3928487E-2,-5.833146E-2,1.882613E-2,-2.4337811E-2,3.155493E-4],"split_indices":[2,3,2,3,2,0,0,3,3,0,0,0,0,3,0,0,0,0,0,0,0,0,0,0,0,0,0],"split_type":[0,0,0,0,0,0,0,0,0,0,0,0,0,0,0,0,0,0,0,0,0,0,0,0,0,0,0],"sum_hessian":[4.7108975E3,7.0076935E1,4.6408203E3,6.667767E1,3.399265E0,1.8624739E1,4.622196E3,3.262011E1,3.405756E1,1.0530589E0,2.3462062E0,1.5132379E1,3.4923608E0,5.7169872E1,4.565026E3,2.9142443E1,3.477668E0,1.634645E1,1.7711111E1,8.41201E0,6.7203684E0,1.9970704E0,1.4952904E0,2.2471318E0,5.492274E1,4.9386665E1,4.515639E3],"tree_param":{"num_deleted":"0","num_feature":"6","num_nodes":"27","size_leaf_vector":"1"}},{"base_weights":[-6.092731E-3,-7.871153E-2,5.6656236E-3,3.6199892E-1,-9.3603805E-2,8.598785E-1,4.2076944E-3,-3.600672E-2,1.2472264E0,-1.320197E-1,8.0374345E-2,2.453604E-1,1.06300116E-1,2.5032908E-1,1.9982944E-3,-2.974656E-2,2.5946938E-2,1.2708254E-1,2.632335E-3,-7.91797E-3,-3.642845E-2,2.5750684E-2,-1.8128204E-3,7.32313E-2,-6.030006E-2,-4.833277E-2,2.7129618E-2,1.3089494E-3,-2.1823547E-3],"categories":[],"categories_nodes":[],"categories_segments":[],"categories_sizes":[],"default_left":[0,0,0,0,0,0,0,0,0,0,0,0,0,0,0,0,0,0,0,0,0,0,0,0,0,0,0,0,0],"id":32,"left_children":[1,3,5,7,9,11,13,15,17,19,21,23,-1,25,27,-1,-1,-1,-1,-1,-1,-1,-1,-1,-1,-1,-1,-1,-1],"loss_changes":[4.0138597E0,4.333195E0,5.0353913E0,7.6613226E0,4.250958E0,1.6589398E0,2.1965187E0,2.042836E0,2.738224E0,5.511733E0,2.878254E0,3.5069327E0,0E0,2.9315536E0,1.6848186E0,0E0,0E0,0E0,0E0,0E0,0E0,0E0,0E0,0E0,0E0,0E0,0E0,0E0,0E0],"parents":[2147483647,0,0,1,1,2,2,3,3,4,4,5,5,6,6,7,7,8,8,9,9,10,10,11,11,13,13,14,14],"right_children":[2,4,6,8,10,12,14,16,18,20,22,24,-1,26,28,-1,-1,-1,-1,-1,-1,-1,-1,-1,-1,-1,-1,-1,-1],"split_conditions":[-8.166987E0,3.51035E-1,-1.355713E1,-3.2053432E0,1.3835741E0,-5.9481306E0,-7.77828E0,-8.0168495E0,3.1709734E-1,1.2195162E0,1.5611907E0,-6.8081865E0,1.06300116E-1,4.8915347E-1,7.7597823E0,-2.974656E-2,2.5946938E-2,1.2708254E-1,2.632335E-3,-7.91797E-3,-3.642845E-2,2.5750684E-2,-1.8128204E-3,7.32313E-2,-6.030006E-2,-4.833277E-2,2.7129618E-2,1.3089494E-3,-2.1823547E-3],"split_indices":[2,3,1,1,3,2,2,1,3,3,3,2,0,3,2,0,0,0,0,0,0,0,0,0,0,0,0,0,0],"split_type":[0,0,0,0,0,0,0,0,0,0,0,0,0,0,0,0,0,0,0,0,0,0,0,0,0,0,0,0,0],"sum_hessian":[4.6992217E3,6.540652E2,4.0451562E3,2.061755E1,6.3344763E2,5.8890996E0,4.039267E3,1.4884624E1,5.7329264E0,5.1907294E2,1.1437466E2,3.2079582E0,2.6811414E0,3.4938225E1,4.0043289E3,7.6879177E0,7.196706E0,4.2345667E0,1.4983594E0,4.7212744E2,4.694551E1,3.3568153E1,8.08065E1,1.9703695E0,1.2375888E0,2.7423851E0,3.219584E1,2.6866882E3,1.3176407E3],"tree_param":{"num_deleted":"0","num_feature":"6","num_nodes":"29","size_leaf_vector":"1"}},{"base_weights":[-7.517366E-3,-9.3192365E-3,4.7003737E-1,-1.8795727E-2,3.9348423E-2,-1.184928E-2,8.497395E-1,2.1124665E-2,-3.4769226E-2,-1.0209199E-1,6.413384E-2,4.529286E-1,-3.9357218E-1,2.7503513E-2,7.476864E-2,5.061193E-3,-1.1814262E-2,-9.685789E-3,-1.0905178E-3,-1.443447E-3,-4.7398895E-2,3.219354E-2,4.354641E-3,4.828003E-3,6.062694E-2,-2.706842E-3,-7.25316E-2],"categories":[],"categories_nodes":[],"categories_segments":[],"categories_sizes":[],"default_left":[0,0,0,0,0,0,0,0,0,0,0,0,0,0,0,0,0,0,0,0,0,0,0,0,0,0,0],"id":33,"left_children":[1,3,5,7,9,11,13,15,17,19,21,23,25,-1,-1,-1,-1,-1,-1,-1,-1,-1,-1,-1,-1,-1,-1],"loss_changes":[4.045218E0,2.1588233E0,3.2434402E0,2.49869E0,2.6812503E0,1.7349062E0,1.03664875E-1,7.9772406E0,5.1029797E0,4.6942196E0,2.1105678E0,4.835192E-1,9.572359E-1,0E0,0E0,0E0,0E0,0E0,0E0,0E0,0E0,0E0,0E0,0E0,0E0,0E0,0E0],"parents":[2147483647,0,0,1,1,2,2,3,3,4,4,5,5,6,6,7,7,8,8,9,9,10,10,11,11,12,12],"right_children":[2,4,6,8,10,12,14,16,18,20,22,24,26,-1,-1,-1,-1,-1,-1,-1,-1,-1,-1,-1,-1,-1,-1],"split_conditions":[5.1759105E0,2.8857005E0,-1.0008169E1,1.819189E0,5.6174517E-1,-1.6753838E1,6.3818234E-1,1.2028879E0,1.9802248E0,4.108908E0,2.898762E0,2.2346904E0,1.2613924E0,2.7503513E-2,7.476864E-2,5.061193E-3,-1.1814262E-2,-9.685789E-3,-1.0905178E-3,-1.443447E-3,-4.7398895E-2,3.219354E-2,4.354641E-3,4.828003E-3,6.062694E-2,-2.706842E-3,-7.25316E-2],"split_indices":[4,4,1,4,3,1,3,3,4,4,4,3,3,0,0,0,0,0,0,0,0,0,0,0,0,0,0],"split_type":[0,0,0,0,0,0,0,0,0,0,0,0,0,0,0,0,0,0,0,0,0,0,0,0,0,0,0],"sum_hessian":[4.6949644E3,4.6782935E3,1.6671263E1,3.9163262E3,7.6196716E2,7.7739716E0,8.897291E0,1.1191256E3,2.7972004E3,1.1314947E2,6.488177E2,3.421494E0,4.352478E0,2.0036118E0,6.8936796E0,8.960575E2,2.2306808E2,5.493867E2,2.2478137E3,9.747925E1,1.5670221E1,1.6958569E1,6.3185913E2,2.0193927E0,1.4021012E0,3.18517E0,1.1673079E0],"tree_param":{"num_deleted":"0","num_feature":"6","num_nodes":"27","size_leaf_vector":"1"}},{"base_weights":[1.1740414E-2,8.2452744E-2,3.7544053E-3,-7.463194E-2,1.3510707E-1,-9.189521E-2,1.8713675E-2,2.5791985E-1,-2.2254694E-1,3.5741577E-1,9.3877815E-2,-1.107839E-1,1.7359394E-1,5.4632163E-1,1.5872948E-2,2.7243614E-2,-7.276046E-2,3.6021238E-3,-3.0658664E-2,3.824759E-2,-1.3300731E-2,5.9508346E-3,4.038646E-2,-6.7020557E-3,-2.208484E-2,2.932727E-2,-1.836146E-2,5.617805E-2,-1.8652057E-2,-5.939418E-2,1.3487105E-3],"categories":[],"categories_nodes":[],"categories_segments":[],"categories_sizes":[],"default_left":[0,0,0,0,0,0,0,0,0,0,0,0,0,0,0,0,0,0,0,0,0,0,0,0,0,0,0,0,0,0,0],"id":34,"left_children":[1,3,5,7,9,11,13,15,17,19,21,23,25,27,29,-1,-1,-1,-1,-1,-1,-1,-1,-1,-1,-1,-1,-1,-1,-1,-1],"loss_changes":[2.644049E0,3.9400058E0,6.023525E0,5.956441E0,3.2313228E0,2.8743958E0,5.447225E0,3.9156466E0,3.6091838E0,3.5787454E0,2.380306E0,2.3522854E0,3.0565987E0,2.529111E0,2.7202458E0,0E0,0E0,0E0,0E0,0E0,0E0,0E0,0E0,0E0,0E0,0E0,0E0,0E0,0E0,0E0,0E0],"parents":[2147483647,0,0,1,1,2,2,3,3,4,4,5,5,6,6,7,7,8,8,9,9,10,10,11,11,12,12,13,13,14,14],"right_children":[2,4,6,8,10,12,14,16,18,20,22,24,26,28,30,-1,-1,-1,-1,-1,-1,-1,-1,-1,-1,-1,-1,-1,-1,-1,-1],"split_conditions":[3.4998188E1,-1.3987043E1,4.1367096E1,-1.9772646E1,-1.1157259E1,-1.6828477E0,4.1533188E1,3.446739E1,2.6023344E1,-5.9481306E0,-3.510041E0,4.0468174E1,-7.895762E-1,5.6636896E0,-1.1157259E1,2.7243614E-2,-7.276046E-2,3.6021238E-3,-3.0658664E-2,3.824759E-2,-1.3300731E-2,5.9508346E-3,4.038646E-2,-6.7020557E-3,-2.208484E-2,2.932727E-2,-1.836146E-2,5.617805E-2,-1.8652057E-2,-5.939418E-2,1.3487105E-3],"split_indices":[0,2,0,2,1,1,0,0,0,2,1,0,1,2,1,0,0,0,0,0,0,0,0,0,0,0,0,0,0,0,0],"split_type":[0,0,0,0,0,0,0,0,0,0,0,0,0,0,0,0,0,0,0,0,0,0,0,0,0,0,0,0,0,0,0],"sum_hessian":[4.68169E3,4.741339E2,4.2075557E3,1.1892507E2,3.5520883E2,5.683542E2,3.6392017E3,3.6382946E1,8.254213E1,5.437096E1,3.008379E2,5.311475E2,3.72067E1,1.8464548E1,3.620737E3,3.46396E1,1.7433463E0,3.1240505E1,5.130162E1,4.4258724E1,1.0112236E1,2.883422E2,1.2495684E1,4.5783807E2,7.3309425E1,2.5221884E1,1.1984817E1,1.546955E1,2.9949973E0,3.7250257E0,3.617012E3],"tree_param":{"num_deleted":"0","num_feature":"6","num_nodes":"31","size_leaf_vector":"1"}},{"base_weights":[3.8420097E-3,-1.1106229E-2,7.3540814E-2,-3.3403152E-1,-5.037264E-3,9.556226E-2,-8.65044E-2,-1.3331403E-1,-5.928181E-1,3.0454186E-1,-7.723034E-3,7.991525E-2,5.7858306E-1,-1.6515525E-2,-6.297553E-1,-4.0202003E-2,2.1550592E-2,-6.959292E-2,-2.541305E-2,3.66407E-2,-6.7083105E-2,-1.4653748E-4,-1.118707E-2,7.0323297E-3,-5.1057976E-2,2.2340877E-2,7.8146696E-2,-1.2665631E-2,3.2314338E-2,-7.963366E-2,-5.449581E-3],"categories":[],"categories_nodes":[],"categories_segments":[],"categories_sizes":[],"default_left":[0,0,0,0,0,0,0,0,0,0,0,0,0,0,0,0,0,0,0,0,0,0,0,0,0,0,0,0,0,0,0],"id":35,"left_children":[1,3,5,7,9,11,13,15,17,19,21,23,25,27,29,-1,-1,-1,-1,-1,-1,-1,-1,-1,-1,-1,-1,-1,-1,-1,-1],"loss_changes":[4.9242425E0,7.6257653E0,2.9498892E0,3.649375E0,3.179461E0,5.5024343E0,3.8478942E0,6.3375554E0,2.09208E0,6.1537905E0,2.9490345E0,4.142581E0,2.4541464E0,5.4848237E0,2.3051624E0,0E0,0E0,0E0,0E0,0E0,0E0,0E0,0E0,0E0,0E0,0E0,0E0,0E0,0E0,0E0,0E0],"parents":[2147483647,0,0,1,1,2,2,3,3,4,4,5,5,6,6,7,7,8,8,9,9,10,10,11,11,12,12,13,13,14,14],"right_children":[2,4,6,8,10,12,14,16,18,20,22,24,26,28,30,-1,-1,-1,-1,-1,-1,-1,-1,-1,-1,-1,-1,-1,-1,-1,-1],"split_conditions":[2.8430147E0,-1.6335556E1,6.3803326E1,3.4226044E1,-1.0763466E1,6.2171032E1,3.8718557E0,2.671105E1,4.0971767E1,-5.608463E0,7.2474236E1,2.7726717E1,3.3240368E0,3.3582952E0,1.9410103E1,-4.0202003E-2,2.1550592E-2,-6.959292E-2,-2.541305E-2,3.66407E-2,-6.7083105E-2,-1.4653748E-4,-1.118707E-2,7.0323297E-3,-5.1057976E-2,2.2340877E-2,7.8146696E-2,-1.2665631E-2,3.2314338E-2,-7.963366E-2,-5.449581E-3],"split_indices":[4,2,0,0,1,0,4,0,0,2,0,2,4,4,1,0,0,0,0,0,0,0,0,0,0,0,0,0,0,0,0],"split_type":[0,0,0,0,0,0,0,0,0,0,0,0,0,0,0,0,0,0,0,0,0,0,0,0,0,0,0,0,0,0,0],"sum_hessian":[4.724547E3,3.890908E3,8.336388E2,7.077882E1,3.8201292E3,7.331622E2,1.0047661E2,4.0715E1,3.0063814E1,3.1890013E1,3.788239E3,7.112862E2,2.1875996E1,8.992204E1,1.0554564E1,2.1111284E1,1.9603716E1,1.3902168E1,1.6161644E1,2.8643707E1,3.2463055E0,3.6274949E3,1.6074414E2,7.0432855E2,6.957638E0,1.3460446E1,8.415549E0,6.770903E1,2.2213017E1,5.9247565E0,4.6298075E0],"tree_param":{"num_deleted":"0","num_feature":"6","num_nodes":"31","size_leaf_vector":"1"}},{"base_weights":[1.929833E-4,9.5412865E-2,-1.0604262E-2,-2.718675E-1,1.1401018E-1,-1.18279874E-1,7.739447E-4,1.06099345E-1,-7.284366E-1,5.0227296E-1,7.336415E-2,2.1749705E-1,-1.6328922E-1,9.26669E-3,-1.0762313E-1,5.551475E-2,-2.9431531E-2,-2.660083E-2,-7.483219E-2,6.088434E-2,-1.8677939E-2,-7.4756496E-2,6.8329317E-3,5.4539125E-2,-9.973643E-4,-7.474075E-2,-1.1163401E-2,4.347201E-4,2.175902E-2,-2.7524335E-2,-4.3415073E-3],"categories":[],"categories_nodes":[],"categories_segments":[],"categories_sizes":[],"default_left":[0,0,0,0,0,0,0,0,0,0,0,0,0,0,0,0,0,0,0,0,0,0,0,0,0,0,0,0,0,0,0],"id":36,"left_children":[1,3,5,7,9,11,13,15,17,19,21,23,25,27,29,-1,-1,-1,-1,-1,-1,-1,-1,-1,-1,-1,-1,-1,-1,-1,-1],"loss_changes":[4.841816E0,3.3070598E0,5.182267E0,4.117284E0,7.178644E0,6.1451035E0,3.5236793E0,4.067201E0,5.682316E-1,8.394796E0,5.119341E0,5.1556206E0,6.406419E0,3.5725653E0,3.4894683E0,0E0,0E0,0E0,0E0,0E0,0E0,0E0,0E0,0E0,0E0,0E0,0E0,0E0,0E0,0E0,0E0],"parents":[2147483647,0,0,1,1,2,2,3,3,4,4,5,5,6,6,7,7,8,8,9,9,10,10,11,11,12,12,13,13,14,14],"right_children":[2,4,6,8,10,12,14,16,18,20,22,24,26,28,30,-1,-1,-1,-1,-1,-1,-1,-1,-1,-1,-1,-1,-1,-1,-1,-1],"split_conditions":[3.4998188E1,1.5700507E0,3.9697205E1,-2.784793E0,1.88359E0,1.6840338E0,1.7711426E1,1.4599861E0,-1.6164835E-1,4.1725207E-2,1.8996445E0,3.695416E1,1.7350063E0,1.655901E1,5.70638E1,5.551475E-2,-2.9431531E-2,-2.660083E-2,-7.483219E-2,6.088434E-2,-1.8677939E-2,-7.4756496E-2,6.8329317E-3,5.4539125E-2,-9.973643E-4,-7.474075E-2,-1.1163401E-2,4.347201E-4,2.175902E-2,-2.7524335E-2,-4.3415073E-3],"split_indices":[0,4,0,2,4,4,2,4,2,2,4,0,4,2,0,0,0,0,0,0,0,0,0,0,0,0,0,0,0,0,0],"split_type":[0,0,0,0,0,0,0,0,0,0,0,0,0,0,0,0,0,0,0,0,0,0,0,0,0,0,0,0,0,0,0],"sum_hessian":[4.7074385E3,4.786279E2,4.228811E3,2.2411047E1,4.5621686E2,4.032578E2,3.825553E3,1.2680892E1,9.730155E0,4.215762E1,4.1405923E2,4.721253E1,3.560453E2,3.5484517E3,2.7710126E2,5.453535E0,7.227357E0,4.235064E0,5.495091E0,3.1162546E1,1.0995072E1,3.9867582E0,4.1007248E2,1.4988936E1,3.222359E1,9.49318E0,3.465521E2,3.4984358E3,5.0016014E1,5.001578E1,2.2708548E2],"tree_param":{"num_deleted":"0","num_feature":"6","num_nodes":"31","size_leaf_vector":"1"}},{"base_weights":[5.9028196E-5,1.496287E-3,-3.67133E-1,-7.9562785E-3,5.735695E-2,-8.20314E-1,4.713657E-2,3.4632913E-3,-9.577849E-2,2.7217204E-2,1.9867502E-1,-8.705815E-3,-8.365932E-2,8.727136E-2,-3.2190248E-1,-2.4511112E-4,1.9579815E-2,-3.6544703E-2,-1.8549424E-3,1.8158179E-2,-4.2000567E-4,2.6662512E-2,-5.3928313E-3,1.681839E-2,-4.84839E-2],"categories":[],"categories_nodes":[],"categories_segments":[],"categories_sizes":[],"default_left":[0,0,0,0,0,0,0,0,0,0,0,0,0,0,0,0,0,0,0,0,0,0,0,0,0],"id":37,"left_children":[1,3,5,7,9,11,13,15,17,19,21,-1,-1,-1,23,-1,-1,-1,-1,-1,-1,-1,-1,-1,-1],"loss_changes":[2.493139E0,2.4851553E0,3.496612E0,4.0374527E0,2.8958178E0,1.3057566E0,4.4218955E0,5.6125207E0,1.2129896E1,3.6498601E0,4.305358E0,0E0,0E0,0E0,1.4247079E0,0E0,0E0,0E0,0E0,0E0,0E0,0E0,0E0,0E0,0E0],"parents":[2147483647,0,0,1,1,2,2,3,3,4,4,5,5,6,6,7,7,8,8,9,9,10,10,14,14],"right_children":[2,4,6,8,10,12,14,16,18,20,22,-1,-1,-1,24,-1,-1,-1,-1,-1,-1,-1,-1,-1,-1],"split_conditions":[3.596204E1,2.9589593E0,2.5207028E0,1.5283915E0,1.5445459E0,1.1515507E1,2.710371E0,1.4428535E0,1.7350063E0,3.0391319E0,2.3812778E0,-8.705815E-3,-8.365932E-2,8.727136E-2,1.0801536E1,-2.4511112E-4,1.9579815E-2,-3.6544703E-2,-1.8549424E-3,1.8158179E-2,-4.2000567E-4,2.6662512E-2,-5.3928313E-3,1.681839E-2,-4.84839E-2],"split_indices":[2,4,4,3,3,1,4,3,4,4,3,0,0,0,1,0,0,0,0,0,0,0,0,0,0],"split_type":[0,0,0,0,0,0,0,0,0,0,0,0,0,0,0,0,0,0,0,0,0,0,0,0,0],"sum_hessian":[4.722051E3,4.704632E3,1.7418888E1,4.0244795E3,6.8015216E2,7.8506737E0,9.568215E0,3.56224E3,4.6223947E2,5.6157446E2,1.18577736E2,2.2456675E0,5.605006E0,1.988394E0,7.579821E0,3.4693745E3,9.286556E1,7.649643E1,3.8574304E2,7.767511E1,4.8389932E2,7.857563E1,4.0002106E1,2.7290857E0,4.8507357E0],"tree_param":{"num_deleted":"0","num_feature":"6","num_nodes":"25","size_leaf_vector":"1"}},{"base_weights":[-2.573904E-3,-3.5055768E-2,2.3139987E-2,-2.436841E-2,-2.6564568E-1,1.4541626E-1,8.348635E-3,-2.7408263E-2,9.0913296E-1,-2.232634E-1,-9.6660316E-2,-3.404797E-1,1.718636E-1,-2.3679176E-1,1.7146876E-2,-1.7108653E-3,-4.9531255E-2,8.862548E-2,2.4603039E-2,-2.3132281E-2,5.3326733E-2,-5.3840324E-2,2.8484076E-2,8.9984454E-2,1.2700547E-2,-3.1216625E-2,8.861051E-3,3.9904654E-2,1.0087703E-3],"categories":[],"categories_nodes":[],"categories_segments":[],"categories_sizes":[],"default_left":[0,0,0,0,0,0,0,0,0,0,0,0,0,0,0,0,0,0,0,0,0,0,0,0,0,0,0,0,0],"id":38,"left_children":[1,3,5,7,9,11,13,15,17,19,-1,21,23,25,27,-1,-1,-1,-1,-1,-1,-1,-1,-1,-1,-1,-1,-1,-1],"loss_changes":[3.9369864E0,5.1261063E0,4.7572284E0,5.676324E0,3.4116902E0,3.706223E0,5.0684724E0,7.0643883E0,4.354558E-1,5.4352355E0,0E0,3.7110634E0,3.1920438E0,4.3847218E0,4.9495482E0,0E0,0E0,0E0,0E0,0E0,0E0,0E0,0E0,0E0,0E0,0E0,0E0,0E0,0E0],"parents":[2147483647,0,0,1,1,2,2,3,3,4,4,5,5,6,6,7,7,8,8,9,9,11,11,12,12,13,13,14,14],"right_children":[2,4,6,8,10,12,14,16,18,20,-1,22,24,26,28,-1,-1,-1,-1,-1,-1,-1,-1,-1,-1,-1,-1,-1,-1],"split_conditions":[-2.067996E-1,-4.5529112E-1,4.993323E1,5.7331882E1,3.433383E0,1.5024397E0,5.080914E1,5.4410297E1,5.86596E1,2.898762E0,-9.6660316E-2,4.8925774E1,4.0809364E1,2.2130585E0,5.1074112E1,-1.7108653E-3,-4.9531255E-2,8.862548E-2,2.4603039E-2,-2.3132281E-2,5.3326733E-2,-5.3840324E-2,2.8484076E-2,8.9984454E-2,1.2700547E-2,-3.1216625E-2,8.861051E-3,3.9904654E-2,1.0087703E-3],"split_indices":[1,1,0,0,4,4,0,0,0,4,0,0,0,1,0,0,0,0,0,0,0,0,0,0,0,0,0,0,0],"split_type":[0,0,0,0,0,0,0,0,0,0,0,0,0,0,0,0,0,0,0,0,0,0,0,0,0,0,0,0,0],"sum_hessian":[4.711656E3,2.0816924E3,2.6299631E3,1.9905408E3,9.115168E1,2.828537E2,2.3471094E3,1.9850472E3,5.4934635E0,8.841323E1,2.7384462E0,1.3988076E1,2.6886563E2,8.042273E1,2.2666868E3,1.9660734E3,1.897387E1,3.497044E0,1.9964195E0,8.2946396E1,5.466838E0,9.490892E0,4.497184E0,2.497032E0,2.663686E2,5.5709137E1,2.471359E1,2.0136305E1,2.2465505E3],"tree_param":{"num_deleted":"0","num_feature":"6","num_nodes":"29","size_leaf_vector":"1"}},{"base_weights":[6.7815688E-3,1.0512239E-1,-1.0590412E-3,7.053438E-2,5.0670856E-1,2.1087427E-2,-3.5187036E-2,1.5435544E-1,-9.429296E-2,1.0269429E-1,3.0833673E-1,1.7933885E-2,5.084045E-1,-5.151803E-1,-3.1288262E-2,2.9852364E-2,5.6217774E-4,-2.9660549E-2,6.894832E-3,3.2384098E-2,-5.274874E-2,1.0787096E-3,1.8263998E-2,7.0835285E-2,-2.32447E-2,-6.4571746E-2,7.576909E-2,9.055318E-2,-2.6249096E-3],"categories":[],"categories_nodes":[],"categories_segments":[],"categories_sizes":[],"default_left":[0,0,0,0,0,0,0,0,0,0,0,0,0,0,0,0,0,0,0,0,0,0,0,0,0,0,0,0,0],"id":39,"left_children":[1,3,5,7,9,11,13,15,17,-1,19,21,23,25,27,-1,-1,-1,-1,-1,-1,-1,-1,-1,-1,-1,-1,-1,-1],"loss_changes":[3.6181502E0,4.7771688E0,3.2861478E0,4.4382286E0,3.814269E0,4.0430417E0,3.1859095E0,6.8514886E0,5.4484997E0,0E0,2.4209993E0,2.4504094E0,5.353331E0,6.6227064E0,3.0460353E0,0E0,0E0,0E0,0E0,0E0,0E0,0E0,0E0,0E0,0E0,0E0,0E0,0E0,0E0],"parents":[2147483647,0,0,1,1,2,2,3,3,4,4,5,5,6,6,7,7,8,8,10,10,11,11,12,12,13,13,14,14],"right_children":[2,4,6,8,10,12,14,16,18,-1,20,22,24,26,28,-1,-1,-1,-1,-1,-1,-1,-1,-1,-1,-1,-1,-1,-1],"split_conditions":[4.550374E-1,1.7314367E1,4.9409976E0,2.4019268E0,1.8984547E1,4.8517413E0,4.690835E-1,1.7236933E0,-1.4092802E0,1.0269429E-1,3.8058782E0,2.796578E0,1.1138282E0,1.7314367E1,1.1448351E0,2.9852364E-2,5.6217774E-4,-2.9660549E-2,6.894832E-3,3.2384098E-2,-5.274874E-2,1.0787096E-3,1.8263998E-2,7.0835285E-2,-2.32447E-2,-6.4571746E-2,7.576909E-2,9.055318E-2,-2.6249096E-3],"split_indices":[3,2,2,4,2,2,3,2,2,0,4,3,3,2,4,0,0,0,0,0,0,0,0,0,0,0,0,0,0],"split_type":[0,0,0,0,0,0,0,0,0,0,0,0,0,0,0,0,0,0,0,0,0,0,0,0,0,0,0,0,0],"sum_hessian":[4.6913413E3,3.455001E2,4.3458413E3,3.1918484E2,2.6315268E1,2.635794E3,1.7100474E3,2.1162758E2,1.0755724E2,4.239437E0,2.207583E1,2.6198767E3,1.5917031E1,1.2721446E1,1.6973258E3,8.454131E1,1.27086266E2,4.2065437E1,6.5491806E1,2.0603647E1,1.4721835E0,2.566647E3,5.322991E1,1.0740346E1,5.1766853E0,1.097764E1,1.7438056E0,1.2490648E0,1.6960768E3],"tree_param":{"num_deleted":"0","num_feature":"6","num_nodes":"29","size_leaf_vector":"1"}},{"base_weights":[7.011086E-3,4.000133E-3,2.7926552E-1,-7.0818076E-3,4.616699E-2,4.3585658E-1,-1.7977719E-1,-3.4095817E-3,-3.5003918E-1,6.8511054E-2,-1.9429083E-1,4.9160388E-1,-3.1637218E-2,-3.9155847E-1,5.6745112E-2,1.4313865E-3,-2.3945426E-3,3.6304057E-2,-4.4356532E-2,4.311394E-2,4.6562687E-3,-2.6353141E-2,1.5015782E-4,6.4892985E-2,2.7325368E-2,-4.5544747E-2,1.6770128E-2],"categories":[],"categories_nodes":[],"categories_segments":[],"categories_sizes":[],"default_left":[0,0,0,0,0,0,0,0,0,0,0,0,0,0,0,0,0,0,0,0,0,0,0,0,0,0,0],"id":40,"left_children":[1,3,5,7,9,11,13,15,17,19,21,23,-1,25,-1,-1,-1,-1,-1,-1,-1,-1,-1,-1,-1,-1,-1],"loss_changes":[3.867042E0,2.181701E0,3.787516E0,4.655482E0,5.233781E0,1.9910593E0,2.8823926E0,2.0679564E0,6.6866136E0,4.2830386E0,2.1973095E0,1.4862337E0,0E0,1.382034E0,0E0,0E0,0E0,0E0,0E0,0E0,0E0,0E0,0E0,0E0,0E0,0E0,0E0],"parents":[2147483647,0,0,1,1,2,2,3,3,4,4,5,5,6,6,7,7,8,8,9,9,10,10,11,11,13,13],"right_children":[2,4,6,8,10,12,14,16,18,20,22,24,-1,26,-1,-1,-1,-1,-1,-1,-1,-1,-1,-1,-1,-1,-1],"split_conditions":[4.4713855E0,2.710371E0,6.636357E0,2.6902802E0,1.8127363E1,5.5069378E1,5.1759105E0,9.0944827E-1,3.6500755E1,2.7194607E0,3.2919683E0,4.6769423E0,-3.1637218E-2,6.4213776E1,5.6745112E-2,1.4313865E-3,-2.3945426E-3,3.6304057E-2,-4.4356532E-2,4.311394E-2,4.6562687E-3,-2.6353141E-2,1.5015782E-4,6.4892985E-2,2.7325368E-2,-4.5544747E-2,1.6770128E-2],"split_indices":[4,4,2,4,2,0,4,3,0,4,4,4,0,0,0,0,0,0,0,0,0,0,0,0,0,0,0],"split_type":[0,0,0,0,0,0,0,0,0,0,0,0,0,0,0,0,0,0,0,0,0,0,0,0,0,0,0],"sum_hessian":[4.7177324E3,4.667132E3,5.060068E1,3.6964846E3,9.706471E2,3.776768E1,1.2833E1,3.658323E3,3.8161655E1,8.887746E2,8.187252E1,3.5777164E1,1.99052E0,1.0816185E1,2.0168154E0,2.0290057E3,1.6293171E3,7.4896803E0,3.0671974E1,1.795761E1,8.7081696E2,4.807705E1,3.3795467E1,1.00230255E1,2.5754137E1,8.3888855E0,2.4272995E0],"tree_param":{"num_deleted":"0","num_feature":"6","num_nodes":"27","size_leaf_vector":"1"}},{"base_weights":[4.0118885E-3,-5.4743937E-3,5.5203926E-2,1.2401126E-3,-1.2194888E-1,-3.389292E-2,1.0907572E-1,-2.9678883E-3,1.2910153E-1,-9.756257E-2,-8.167544E-1,-2.6388675E-1,7.629557E-2,4.626672E-1,9.2121184E-2,1.1096396E-3,-2.3972094E-3,1.6863087E-2,-1.4155818E-2,-2.2283785E-2,1.4730209E-3,-1.4616116E-2,-9.301378E-2,-1.5085349E-2,-4.837597E-2,2.242799E-2,-7.3429584E-3,2.1451103E-2,6.7788616E-2,8.425965E-3,-2.2977727E-2],"categories":[],"categories_nodes":[],"categories_segments":[],"categories_sizes":[],"default_left":[0,0,0,0,0,0,0,0,0,0,0,0,0,0,0,0,0,0,0,0,0,0,0,0,0,0,0,0,0,0,0],"id":41,"left_children":[1,3,5,7,9,11,13,15,17,19,21,23,25,27,29,-1,-1,-1,-1,-1,-1,-1,-1,-1,-1,-1,-1,-1,-1,-1,-1],"loss_changes":[2.294422E0,3.1178238E0,3.5490284E0,2.0288777E0,3.6020904E0,7.092994E0,2.7183766E0,1.6601238E0,3.0410087E0,4.4352655E0,1.3738494E0,2.2122908E0,6.5239964E0,1.331131E0,2.2376812E0,0E0,0E0,0E0,0E0,0E0,0E0,0E0,0E0,0E0,0E0,0E0,0E0,0E0,0E0,0E0,0E0],"parents":[2147483647,0,0,1,1,2,2,3,3,4,4,5,5,6,6,7,7,8,8,9,9,10,10,11,11,12,12,13,13,14,14],"right_children":[2,4,6,8,10,12,14,16,18,20,22,24,26,28,30,-1,-1,-1,-1,-1,-1,-1,-1,-1,-1,-1,-1,-1,-1,-1,-1],"split_conditions":[2.91357E0,1.9116482E0,7.877177E-1,1.6787047E0,2.870952E0,-5.318192E0,-2.1761744E1,2.1942568E0,9.090115E0,2.2346904E0,2.3032973E0,-7.5556726E0,3.26201E0,1.5445459E0,2.6155132E1,1.1096396E-3,-2.3972094E-3,1.6863087E-2,-1.4155818E-2,-2.2283785E-2,1.4730209E-3,-1.4616116E-2,-9.301378E-2,-1.5085349E-2,-4.837597E-2,2.242799E-2,-7.3429584E-3,2.1451103E-2,6.7788616E-2,8.425965E-3,-2.2977727E-2],"split_indices":[4,3,3,3,4,2,2,4,2,3,3,2,4,3,2,0,0,0,0,0,0,0,0,0,0,0,0,0,0,0,0],"split_type":[0,0,0,0,0,0,0,0,0,0,0,0,0,0,0,0,0,0,0,0,0,0,0,0,0,0,0,0,0,0,0],"sum_hessian":[4.723084E3,3.9854434E3,7.3764056E2,3.7691494E3,2.1629408E2,2.7808896E2,4.595516E2,3.6500022E3,1.1914712E2,2.1006175E2,6.23234E0,8.962401E1,1.8846497E2,1.982418E1,4.3972742E2,2.2482422E3,1.40176E3,9.429126E1,2.4855858E1,8.149044E1,1.285713E2,2.7393646E0,3.492975E0,7.467423E1,1.4949775E1,8.482202E1,1.0364294E2,1.4293394E1,5.5307875E0,4.2563516E2,1.4092278E1],"tree_param":{"num_deleted":"0","num_feature":"6","num_nodes":"31","size_leaf_vector":"1"}},{"base_weights":[3.5500175E-3,4.2754132E-2,-8.696226E-3,1.1779415E-1,-6.2949255E-2,-1.6690998E-1,5.8216616E-3,6.54209E-2,3.203364E-1,5.567082E-2,-1.2535198E-1,-1.4954484E-1,-5.833677E-1,-1.3806518E-2,4.4625588E-2,1.3685288E-2,-3.1741373E-3,4.507328E-2,1.1185597E-2,2.3960785E-3,1.0388921E-1,-1.5121835E-2,-9.6055475E-4,-2.1973439E-2,-7.218264E-3,-6.6647045E-2,8.670992E-3,-2.3319239E-4,-1.48695065E-2,1.1021632E-2,6.299788E-4],"categories":[],"categories_nodes":[],"categories_segments":[],"categories_sizes":[],"default_left":[0,0,0,0,0,0,0,0,0,0,0,0,0,0,0,0,0,0,0,0,0,0,0,0,0,0,0,0,0,0,0],"id":42,"left_children":[1,3,5,7,9,11,13,15,17,19,21,23,25,27,29,-1,-1,-1,-1,-1,-1,-1,-1,-1,-1,-1,-1,-1,-1,-1,-1],"loss_changes":[2.2496939E0,8.854072E0,8.20277E0,6.901826E0,3.4393978E0,2.083415E0,2.4924421E0,5.7780247E0,5.79344E0,5.0933356E0,2.1927934E0,2.1237192E0,2.106206E0,4.0724807E0,3.7617054E0,0E0,0E0,0E0,0E0,0E0,0E0,0E0,0E0,0E0,0E0,0E0,0E0,0E0,0E0,0E0,0E0],"parents":[2147483647,0,0,1,1,2,2,3,3,4,4,5,5,6,6,7,7,8,8,9,9,10,10,11,11,12,12,13,13,14,14],"right_children":[2,4,6,8,10,12,14,16,18,20,22,24,26,28,30,-1,-1,-1,-1,-1,-1,-1,-1,-1,-1,-1,-1,-1,-1,-1,-1],"split_conditions":[1.819189E0,9.21429E-1,1.9097701E0,8.157992E-1,6.0362923E-1,1.7711426E1,1.0659013E0,6.2378156E-1,1E0,2.9766533E0,1.6957414E0,1.8504837E0,9.622279E-1,1.0147415E0,1.2276436E0,1.3685288E-2,-3.1741373E-3,4.507328E-2,1.1185597E-2,2.3960785E-3,1.0388921E-1,-1.5121835E-2,-9.6055475E-4,-2.1973439E-2,-7.218264E-3,-6.6647045E-2,8.670992E-3,-2.3319239E-4,-1.48695065E-2,1.1021632E-2,6.299788E-4],"split_indices":[4,3,4,3,2,2,3,3,5,3,4,4,3,3,3,0,0,0,0,0,0,0,0,0,0,0,0,0,0,0,0],"split_type":[0,0,0,0,0,0,0,0,0,0,0,0,0,0,0,0,0,0,0,0,0,0,0,0,0,0,0,0,0,0,0],"sum_hessian":[4.6840806E3,1.1143146E3,3.5697659E3,6.516129E2,4.6270163E2,2.991523E2,3.2706135E3,5.18788E2,1.3282487E2,1.5954109E2,3.0316055E2,2.8848248E2,1.0669835E1,2.1723955E3,1.098218E3,2.58407E2,2.6038104E2,5.56997E1,7.712517E1,1.5731003E2,2.2310677E0,1.9368907E2,1.0947147E2,9.160952E1,1.9687296E2,7.689611E0,2.9802246E0,2.0440249E3,1.2837065E2,3.0993668E2,7.882814E2],"tree_param":{"num_deleted":"0","num_feature":"6","num_nodes":"31","size_leaf_vector":"1"}},{"base_weights":[-4.972165E-3,-4.599797E-2,1.567604E-2,-3.215789E-2,-3.6203778E-1,3.5366955E-1,8.054369E-3,-4.1281447E-2,2.6530117E-1,-2.4070884E-1,-7.513451E-1,5.530386E-1,-6.462368E-2,4.1777562E-2,-2.343154E-2,-9.785335E-4,-9.213626E-3,3.4197932E-4,7.292194E-2,-4.0850148E-2,1.3242657E-2,-7.3947962E-3,-8.704604E-2,-4.0762685E-2,5.6494925E-2,-5.987409E-2,2.745717E-2,3.711295E-3,-4.9143687E-2,-5.572138E-3,8.9561334E-4],"categories":[],"categories_nodes":[],"categories_segments":[],"categories_sizes":[],"default_left":[0,0,0,0,0,0,0,0,0,0,0,0,0,0,0,0,0,0,0,0,0,0,0,0,0,0,0,0,0,0,0],"id":43,"left_children":[1,3,5,7,9,11,13,15,17,19,21,23,25,27,29,-1,-1,-1,-1,-1,-1,-1,-1,-1,-1,-1,-1,-1,-1,-1,-1],"loss_changes":[3.992644E0,6.8903294E0,8.074326E0,4.1166344E0,2.9415712E0,5.8000927E0,3.2578936E0,3.1510649E0,7.612938E0,5.772151E0,3.279788E0,7.9943333E0,6.728677E0,4.51254E0,2.5405834E0,0E0,0E0,0E0,0E0,0E0,0E0,0E0,0E0,0E0,0E0,0E0,0E0,0E0,0E0,0E0,0E0],"parents":[2147483647,0,0,1,1,2,2,3,3,4,4,5,5,6,6,7,7,8,8,9,9,10,10,11,11,12,12,13,13,14,14],"right_children":[2,4,6,8,10,12,14,16,18,20,22,24,26,28,30,-1,-1,-1,-1,-1,-1,-1,-1,-1,-1,-1,-1,-1,-1,-1,-1],"split_conditions":[-1.6828477E0,4.993323E1,4.235161E1,4.855653E1,6.0362923E-1,-7.895762E-1,5.663003E1,-9.304569E-1,6.0362923E-1,-4.9167714E0,-2.1929362E0,3.8204903E1,-4.0925238E-1,2.6155132E1,5.2453094E0,-9.785335E-4,-9.213626E-3,3.4197932E-4,7.292194E-2,-4.0850148E-2,1.3242657E-2,-7.3947962E-3,-8.704604E-2,-4.0762685E-2,5.6494925E-2,-5.987409E-2,2.745717E-2,3.711295E-3,-4.9143687E-2,-5.572138E-3,8.9561334E-4],"split_indices":[1,0,0,0,2,1,0,2,2,2,1,0,1,2,1,0,0,0,0,0,0,0,0,0,0,0,0,0,0,0,0],"split_type":[0,0,0,0,0,0,0,0,0,0,0,0,0,0,0,0,0,0,0,0,0,0,0,0,0,0,0,0,0,0,0],"sum_hessian":[4.7114067E3,1.5769485E3,3.134458E3,1.5118433E3,6.510519E1,6.812131E1,3.0663367E3,1.4676881E3,4.4155178E1,5.0869755E1,1.4235431E1,4.5914955E1,2.220635E1,1.4804084E3,1.5859282E3,1.0543362E3,4.1335196E2,3.216821E1,1.1986969E1,3.0408552E1,2.0461203E1,5.2455363E0,8.989894E0,5.4908996E0,4.0424053E1,7.984323E0,1.4222027E1,1.4709934E3,9.414996E0,6.788195E2,9.0710876E2],"tree_param":{"num_deleted":"0","num_feature":"6","num_nodes":"31","size_leaf_vector":"1"}},{"base_weights":[1.2749492E-3,1.7955558E-2,-2.8078495E-2,1.5380864E-2,3.968634E-1,1.1828408E-1,-4.3508094E-2,1.8120794E-2,-3.540092E-1,-1.0496713E-1,6.284001E-1,-1.0690362E0,1.547661E-1,-1.4867271E-1,-2.1346003E-2,-1.9366771E-2,1.737387E-3,-8.543339E-2,7.96237E-4,3.760319E-2,-4.9750213E-2,6.536334E-2,-8.453846E-3,-2.3418874E-2,-9.985624E-2,7.5326157E-3,3.6685955E-2,-3.482783E-2,-6.1726472E-3,-4.4409526E-3,3.0877478E-3],"categories":[],"categories_nodes":[],"categories_segments":[],"categories_sizes":[],"default_left":[0,0,0,0,0,0,0,0,0,0,0,0,0,0,0,0,0,0,0,0,0,0,0,0,0,0,0,0,0,0,0],"id":44,"left_children":[1,3,5,7,9,11,13,15,17,19,21,23,25,27,29,-1,-1,-1,-1,-1,-1,-1,-1,-1,-1,-1,-1,-1,-1,-1,-1],"loss_changes":[2.3052008E0,2.9225636E0,3.8577955E0,3.0252953E0,2.4154522E0,7.2243347E0,3.595425E0,2.7770026E0,5.7297134E0,2.4445E0,2.0222197E0,3.2788038E-1,2.8841493E0,5.4726877E0,2.6162953E0,0E0,0E0,0E0,0E0,0E0,0E0,0E0,0E0,0E0,0E0,0E0,0E0,0E0,0E0,0E0,0E0],"parents":[2147483647,0,0,1,1,2,2,3,3,4,4,5,5,6,6,7,7,8,8,9,9,10,10,11,11,12,12,13,13,14,14],"right_children":[2,4,6,8,10,12,14,16,18,20,22,24,26,28,30,-1,-1,-1,-1,-1,-1,-1,-1,-1,-1,-1,-1,-1,-1,-1,-1],"split_conditions":[5.5856865E1,5.5724957E1,1E0,2.0416725E1,1E0,-1.3075697E1,5.8374065E1,2.6470608E-1,6.17082E-1,2.4270512E-1,1.0456504E0,7.8002715E-1,1.4301298E0,5.6174517E-1,1.0659013E0,-1.9366771E-2,1.737387E-3,-8.543339E-2,7.96237E-4,3.760319E-2,-4.9750213E-2,6.536334E-2,-8.453846E-3,-2.3418874E-2,-9.985624E-2,7.5326157E-3,3.6685955E-2,-3.482783E-2,-6.1726472E-3,-4.4409526E-3,3.0877478E-3],"split_indices":[0,0,5,2,5,2,0,3,3,2,3,3,3,3,3,0,0,0,0,0,0,0,0,0,0,0,0,0,0,0,0],"split_type":[0,0,0,0,0,0,0,0,0,0,0,0,0,0,0,0,0,0,0,0,0,0,0,0,0,0,0,0,0,0,0],"sum_hessian":[4.705985E3,3.0010015E3,1.7049834E3,2.9817808E3,1.9220726E1,1.6196307E2,1.5430204E3,2.9607703E3,2.1010395E1,6.240902E0,1.2979824E1,3.9844558E0,1.5797862E2,2.675797E2,1.2754407E3,3.9461628E1,2.9213088E3,6.4414363E0,1.4568959E1,2.9973497E0,3.2435522E0,1.0236285E1,2.7435386E0,1.2410527E0,2.743403E0,1.3279628E2,2.5182339E1,5.2408054E1,2.1517166E2,8.124428E2,4.6299786E2],"tree_param":{"num_deleted":"0","num_feature":"6","num_nodes":"31","size_leaf_vector":"1"}},{"base_weights":[2.0108004E-4,-5.1614232E-2,1.0163137E-2,-2.7952913E-2,-5.2058846E-1,1.2982859E-1,-2.8686041E-3,-5.761796E-3,-3.273547E-1,-2.538459E-1,-7.6678675E-1,2.166711E-1,-2.2723875E-3,-3.3321075E-2,6.344662E-2,1.2703935E-2,-3.054071E-3,-3.1039428E-2,6.93469E-2,3.1714175E-2,-3.629082E-2,-9.3287125E-2,-3.8485322E-2,7.576627E-3,4.8843335E-2,-8.685833E-3,2.175956E-2,-9.7177345E-3,-1.0698438E-3,7.156679E-3,-7.4273297E-3],"categories":[],"categories_nodes":[],"categories_segments":[],"categories_sizes":[],"default_left":[0,0,0,0,0,0,0,0,0,0,0,0,0,0,0,0,0,0,0,0,0,0,0,0,0,0,0,0,0,0,0],"id":45,"left_children":[1,3,5,7,9,11,13,15,17,19,21,23,25,27,29,-1,-1,-1,-1,-1,-1,-1,-1,-1,-1,-1,-1,-1,-1,-1,-1],"loss_changes":[2.431659E0,8.41498E0,6.1619735E0,4.8099008E0,2.1977339E0,4.45219E0,7.1996603E0,3.608004E0,3.9538355E0,2.6456807E0,1.5439014E0,1.1189861E1,4.5458E0,4.294465E0,4.569431E0,0E0,0E0,0E0,0E0,0E0,0E0,0E0,0E0,0E0,0E0,0E0,0E0,0E0,0E0,0E0,0E0],"parents":[2147483647,0,0,1,1,2,2,3,3,4,4,5,5,6,6,7,7,8,8,9,9,10,10,11,11,12,12,13,13,14,14],"right_children":[2,4,6,8,10,12,14,16,18,20,22,24,26,28,30,-1,-1,-1,-1,-1,-1,-1,-1,-1,-1,-1,-1,-1,-1,-1,-1],"split_conditions":[1.6957414E0,1.6840338E0,1.8260796E0,1.5941335E0,8.415758E-1,9.526511E-1,1.0962093E0,-2.784793E0,3.787623E0,-7.493985E-1,7.7279127E-1,8.2248425E-1,6.067112E1,-7.3853626E0,1.2623598E1,1.2703935E-2,-3.054071E-3,-3.1039428E-2,6.93469E-2,3.1714175E-2,-3.629082E-2,-9.3287125E-2,-3.8485322E-2,7.576627E-3,4.8843335E-2,-8.685833E-3,2.175956E-2,-9.7177345E-3,-1.0698438E-3,7.156679E-3,-7.4273297E-3],"split_indices":[4,4,4,3,3,3,3,2,3,2,2,3,0,2,2,0,0,0,0,0,0,0,0,0,0,0,0,0,0,0,0],"split_type":[0,0,0,0,0,0,0,0,0,0,0,0,0,0,0,0,0,0,0,0,0,0,0,0,0,0,0,0,0,0,0],"sum_hessian":[4.708793E3,7.586534E2,3.9501396E3,7.2322394E2,3.5429466E1,3.8704965E2,3.5630898E3,6.742677E2,4.8956253E1,1.7980082E1,1.7449385E1,2.3314265E2,1.53907E2,2.4421384E3,1.1209515E3,1.1031543E2,5.639523E2,4.7232975E1,1.723278E0,3.9945192E0,1.3985561E1,5.9929013E0,1.1456484E1,1.789658E2,5.417686E1,1.11352905E2,4.2554092E1,4.4972186E2,1.9924165E3,9.6137286E2,1.595787E2],"tree_param":{"num_deleted":"0","num_feature":"6","num_nodes":"31","size_leaf_vector":"1"}},{"base_weights":[9.414965E-3,7.6649543E-3,5.274732E-1,1.10343965E-2,-1.3499846E-1,3.0331415E-1,6.8249986E-2,7.426605E-3,2.2639275E-1,-1.580741E-2,-4.727892E-1,6.003566E-1,-3.9687786E-1,2.9407658E-2,4.6650856E-4,-5.7717413E-3,3.3510912E-2,-3.1171119E-2,1.1682759E-2,2.3061873E-2,-5.4222196E-2,2.6037273E-4,5.875353E-2,-4.567057E-2,-2.5035292E-3],"categories":[],"categories_nodes":[],"categories_segments":[],"categories_sizes":[],"default_left":[0,0,0,0,0,0,0,0,0,0,0,0,0,0,0,0,0,0,0,0,0,0,0,0,0],"id":46,"left_children":[1,3,5,7,9,11,-1,13,15,17,19,21,23,-1,-1,-1,-1,-1,-1,-1,-1,-1,-1,-1,-1],"loss_changes":[4.259852E0,2.2551436E0,8.959894E-1,3.5576587E0,4.3508425E0,2.5097442E0,0E0,2.5871737E0,4.3658676E0,4.9605856E0,4.5947404E0,6.432977E-1,2.2736919E-1,0E0,0E0,0E0,0E0,0E0,0E0,0E0,0E0,0E0,0E0,0E0,0E0],"parents":[2147483647,0,0,1,1,2,2,3,3,4,4,5,5,7,7,8,8,9,9,10,10,11,11,12,12],"right_children":[2,4,6,8,10,12,-1,14,16,18,20,22,24,-1,-1,-1,-1,-1,-1,-1,-1,-1,-1,-1,-1],"split_conditions":[5.1759105E0,4.019513E0,-2.068276E0,3.7348344E0,1E0,-7.1715083E0,6.8249986E-2,-1.5178395E1,-4.2706485E0,-1.1857467E1,-4.363835E0,-2.3694326E1,-4.5637574E0,2.9407658E-2,4.6650856E-4,-5.7717413E-3,3.3510912E-2,-3.1171119E-2,1.1682759E-2,2.3061873E-2,-5.4222196E-2,2.6037273E-4,5.875353E-2,-4.567057E-2,-2.5035292E-3],"split_indices":[4,4,1,4,5,2,0,1,1,2,2,2,1,0,0,0,0,0,0,0,0,0,0,0,0],"split_type":[0,0,0,0,0,0,0,0,0,0,0,0,0,0,0,0,0,0,0,0,0,0,0,0,0],"sum_hessian":[4.7021323E3,4.6873135E3,1.481904E1,4.5800635E3,1.07249855E2,9.921252E0,4.8977885E0,4.5056177E3,7.444589E1,8.005047E1,2.7199387E1,7.066159E0,2.8550935E0,1.8856405E1,4.486761E3,2.9429188E1,4.5016705E1,2.3760225E1,5.629024E1,5.68528E0,2.1514107E1,1.4834206E0,5.582738E0,1.5539215E0,1.301172E0],"tree_param":{"num_deleted":"0","num_feature":"6","num_nodes":"25","size_leaf_vector":"1"}},{"base_weights":[-5.019467E-3,-6.1727376E-3,3.0591616E-1,-2.9835412E-2,7.0450143E-3,-4.146028E-2,7.746273E-1,5.520118E-2,-6.991137E-2,-1.5651235E-2,5.4185554E-2,2.7876508E-1,-9.9161536E-2,9.2099905E-2,1.4692656E-2,1.0554498E-2,-1.0318249E-2,-4.0896753E-5,-8.907049E-3,-8.9719455E-4,-5.254568E-2,1.7015457E-2,2.357432E-3,7.910731E-2,-3.0164213E-3,1.5174089E-2,-1.3405568E-2],"categories":[],"categories_nodes":[],"categories_segments":[],"categories_sizes":[],"default_left":[0,0,0,0,0,0,0,0,0,0,0,0,0,0,0,0,0,0,0,0,0,0,0,0,0,0,0],"id":47,"left_children":[1,3,5,7,9,11,13,15,17,19,21,23,-1,-1,25,-1,-1,-1,-1,-1,-1,-1,-1,-1,-1,-1,-1],"loss_changes":[1.6913362E0,1.4686205E0,2.870001E0,5.7387705E0,3.2245817E0,4.5502267E0,2.1210365E0,7.6426544E0,3.2896E0,5.779996E0,3.831134E0,2.164148E0,0E0,0E0,1.430341E-1,0E0,0E0,0E0,0E0,0E0,0E0,0E0,0E0,0E0,0E0,0E0,0E0],"parents":[2147483647,0,0,1,1,2,2,3,3,4,4,5,5,6,6,7,7,8,8,9,9,10,10,11,11,14,14],"right_children":[2,4,6,8,10,12,14,16,18,20,22,24,-1,-1,26,-1,-1,-1,-1,-1,-1,-1,-1,-1,-1,-1,-1],"split_conditions":[4.5730467E0,1.98458E0,2.0557709E0,2.4270512E-1,1.085401E0,-7.3959666E-1,1.2449222E1,1.8625371E0,1.2350731E0,1.0807421E0,2.1105773E0,-1.8354616E1,-9.9161536E-2,9.2099905E-2,2.295214E0,1.0554498E-2,-1.0318249E-2,-4.0896753E-5,-8.907049E-3,-8.9719455E-4,-5.254568E-2,1.7015457E-2,2.357432E-3,7.910731E-2,-3.0164213E-3,1.5174089E-2,-1.3405568E-2],"split_indices":[3,4,1,2,3,1,2,4,1,3,4,2,0,0,4,0,0,0,0,0,0,0,0,0,0,0,0],"split_type":[0,0,0,0,0,0,0,0,0,0,0,0,0,0,0,0,0,0,0,0,0,0,0,0,0,0,0],"sum_hessian":[4.710326E3,4.6938965E3,1.6429668E1,1.6818173E3,3.012079E3,9.95974E0,6.4699287E0,5.3859753E2,1.1432197E3,2.0336349E3,9.7844434E2,