{"learner":{"attributes":{},"feature_names":[],"feature_types":[],"gradient_booster":{"model":{"cats":{"enc":[],"feature_segments":[],"sorted_idx":[]},"gbtree_model_param":{"num_parallel_tree":"1","num_trees":"150"},"iteration_indptr":[0,1,2,3,4,5,6,7,8,9,10,11,12,13,14,15,16,17,18,19,20,21,22,23,24,25,26,27,28,29,30,31,32,33,34,35,36,37,38,39,40,41,42,43,44,45,46,47,48,49,50,51,52,53,54,55,56,57,58,59,60,61,62,63,64,65,66,67,68,69,70,71,72,73,74,75,76,77,78,79,80,81,82,83,84,85,86,87,88,89,90,91,92,93,94,95,96,97,98,99,100,101,102,103,104,105,106,107,108,109,110,111,112,113,114,115,116,117,118,119,120,121,122,123,124,125,126,127,128,129,130,131,132,133,134,135,136,137,138,139,140,141,142,143,144,145,146,147,148,149,150],"tree_info":[0,0,0,0,0,0,0,0,0,0,0,0,0,0,0,0,0,0,0,0,0,0,0,0,0,0,0,0,0,0,0,0,0,0,0,0,0,0,0,0,0,0,0,0,0,0,0,0,0,0,0,0,0,0,0,0,0,0,0,0,0,0,0,0,0,0,0,0,0,0,0,0,0,0,0,0,0,0,0,0,0,0,0,0,0,0,0,0,0,0,0,0,0,0,0,0,0,0,0,0,0,0,0,0,0,0,0,0,0,0,0,0,0,0,0,0,0,0,0,0,0,0,0,0,0,0,0,0,0,0,0,0,0,0,0,0,0,0,0,0,0,0,0,0,0,0,0,0,0,0],"trees":[{"base_weights":[-4.327981E-4,2.0877564E-1,-5.473353E-2,3.334835E-1,-9.628163E-2,-8.7583035E-2,3.0799568E-1,2.1085338E-1,5.825467E-1,-7.7734005E-1,4.8267487E-2,-6.0793273E-2,-2.7587393E-1,3.7367854E-1,-4.966094E-1,5.143454E-3,3.6431648E-2,2.9830322E-2,7.7119716E-2,1.9461887E-2,-7.73778E-2,2.350679E-2,-2.1133952E-2,-6.3331854E-3,2.8169898E-2,1.1998518E-2,-3.1367544E-2,2.2969471E-2,7.6428406E-2,3.3821918E-2,-8.40808E-2],"categories":[],"categories_nodes":[],"categories_segments":[],"categories_sizes":[],"default_left":[0,0,0,0,0,0,0,0,0,0,0,0,0,0,0,0,0,0,0,0,0,0,0,0,0,0,0,0,0,0,0],"id":0,"left_children":[1,3,5,7,9,11,13,15,17,19,21,23,25,27,29,-1,-1,-1,-1,-1,-1,-1,-1,-1,-1,-1,-1,-1,-1,-1,-1],"loss_changes":[9.823112E0,6.81087E0,8.207008E0,3.747076E0,5.204145E0,3.1625051E0,3.2101011E0,3.0698004E0,2.9384747E0,2.027347E0,3.471543E0,4.2232914E0,3.9302745E0,2.4184809E0,2.8647637E0,0E0,0E0,0E0,0E0,0E0,0E0,0E0,0E0,0E0,0E0,0E0,0E0,0E0,0E0,0E0,0E0],"parents":[2147483647,0,0,1,1,2,2,3,3,4,4,5,5,6,6,7,7,8,8,9,9,10,10,11,11,12,12,13,13,14,14],"right_children":[2,4,6,8,10,12,14,16,18,20,22,24,26,28,30,-1,-1,-1,-1,-1,-1,-1,-1,-1,-1,-1,-1,-1,-1,-1,-1],"split_conditions":[5.868716E-1,9.765971E0,1.9471571E1,2.3336635E0,1.1931771E1,3.5743506E0,4.4932068E1,2.8493364E0,5.164735E-1,2.9039156E-1,1.9009144E1,3.3457677E0,7.763978E-1,3.0529573E1,2.2478414E0,5.143454E-3,3.6431648E-2,2.9830322E-2,7.7119716E-2,1.9461887E-2,-7.73778E-2,2.350679E-2,-2.1133952E-2,-6.3331854E-3,2.8169898E-2,1.1998518E-2,-3.1367544E-2,2.2969471E-2,7.6428406E-2,3.3821918E-2,-8.40808E-2],"split_indices":[3,2,2,2,2,4,2,4,3,3,2,4,3,2,4,0,0,0,0,0,0,0,0,0,0,0,0,0,0,0,0],"split_type":[0,0,0,0,0,0,0,0,0,0,0,0,0,0,0,0,0,0,0,0,0,0,0,0,0,0,0,0,0,0,0],"sum_hessian":[8.6269165E2,1.7718666E2,6.8550494E2,1.2570506E2,5.1481598E1,6.292751E2,5.62299E1,8.546945E1,4.023562E1,8.247052E0,4.3234547E1,5.520527E2,7.72224E1,5.248124E1,3.74866E0,5.4230614E1,3.1238834E1,2.7240263E1,1.2995355E1,1.2495533E0,6.9974985E0,2.4241335E1,1.899321E1,5.293108E2,2.274187E1,1.6494104E1,6.072829E1,4.6983204E1,5.4980345E0,1.499464E0,2.249196E0],"tree_param":{"num_deleted":"0","num_feature":"6","num_nodes":"31","size_leaf_vector":"1"}},{"base_weights":[4.503393E-3,-1.0493653E-1,1.08071335E-1,-3.44577E-2,-3.4815007E-1,3.2376105E-1,5.2664753E-2,-1.1041174E-1,2.8368708E-1,-2.8419816E-1,-1.1046839E0,1.1484759E0,2.2986121E-1,-1.3889125E-1,1.3668309E-1,-6.644533E-3,-5.7500523E-2,3.3824768E-2,-2.640519E-2,1.6982034E-2,-3.4062795E-2,-1.2004655E-1,-2.8892824E-2,-1.5820453E-2,1.11289196E-1,-3.2447195E-3,3.6936656E-2,-1.9024216E-2,2.32658E-2,1.4707404E-2,-3.7824534E-2],"categories":[],"categories_nodes":[],"categories_segments":[],"categories_sizes":[],"default_left":[0,0,0,0,0,0,0,0,0,0,0,0,0,0,0,0,0,0,0,0,0,0,0,0,0,0,0,0,0,0,0],"id":1,"left_children":[1,3,5,7,9,11,13,15,17,19,21,23,25,27,29,-1,-1,-1,-1,-1,-1,-1,-1,-1,-1,-1,-1,-1,-1,-1,-1],"loss_changes":[9.785601E0,7.183887E0,5.2836866E0,7.9231124E0,4.243987E0,6.741206E0,5.7178507E0,4.3396807E0,5.5379505E0,6.2911057E0,1.5175467E0,3.2137585E0,5.1888084E0,4.678835E0,7.176155E0,0E0,0E0,0E0,0E0,0E0,0E0,0E0,0E0,0E0,0E0,0E0,0E0,0E0,0E0,0E0,0E0],"parents":[2147483647,0,0,1,1,2,2,3,3,4,4,5,5,6,6,7,7,8,8,9,9,10,10,11,11,12,12,13,13,14,14],"right_children":[2,4,6,8,10,12,14,16,18,20,22,24,26,28,30,-1,-1,-1,-1,-1,-1,-1,-1,-1,-1,-1,-1,-1,-1,-1,-1],"split_conditions":[2.0046492E-1,-1.9635427E0,5.374631E1,-3.3776448E0,5.4374664E1,1.8170823E0,4.3328586E0,-3.6907084E0,4.8926117E1,-8.138459E0,5.6198433E1,-1.2010285E1,7.3851786E0,2.8493364E0,3.446301E0,-6.644533E-3,-5.7500523E-2,3.3824768E-2,-2.640519E-2,1.6982034E-2,-3.4062795E-2,-1.2004655E-1,-2.8892824E-2,-1.5820453E-2,1.11289196E-1,-3.2447195E-3,3.6936656E-2,-1.9024216E-2,2.32658E-2,1.4707404E-2,-3.7824534E-2],"split_indices":[1,1,0,1,0,4,1,1,0,2,0,2,2,4,4,0,0,0,0,0,0,0,0,0,0,0,0,0,0,0,0],"split_type":[0,0,0,0,0,0,0,0,0,0,0,0,0,0,0,0,0,0,0,0,0,0,0,0,0,0,0,0,0,0,0],"sum_hessian":[8.613483E2,4.1879535E2,4.4255298E2,3.2558768E2,9.320768E1,8.945897E1,3.5309402E2,2.6336478E2,6.222289E1,8.7211136E1,5.99654E0,7.9963946E0,8.146257E1,1.07453766E2,2.4564026E2,2.5311945E2,1.0245339E1,5.097843E1,1.1244456E1,1.9241526E1,6.796961E1,3.2485878E0,2.7479522E0,1.2493912E0,6.747003E0,3.7984043E1,4.3478527E1,8.771105E1,1.9742714E1,2.2864699E2,1.6993267E1],"tree_param":{"num_deleted":"0","num_feature":"6","num_nodes":"31","size_leaf_vector":"1"}},{"base_weights":[1.3819846E-2,2.1337706E-1,-2.5709473E-2,2.661813E-1,-3.0614677E-1,-1.1250115E-1,5.648834E-2,-1.6019645E-1,3.1543157E-1,-6.81238E-1,7.7862656E-1,-9.096122E-2,-8.451165E-1,1.05516896E-1,-1.9700678E-1,4.955534E-2,-4.921973E-2,8.319108E-2,1.8947566E-2,-1.749148E-2,-6.995615E-2,1.9456858E-2,7.467425E-2,-9.7512856E-2,-6.2005566E-3,-8.99831E-2,-2.7203228E-2,2.7431544E-2,3.1351482E-3,-3.033617E-2,2.2960568E-2],"categories":[],"categories_nodes":[],"categories_segments":[],"categories_sizes":[],"default_left":[0,0,0,0,0,0,0,0,0,0,0,0,0,0,0,0,0,0,0,0,0,0,0,0,0,0,0,0,0,0,0],"id":2,"left_children":[1,3,5,7,9,11,13,15,17,19,21,23,25,27,29,-1,-1,-1,-1,-1,-1,-1,-1,-1,-1,-1,-1,-1,-1,-1,-1],"loss_changes":[6.86812E0,4.0303073E0,5.1930203E0,2.8055906E0,6.1233826E0,5.5088725E0,4.6698E0,5.436108E0,6.4689207E0,7.6939344E-1,1.04379654E-1,5.1407895E0,1.0285625E0,4.9317956E0,5.4855647E0,0E0,0E0,0E0,0E0,0E0,0E0,0E0,0E0,0E0,0E0,0E0,0E0,0E0,0E0,0E0,0E0],"parents":[2147483647,0,0,1,1,2,2,3,3,4,4,5,5,6,6,7,7,8,8,9,9,10,10,11,11,12,12,13,13,14,14],"right_children":[2,4,6,8,10,12,14,16,18,20,22,24,26,28,30,-1,-1,-1,-1,-1,-1,-1,-1,-1,-1,-1,-1,-1,-1,-1,-1],"split_conditions":[5.361209E-1,6.7957954E1,-2.8303033E-1,3.3388577E1,4.9084952E-1,-5.0736576E-1,1.4955434E0,2.5108782E1,3.859119E1,2.1772509E0,2.2253766E0,1.4332917E0,5.0672474E1,5.374631E1,2.867813E0,4.955534E-2,-4.921973E-2,8.319108E-2,1.8947566E-2,-1.749148E-2,-6.995615E-2,1.9456858E-2,7.467425E-2,-9.7512856E-2,-6.2005566E-3,-8.99831E-2,-2.7203228E-2,2.7431544E-2,3.1351482E-3,-3.033617E-2,2.2960568E-2],"split_indices":[3,0,1,0,3,1,3,0,0,4,4,4,0,0,4,0,0,0,0,0,0,0,0,0,0,0,0,0,0,0,0],"split_type":[0,0,0,0,0,0,0,0,0,0,0,0,0,0,0,0,0,0,0,0,0,0,0,0,0,0,0,0,0,0,0],"sum_hessian":[8.6896967E2,1.4294377E2,7.260259E2,1.3019812E2,1.2745649E1,3.5296533E2,3.7306052E2,1.3248482E1,1.1694964E2,9.747257E0,2.9983919E0,3.439761E2,8.989228E0,3.1308954E2,5.997098E1,4.7496457E0,8.498836E0,1.0247781E1,1.0670186E2,3.4997468E0,6.2475104E0,1.2491255E0,1.7492663E0,2.9984903E0,3.4097763E2,4.995909E0,3.993319E0,6.7466446E1,2.456231E2,4.37274E1,1.624358E1],"tree_param":{"num_deleted":"0","num_feature":"6","num_nodes":"31","size_leaf_vector":"1"}},{"base_weights":[-2.2779888E-2,-1.2257096E-1,6.5378614E-2,-5.7701554E-2,-4.1813406E-1,2.904363E-1,7.800874E-4,-3.5455614E-1,-8.595071E-3,3.3255923E-1,-5.7761866E-1,2.2316268E-1,1.1504762E0,-4.2114183E-2,3.4338188E-1,1.2723203E-2,-4.4513054E-2,-4.2623017E-2,2.0395783E-3,-2.260787E-3,6.0453795E-2,-1.8477292E-3,-5.3850267E-2,2.6794953E-2,-2.4295993E-2,1.0498258E-1,1.6622853E-2,-7.559179E-4,-3.4669023E-2,4.40687E-2,-2.0667972E-2],"categories":[],"categories_nodes":[],"categories_segments":[],"categories_sizes":[],"default_left":[0,0,0,0,0,0,0,0,0,0,0,0,0,0,0,0,0,0,0,0,0,0,0,0,0,0,0,0,0,0,0],"id":3,"left_children":[1,3,5,7,9,11,13,15,17,19,21,23,25,27,29,-1,-1,-1,-1,-1,-1,-1,-1,-1,-1,-1,-1,-1,-1,-1,-1],"loss_changes":[7.664719E0,7.80961E0,6.727453E0,4.898E0,8.976845E0,5.7141705E0,5.3130274E0,5.0333896E0,5.1870093E0,2.08109E0,3.2089748E0,5.811269E0,8.326006E-1,4.1025095E0,5.1646085E0,0E0,0E0,0E0,0E0,0E0,0E0,0E0,0E0,0E0,0E0,0E0,0E0,0E0,0E0,0E0,0E0],"parents":[2147483647,0,0,1,1,2,2,3,3,4,4,5,5,6,6,7,7,8,8,9,9,10,10,11,11,12,12,13,13,14,14],"right_children":[2,4,6,8,10,12,14,16,18,20,22,24,26,28,30,-1,-1,-1,-1,-1,-1,-1,-1,-1,-1,-1,-1,-1,-1,-1,-1],"split_conditions":[-2.8303033E-1,-1.8901739E0,5.374631E1,-1.4485422E1,-9.55062E0,5.3437508E1,2.2617E1,-2.1559664E1,1.7187976E0,4.8141876E1,1.8237402E0,3.6043103E0,1.6304401E1,7.326489E1,3.1713336E0,1.2723203E-2,-4.4513054E-2,-4.2623017E-2,2.0395783E-3,-2.260787E-3,6.0453795E-2,-1.8477292E-3,-5.3850267E-2,2.6794953E-2,-2.4295993E-2,1.0498258E-1,1.6622853E-2,-7.559179E-4,-3.4669023E-2,4.40687E-2,-2.0667972E-2],"split_indices":[1,1,0,1,2,0,2,2,4,0,4,1,2,0,4,0,0,0,0,0,0,0,0,0,0,0,0,0,0,0,0],"split_type":[0,0,0,0,0,0,0,0,0,0,0,0,0,0,0,0,0,0,0,0,0,0,0,0,0,0,0,0,0,0,0],"sum_hessian":[8.693343E2,4.0758163E2,4.6175266E2,3.352066E2,7.237503E1,1.0219945E2,3.595532E2,4.6697067E1,2.8850952E2,1.2491653E1,5.9883377E1,9.5953316E1,6.246132E0,3.2032507E2,3.9228115E1,1.3234897E1,3.3462173E1,1.6723675E1,2.7178586E2,7.2458262E0,5.2458277E0,8.981176E0,5.09022E1,7.946008E1,1.6493229E1,4.9964647E0,1.2496674E0,2.9658728E2,2.3737816E1,2.9233095E1,9.995021E0],"tree_param":{"num_deleted":"0","num_feature":"6","num_nodes":"31","size_leaf_vector":"1"}},{"base_weights":[-1.1643242E-2,-2.107694E-1,2.6508484E-2,-3.2931092E-1,4.280516E-3,5.7070327E-1,1.6250124E-2,-1.6742495E-1,-9.279348E-1,4.787954E-1,-1.4689046E-1,-6.0428474E-2,7.9952145E-1,-6.235914E-1,2.7770473E-2,-9.181223E-3,-6.5401755E-2,-1.16510704E-1,-4.9609464E-2,-2.1303467E-2,8.089073E-2,1.0320906E-2,-4.6236213E-2,8.828549E-2,8.319152E-3,-5.9436515E-2,2.1102902E-2,5.191841E-2,8.0966746E-4],"categories":[],"categories_nodes":[],"categories_segments":[],"categories_sizes":[],"default_left":[0,0,0,0,0,0,0,0,0,0,0,0,0,0,0,0,0,0,0,0,0,0,0,0,0,0,0,0,0],"id":4,"left_children":[1,3,5,7,9,11,13,15,17,19,21,-1,23,25,27,-1,-1,-1,-1,-1,-1,-1,-1,-1,-1,-1,-1,-1,-1],"loss_changes":[6.6060257E0,3.565462E0,4.0660524E0,8.580061E0,3.7049017E0,4.693264E0,5.30641E0,2.3769386E0,2.182249E0,5.217978E0,4.7356424E0,0E0,2.4186354E0,1.544723E0,7.731926E0,0E0,0E0,0E0,0E0,0E0,0E0,0E0,0E0,0E0,0E0,0E0,0E0,0E0,0E0],"parents":[2147483647,0,0,1,1,2,2,3,3,4,4,5,5,6,6,7,7,8,8,9,9,10,10,12,12,13,13,14,14],"right_children":[2,4,6,8,10,12,14,16,18,20,22,-1,24,26,28,-1,-1,-1,-1,-1,-1,-1,-1,-1,-1,-1,-1,-1,-1],"split_conditions":[-8.06972E0,1.1652324E0,-1.6330418E1,9.490234E-1,2.2682917E1,-7.799712E0,-1.458278E1,2.2345738E0,9.888052E-1,1.5632557E0,1.6290616E0,-6.0428474E-2,4.4980592E-1,1.3144122E0,-1.2259585E1,-9.181223E-3,-6.5401755E-2,-1.16510704E-1,-4.9609464E-2,-2.1303467E-2,8.089073E-2,1.0320906E-2,-4.6236213E-2,8.828549E-2,8.319152E-3,-5.9436515E-2,2.1102902E-2,5.191841E-2,8.0966746E-4],"split_indices":[1,3,2,3,0,1,2,2,3,3,3,0,1,3,2,0,0,0,0,0,0,0,0,0,0,0,0,0,0],"split_type":[0,0,0,0,0,0,0,0,0,0,0,0,0,0,0,0,0,0,0,0,0,0,0,0,0,0,0,0,0],"sum_hessian":[8.67821E2,1.3880878E2,7.290122E2,8.914064E1,4.9668133E1,1.2477204E1,7.1653503E2,7.1173E1,1.7967644E1,1.1476615E1,3.8191517E1,1.4975284E0,1.0979675E1,1.1733357E1,7.0480164E2,6.692816E1,4.24483E0,5.240165E0,1.2727478E1,4.9908834E0,6.4857316E0,2.3714039E1,1.447748E1,7.2317224E0,3.7479532E0,1.0485639E1,1.2477185E0,1.848319E1,6.863185E2],"tree_param":{"num_deleted":"0","num_feature":"6","num_nodes":"29","size_leaf_vector":"1"}},{"base_weights":[5.6216572E-3,1.1154824E-1,-6.23696E-2,7.9166234E-1,9.442116E-2,-1.6725999E-1,1.8780516E-2,4.336296E-3,1.0187986E0,6.095457E-2,4.137898E-1,-9.8377293E-1,-1.2894185E-1,1.6778572E-1,-7.803832E-2,1.1723679E-1,1.2485378E-2,5.9485715E-3,-6.7711115E-2,6.048426E-3,8.296636E-2,-3.0993653E-2,-9.882094E-2,-1.860415E-2,3.2280546E-3,7.4249892E-3,8.3591156E-2,-1.837046E-2,2.2058196E-3],"categories":[],"categories_nodes":[],"categories_segments":[],"categories_sizes":[],"default_left":[0,0,0,0,0,0,0,0,0,0,0,0,0,0,0,0,0,0,0,0,0,0,0,0,0,0,0,0,0],"id":5,"left_children":[1,3,5,7,9,11,13,-1,15,17,19,21,23,25,27,-1,-1,-1,-1,-1,-1,-1,-1,-1,-1,-1,-1,-1,-1],"loss_changes":[6.281191E0,3.8965592E0,4.524958E0,1.3248849E0,3.5413527E0,7.126298E0,4.3469973E0,0E0,2.1770034E0,3.7502556E0,6.556788E0,1.0573063E0,3.9135876E0,7.704466E0,2.932551E0,0E0,0E0,0E0,0E0,0E0,0E0,0E0,0E0,0E0,0E0,0E0,0E0,0E0,0E0],"parents":[2147483647,0,0,1,1,2,2,3,3,4,4,5,5,6,6,8,8,9,9,10,10,11,11,12,12,13,13,14,14],"right_children":[2,4,6,8,10,12,14,-1,16,18,20,22,24,26,28,-1,-1,-1,-1,-1,-1,-1,-1,-1,-1,-1,-1,-1,-1],"split_conditions":[7.4515146E-1,1.4131123E-1,4.714492E1,3.3122166E1,7.149838E-1,7.701202E-1,9.7138E-1,4.336296E-3,2.4595108E0,7.122185E-1,2.6800776E0,3.4827847E1,1.2947092E0,9.490234E-1,1.2316009E0,1.1723679E-1,1.2485378E-2,5.9485715E-3,-6.7711115E-2,6.048426E-3,8.296636E-2,-3.0993653E-2,-9.882094E-2,-1.860415E-2,3.2280546E-3,7.4249892E-3,8.3591156E-2,-1.837046E-2,2.2058196E-3],"split_indices":[3,3,0,0,3,3,3,0,4,3,4,0,3,3,3,0,0,0,0,0,0,0,0,0,0,0,0,0,0],"split_type":[0,0,0,0,0,0,0,0,0,0,0,0,0,0,0,0,0,0,0,0,0,0,0,0,0,0,0,0,0],"sum_hessian":[8.7016943E2,3.3993268E2,5.3023676E2,7.239271E0,3.3269342E2,2.3082428E2,2.9941248E2,1.9963208E0,5.2429504E0,3.0221518E2,3.0478224E1,9.240778E0,2.215835E2,1.17636185E2,1.8177629E2,2.9941583E0,2.2487922E0,2.9872076E2,3.4944215E0,2.0484852E1,9.993371E0,3.4945962E0,5.7461815E0,1.3722543E2,8.435807E1,1.093914E2,8.244776E0,7.415749E1,1.076188E2],"tree_param":{"num_deleted":"0","num_feature":"6","num_nodes":"29","size_leaf_vector":"1"}},{"base_weights":[-1.4466281E-2,-1.18903644E-1,7.828329E-2,-4.6819102E-2,-4.4616532E-1,9.591947E-2,-7.4502283E-1,6.588633E-1,-7.6165706E-2,6.432025E-2,-4.8330805E-1,3.9602825E-1,7.049403E-2,-8.635004E-2,-1.1422588E0,-1.6744854E-2,7.41346E-2,-4.084846E-3,-4.2026024E-2,-6.9440603E-3,-4.8516612E-2,4.129294E-3,8.76171E-2,4.1290927E-3,4.2033218E-2,-4.3272633E-2,2.8753314E-2,-1.08018376E-1,-1.563327E-2],"categories":[],"categories_nodes":[],"categories_segments":[],"categories_sizes":[],"default_left":[0,0,0,0,0,0,0,0,0,0,0,0,0,0,0,0,0,0,0,0,0,0,0,0,0,0,0,0,0],"id":6,"left_children":[1,3,5,7,9,11,13,15,17,-1,19,21,23,25,27,-1,-1,-1,-1,-1,-1,-1,-1,-1,-1,-1,-1,-1,-1],"loss_changes":[8.395761E0,9.595339E0,6.738376E0,6.9913135E0,3.7998028E0,3.4088984E0,2.4507165E0,3.329524E0,3.6118164E0,0E0,3.461525E0,8.362656E0,3.5497963E0,1.1563368E0,9.1687775E-1,0E0,0E0,0E0,0E0,0E0,0E0,0E0,0E0,0E0,0E0,0E0,0E0,0E0,0E0],"parents":[2147483647,0,0,1,1,2,2,3,3,4,4,5,5,6,6,7,7,8,8,10,10,11,11,12,12,13,13,14,14],"right_children":[2,4,6,8,10,12,14,16,18,-1,20,22,24,26,28,-1,-1,-1,-1,-1,-1,-1,-1,-1,-1,-1,-1,-1,-1],"split_conditions":[-2.8303033E-1,-1.8901739E0,3.0348039E0,3.8921824E-1,3.4583578E-1,4.934711E1,3.7621527E0,3.4827847E1,4.955185E1,6.432025E-2,1.8237402E0,4.825487E1,2.0067654E0,5.4031227E1,3.264075E0,-1.6744854E-2,7.41346E-2,-4.084846E-3,-4.2026024E-2,-6.9440603E-3,-4.8516612E-2,4.129294E-3,8.76171E-2,4.1290927E-3,4.2033218E-2,-4.3272633E-2,2.8753314E-2,-1.08018376E-1,-1.563327E-2],"split_indices":[1,1,3,3,3,0,1,0,0,0,4,0,3,0,4,0,0,0,0,0,0,0,0,0,0,0,0,0,0],"split_type":[0,0,0,0,0,0,0,0,0,0,0,0,0,0,0,0,0,0,0,0,0,0,0,0,0,0,0,0,0],"sum_hessian":[8.6478595E2,4.0663126E2,4.5815466E2,3.3416846E2,7.24628E1,4.4941125E2,8.743419E0,1.2485482E1,3.2168295E2,1.495059E0,7.096774E1,3.3962242E1,4.15449E2,3.7472806E0,4.996138E0,2.9950545E0,9.490428E0,3.0570947E2,1.5973508E1,1.722213E1,5.3745613E1,2.347333E1,1.0488914E1,3.9996298E2,1.5486015E1,1.74967E0,1.9976106E0,3.7470725E0,1.2490659E0],"tree_param":{"num_deleted":"0","num_feature":"6","num_nodes":"29","size_leaf_vector":"1"}},{"base_weights":[-1.640376E-2,-2.2821502E-1,2.6186485E-2,-3.507187E-1,9.668789E-2,4.749909E-1,8.781383E-3,-1.9398355E-1,-5.9420776E-1,9.338095E-1,-3.2273643E-2,3.5009098E-1,9.923317E-1,3.8840607E-2,-2.6203087E-1,-1.9400274E-2,4.232072E-2,-6.1033897E-2,-1.4261814E-2,-1.410659E-2,1.04084864E-1,7.54058E-2,-1.3151041E-2,-4.0541086E-2,4.0984616E-2,1.09655604E-1,1.748062E-2,-6.345392E-3,8.301876E-3,-2.954755E-2,2.3333447E-2],"categories":[],"categories_nodes":[],"categories_segments":[],"categories_sizes":[],"default_left":[0,0,0,0,0,0,0,0,0,0,0,0,0,0,0,0,0,0,0,0,0,0,0,0,0,0,0,0,0,0,0],"id":7,"left_children":[1,3,5,7,9,11,13,15,17,19,21,23,25,27,29,-1,-1,-1,-1,-1,-1,-1,-1,-1,-1,-1,-1,-1,-1,-1,-1],"loss_changes":[7.8988433E0,5.868011E0,5.693182E0,3.955243E0,4.4475436E0,1.4108138E0,5.7340665E0,2.456686E0,2.761198E0,2.4699674E0,4.8458877E0,3.5209856E0,1.0902433E0,4.8707047E0,4.2895656E0,0E0,0E0,0E0,0E0,0E0,0E0,0E0,0E0,0E0,0E0,0E0,0E0,0E0,0E0,0E0,0E0],"parents":[2147483647,0,0,1,1,2,2,3,3,4,4,5,5,6,6,7,7,8,8,9,9,10,10,11,11,12,12,13,13,14,14],"right_children":[2,4,6,8,10,12,14,16,18,20,22,24,26,28,30,-1,-1,-1,-1,-1,-1,-1,-1,-1,-1,-1,-1,-1,-1,-1,-1],"split_conditions":[-7.799712E0,1.2947092E0,-6.6563873E0,8.9960027E-1,1.9679201E1,1.4405117E0,1.6000856E0,8.72172E-1,1.1652324E0,1.6461854E0,1.3339994E0,2.9617693E1,-6.993239E0,-2.9346373E-2,1.0491116E1,-1.9400274E-2,4.232072E-2,-6.1033897E-2,-1.4261814E-2,-1.410659E-2,1.04084864E-1,7.54058E-2,-1.3151041E-2,-4.0541086E-2,4.0984616E-2,1.09655604E-1,1.748062E-2,-6.345392E-3,8.301876E-3,-2.954755E-2,2.3333447E-2],"split_indices":[1,3,1,3,0,3,3,3,3,3,3,0,1,1,1,0,0,0,0,0,0,0,0,0,0,0,0,0,0,0,0],"split_type":[0,0,0,0,0,0,0,0,0,0,0,0,0,0,0,0,0,0,0,0,0,0,0,0,0,0,0,0,0,0,0],"sum_hessian":[8.739346E2,1.4557878E2,7.283558E2,1.05660385E2,3.99184E1,2.6210361E1,7.021454E2,6.53749E1,4.028549E1,4.4955654E0,3.5422832E1,2.2463728E1,3.746634E0,6.32767E2,6.937837E1,6.1886307E1,3.4885943E0,2.8066586E1,1.2218902E1,1.2467372E0,3.248828E0,3.495524E0,3.192731E1,3.2376983E0,1.922603E1,1.9982547E0,1.7483792E0,2.2433113E2,4.084359E2,5.8393887E1,1.0984486E1],"tree_param":{"num_deleted":"0","num_feature":"6","num_nodes":"31","size_leaf_vector":"1"}},{"base_weights":[2.6180478E-2,-7.556524E-2,1.217897E-1,-5.9225947E-2,-9.4960165E-1,1.47099E-1,-1.8718266E-1,-7.59849E-2,5.394239E-1,-1.0052195E-1,-2.8707147E-1,1.21670075E-1,6.1971706E-1,-7.5237405E-1,1.282209E-1,-4.389259E-3,-4.712044E-2,1.2801458E-2,1.02273054E-1,-5.7645876E-2,2.5859382E-2,2.1567954E-2,4.732506E-3,6.581116E-2,5.554101E-3,2.890483E-3,-7.248117E-2,5.3133488E-2,-1.6827132E-4],"categories":[],"categories_nodes":[],"categories_segments":[],"categories_sizes":[],"default_left":[0,0,0,0,0,0,0,0,0,0,0,0,0,0,0,0,0,0,0,0,0,0,0,0,0,0,0,0,0],"id":8,"left_children":[1,3,5,7,9,11,13,15,17,-1,19,21,23,25,27,-1,-1,-1,-1,-1,-1,-1,-1,-1,-1,-1,-1,-1,-1],"loss_changes":[8.480888E0,5.9777317E0,3.5414557E0,4.2128673E0,1.2024107E0,4.922903E0,6.2397904E0,4.3597894E0,3.005E0,0E0,1.2197168E0,3.645234E0,2.286787E0,1.5457225E0,1.6060014E0,0E0,0E0,0E0,0E0,0E0,0E0,0E0,0E0,0E0,0E0,0E0,0E0,0E0,0E0],"parents":[2147483647,0,0,1,1,2,2,3,3,4,4,5,5,6,6,7,7,8,8,10,10,11,11,12,12,13,13,14,14],"right_children":[2,4,6,8,10,12,14,16,18,-1,20,22,24,26,28,-1,-1,-1,-1,-1,-1,-1,-1,-1,-1,-1,-1,-1,-1],"split_conditions":[-2.9346373E-2,5.4374664E1,7.326489E1,4.942796E0,5.646594E1,7.054009E1,1.3814296E1,4.4358215E0,3.1963783E1,-1.0052195E-1,-7.13471E0,2.6883113E0,2.664432E0,5.6942716E0,1.33448105E1,-4.389259E-3,-4.712044E-2,1.2801458E-2,1.02273054E-1,-5.7645876E-2,2.5859382E-2,2.1567954E-2,4.732506E-3,6.581116E-2,5.554101E-3,2.890483E-3,-7.248117E-2,5.3133488E-2,-1.6827132E-4],"split_indices":[1,0,0,4,0,0,2,4,0,0,2,1,4,2,1,0,0,0,0,0,0,0,0,0,0,0,0,0,0],"split_type":[0,0,0,0,0,0,0,0,0,0,0,0,0,0,0,0,0,0,0,0,0,0,0,0,0,0,0,0,0],"sum_hessian":[8.6987103E2,4.2151334E2,4.4835773E2,4.148263E2,6.68703E0,4.148957E2,3.3462044E1,4.0437897E2,1.0447349E1,3.957247E0,2.7297828E0,3.949055E2,1.999021E1,1.1488912E1,2.1973133E1,3.8945352E2,1.4925416E1,7.7070146E0,2.7403338E0,1.4904587E0,1.2393241E0,1.16325676E2,2.785798E2,1.4243085E1,5.747125E0,1.9982823E0,9.490629E0,3.496753E0,1.847638E1],"tree_param":{"num_deleted":"0","num_feature":"6","num_nodes":"29","size_leaf_vector":"1"}},{"base_weights":[1.4398333E-3,8.1568503E-1,-6.1022337E-3,5.4636435E-3,1.0540512E0,-7.399644E-2,5.45388E-2,1.10769525E-1,2.0962121E-2,8.941773E-2,-1.8121772E-1,-1.09186135E-1,1.5800898E-1,4.5868944E-2,2.2171708E-3,-4.503118E-2,-1.083953E-2,6.2582254E-2,-1.1603945E-2,2.1248298E-2,4.782061E-3],"categories":[],"categories_nodes":[],"categories_segments":[],"categories_sizes":[],"default_left":[0,0,0,0,0,0,0,0,0,0,0,0,0,0,0,0,0,0,0,0,0],"id":9,"left_children":[1,3,5,-1,7,9,11,-1,-1,13,15,17,19,-1,-1,-1,-1,-1,-1,-1,-1],"loss_changes":[5.3258886E0,1.3459873E0,3.542684E0,0E0,1.1990418E0,7.128459E0,7.71793E0,0E0,0E0,4.8062477E0,4.2068253E0,5.760173E0,2.9324212E0,0E0,0E0,0E0,0E0,0E0,0E0,0E0,0E0],"parents":[2147483647,0,0,1,1,2,2,4,4,5,5,6,6,9,9,10,10,11,11,12,12],"right_children":[2,4,6,-1,8,10,12,-1,-1,14,16,18,20,-1,-1,-1,-1,-1,-1,-1,-1],"split_conditions":[1.4131123E-1,3.3122166E1,2.4167151E0,5.4636435E-3,4.7440105E1,7.646718E-1,4.3029285E1,1.10769525E-1,2.0962121E-2,3.8828354E1,8.1621623E-1,2.4885747E0,5.520536E1,4.5868944E-2,2.2171708E-3,-4.503118E-2,-1.083953E-2,6.2582254E-2,-1.1603945E-2,2.1248298E-2,4.782061E-3],"split_indices":[3,0,4,0,0,3,0,0,0,0,3,4,0,0,0,0,0,0,0,0,0],"split_type":[0,0,0,0,0,0,0,0,0,0,0,0,0,0,0,0,0,0,0,0,0],"sum_hessian":[8.654439E2,6.959335E0,8.5848456E2,1.9939339E0,4.9654007E0,4.0491647E2,4.5356808E2,2.9753673E0,1.9900335E0,1.6048697E2,2.444295E2,1.7562094E2,2.7794714E2,1.7210543E1,1.4327641E2,2.4939486E1,2.1949E2,5.9870014E0,1.6963394E2,1.3183958E2,1.4610757E2],"tree_param":{"num_deleted":"0","num_feature":"6","num_nodes":"21","size_leaf_vector":"1"}},{"base_weights":[1.976218E-2,2.7447548E-2,-8.034849E-1,1.5067284E-1,-1.864442E-2,-2.3156257E-1,-1.1120037E-1,2.267901E-1,-2.3244573E-1,-6.7766756E-2,2.44531E-1,-3.4747336E-2,1.8564666E-2,5.788303E-3,2.850102E-2,-5.6540392E-2,-6.7056407E-4,-2.1948572E-3,-2.8497042E-2,-7.3149994E-2,2.3771366E-2],"categories":[],"categories_nodes":[],"categories_segments":[],"categories_sizes":[],"default_left":[0,0,0,0,0,0,0,0,0,0,0,0,0,0,0,0,0,0,0,0,0],"id":10,"left_children":[1,3,5,7,9,11,-1,13,15,17,19,-1,-1,-1,-1,-1,-1,-1,-1,-1,-1],"loss_changes":[5.4572287E0,4.8423185E0,2.3544536E0,6.820131E0,8.044842E0,5.9336174E-1,0E0,3.8554182E0,4.1343336E0,6.0873904E0,6.2406373E0,0E0,0E0,0E0,0E0,0E0,0E0,0E0,0E0,0E0,0E0],"parents":[2147483647,0,0,1,1,2,2,3,3,4,4,5,5,7,7,8,8,9,9,10,10],"right_children":[2,4,6,8,10,12,-1,14,16,18,20,-1,-1,-1,-1,-1,-1,-1,-1,-1,-1],"split_conditions":[4.0492406E0,6.3457763E-1,3.7621527E0,8.165349E0,7.670876E0,5.4031227E1,-1.1120037E-1,4.825487E1,4.1089097E-1,5.993786E1,6.5581965E-1,-3.4747336E-2,1.8564666E-2,5.788303E-3,2.850102E-2,-5.6540392E-2,-6.7056407E-4,-2.1948572E-3,-2.8497042E-2,-7.3149994E-2,2.3771366E-2],"split_indices":[3,3,1,1,1,0,0,0,3,0,3,0,0,0,0,0,0,0,0,0,0],"split_type":[0,0,0,0,0,0,0,0,0,0,0,0,0,0,0,0,0,0,0,0,0],"sum_hessian":[8.580504E2,8.5107196E2,6.978466E0,2.3106328E2,6.2000867E2,4.2393923E0,2.7390738E0,1.931055E2,3.795779E1,5.231112E2,9.689748E1,2.9933221E0,1.2460699E0,8.87739E1,1.0433159E2,1.1487089E1,2.6470701E1,4.59902E2,6.3209156E1,3.496541E0,9.340094E1],"tree_param":{"num_deleted":"0","num_feature":"6","num_nodes":"21","size_leaf_vector":"1"}},{"base_weights":[-4.807019E-3,2.042195E-1,-5.3662647E-2,2.529833E-1,-2.1727121E-1,-1.2433916E-1,2.8057039E-2,9.5203537E-1,2.1429773E-1,-4.3294224E-1,5.568066E-1,9.5722206E-2,-2.001713E-1,4.0889256E-2,-1.0125667E0,3.135107E-2,1.0759623E-1,6.046971E-3,3.7638992E-2,-1.5496715E-2,-7.977629E-2,9.864766E-2,-3.2753054E-2,1.3933621E-3,9.1198035E-2,-1.09156985E-2,-4.1570116E-2,-5.2578792E-2,4.4065816E-3,-2.0849809E-2,-1.0071953E-1],"categories":[],"categories_nodes":[],"categories_segments":[],"categories_sizes":[],"default_left":[0,0,0,0,0,0,0,0,0,0,0,0,0,0,0,0,0,0,0,0,0,0,0,0,0,0,0,0,0,0,0],"id":11,"left_children":[1,3,5,7,9,11,13,15,17,19,21,23,25,27,29,-1,-1,-1,-1,-1,-1,-1,-1,-1,-1,-1,-1,-1,-1,-1,-1],"loss_changes":[8.803908E0,3.4119654E0,4.038949E0,3.7674189E0,3.1584034E0,6.2745495E0,4.3793054E0,1.1038795E0,4.955317E0,1.7276711E0,3.2788801E0,7.890917E0,5.610942E0,3.2253013E0,4.123063E-1,0E0,0E0,0E0,0E0,0E0,0E0,0E0,0E0,0E0,0E0,0E0,0E0,0E0,0E0,0E0,0E0],"parents":[2147483647,0,0,1,1,2,2,3,3,4,4,5,5,6,6,7,7,8,8,9,9,10,10,11,11,12,12,13,13,14,14],"right_children":[2,4,6,8,10,12,14,16,18,20,22,24,26,28,30,-1,-1,-1,-1,-1,-1,-1,-1,-1,-1,-1,-1,-1,-1,-1,-1],"split_conditions":[5.6273985E-1,1.9009144E1,2.1065915E0,1.4131123E-1,2.6670265E1,-1.2831645E1,4.4932068E1,-2.0094833E0,5.0062174E-1,2.3876934E1,2.5598013E0,-1.3108109E1,1.4955434E0,5.798103E-1,2.2634192E0,3.135107E-2,1.0759623E-1,6.046971E-3,3.7638992E-2,-1.5496715E-2,-7.977629E-2,9.864766E-2,-3.2753054E-2,1.3933621E-3,9.1198035E-2,-1.09156985E-2,-4.1570116E-2,-5.2578792E-2,4.4065816E-3,-2.0849809E-2,-1.0071953E-1],"split_indices":[3,2,2,3,2,2,2,2,3,2,4,2,3,3,4,0,0,0,0,0,0,0,0,0,0,0,0,0,0,0,0],"split_type":[0,0,0,0,0,0,0,0,0,0,0,0,0,0,0,0,0,0,0,0,0,0,0,0,0,0,0,0,0,0,0],"sum_hessian":[8.600307E2,1.6232988E2,6.9770087E2,1.4585515E2,1.6474726E1,3.738497E2,3.2385117E2,6.4103274E0,1.3944482E2,1.3229473E1,3.245253E0,9.5743675E1,2.7810602E2,3.2085532E2,2.9958477E0,3.4662251E0,2.9441023E0,9.130432E1,4.81405E1,1.0233859E1,2.9956138E0,1.7465669E0,1.4986861E0,9.001074E1,5.732936E0,2.3304517E2,4.5060844E1,5.4903374E0,3.1536496E2,1.2473404E0,1.7485073E0],"tree_param":{"num_deleted":"0","num_feature":"6","num_nodes":"31","size_leaf_vector":"1"}},{"base_weights":[-1.1953307E-2,2.1854024E-1,-4.8456207E-2,1.4185984E-1,6.348022E-1,-8.887386E-2,9.889538E-2,2.4264498E-1,-6.5134126E-1,8.468813E-1,2.7531424E-1,-6.731517E-2,-3.1922376E-1,-2.8564182E-1,1.5726377E-1,4.5263324E-2,1.2556013E-2,-2.9860493E-2,-8.429459E-2,3.7569277E-2,9.3655616E-2,-3.9575975E-2,5.172887E-2,6.01761E-2,-6.479357E-3,-3.525205E-2,2.6541404E-2,7.950161E-2,-3.7263907E-2,-1.716865E-2,1.9668967E-2],"categories":[],"categories_nodes":[],"categories_segments":[],"categories_sizes":[],"default_left":[0,0,0,0,0,0,0,0,0,0,0,0,0,0,0,0,0,0,0,0,0,0,0,0,0,0,0,0,0,0,0],"id":12,"left_children":[1,3,5,7,9,11,13,15,17,19,21,23,25,27,29,-1,-1,-1,-1,-1,-1,-1,-1,-1,-1,-1,-1,-1,-1,-1,-1],"loss_changes":[7.315447E0,3.7045135E0,4.4774656E0,8.286297E0,1.154778E0,2.9052386E0,3.6806097E0,2.4295554E0,9.195671E-1,7.901516E-1,2.674744E0,6.115428E0,4.1120243E0,5.4651203E0,4.707591E0,0E0,0E0,0E0,0E0,0E0,0E0,0E0,0E0,0E0,0E0,0E0,0E0,0E0,0E0,0E0,0E0],"parents":[2147483647,0,0,1,1,2,2,3,3,4,4,5,5,6,6,7,7,8,8,9,9,10,10,11,11,12,12,13,13,14,14],"right_children":[2,4,6,8,10,12,14,16,18,20,22,24,26,28,30,-1,-1,-1,-1,-1,-1,-1,-1,-1,-1,-1,-1,-1,-1,-1,-1],"split_conditions":[5.2071625E-1,4.9481466E-1,1.226264E1,4.8064396E-1,2.5282629E0,3.8583846E0,1E0,2.0486982E0,4.9084952E-1,2.2103431E0,2.980743E0,-2.2265574E1,1.7585428E0,2.2103431E0,2.1003308E0,4.5263324E-2,1.2556013E-2,-2.9860493E-2,-8.429459E-2,3.7569277E-2,9.3655616E-2,-3.9575975E-2,5.172887E-2,6.01761E-2,-6.479357E-3,-3.525205E-2,2.6541404E-2,7.950161E-2,-3.7263907E-2,-1.716865E-2,1.9668967E-2],"split_indices":[3,3,2,3,4,4,5,4,3,4,4,2,3,4,4,0,0,0,0,0,0,0,0,0,0,0,0,0,0,0,0],"split_type":[0,0,0,0,0,0,0,0,0,0,0,0,0,0,0,0,0,0,0,0,0,0,0,0,0,0,0,0,0,0,0],"sum_hessian":[8.6721173E2,1.17880615E2,7.493311E2,1.0067574E2,1.720487E1,5.883477E2,1.609834E2,8.994173E1,1.0734015E1,9.968299E0,7.236572E0,5.391777E2,4.9170002E1,2.0702085E1,1.4028131E2,1.7677866E1,7.226386E1,7.4869742E0,3.2470417E0,5.735877E0,4.232422E0,2.2461123E0,4.9904594E0,7.9641786E0,5.312135E2,4.1712616E1,7.457385E0,1.9978592E0,1.8704227E1,2.6717642E1,1.13563675E2],"tree_param":{"num_deleted":"0","num_feature":"6","num_nodes":"31","size_leaf_vector":"1"}},{"base_weights":[-8.8654546E-5,-4.5293723E-3,9.048109E-1,-2.0696464E-1,1.6649462E-2,8.815155E-2,1.9079488E-2,8.140149E-2,-3.7062687E-1,5.373513E-1,8.043188E-3,1.8422617E-2,-2.521959E-2,-6.6916704E-2,-9.375682E-3,-4.677114E-2,6.403938E-2,1.155266E-2,-1.2050676E-3],"categories":[],"categories_nodes":[],"categories_segments":[],"categories_sizes":[],"default_left":[0,0,0,0,0,0,0,0,0,0,0,0,0,0,0,0,0,0,0],"id":13,"left_children":[1,3,5,7,9,-1,-1,11,13,15,17,-1,-1,-1,-1,-1,-1,-1,-1],"loss_changes":[3.481547E0,3.699778E0,2.9282403E-1,3.8873868E0,3.4974568E0,0E0,0E0,1.8684757E0,6.078522E0,4.2146993E0,2.4275346E0,0E0,0E0,0E0,0E0,0E0,0E0,0E0,0E0],"parents":[2147483647,0,0,1,1,2,2,3,3,4,4,7,7,8,8,9,9,10,10],"right_children":[2,4,6,8,10,-1,-1,12,14,16,18,-1,-1,-1,-1,-1,-1,-1,-1],"split_conditions":[5.2728114E0,2.9911797E1,-1.4828833E1,8.107319E-1,3.1004833E1,8.815155E-2,1.9079488E-2,3.7348766E0,1.0491143E0,-1.9943169E1,1.8237402E0,1.8422617E-2,-2.521959E-2,-6.6916704E-2,-9.375682E-3,-4.677114E-2,6.403938E-2,1.155266E-2,-1.2050676E-3],"split_indices":[4,0,2,3,0,0,0,4,3,2,4,0,0,0,0,0,0,0,0],"split_type":[0,0,0,0,0,0,0,0,0,0,0,0,0,0,0,0,0,0,0],"sum_hessian":[8.643808E2,8.611498E2,3.2310247E0,8.072997E1,7.804198E2,1.9890076E0,1.2420173E0,2.9411226E1,5.131875E1,1.1690283E1,7.687295E2,2.1689499E1,7.721728E0,1.727147E1,3.404728E1,1.9887594E0,9.701523E0,1.106239E2,6.581056E2],"tree_param":{"num_deleted":"0","num_feature":"6","num_nodes":"19","size_leaf_vector":"1"}},{"base_weights":[-3.2329816E-2,-4.2626183E-2,3.9736608E-1,8.454126E-3,-1.22958146E-1,8.444841E-2,1.0193616E0,-1.027779E0,1.9979255E-2,-2.761118E-1,1.1147347E-2,3.7029055E-1,-9.363821E-2,1.0329909E-1,3.3270803E-3,-1.0074269E-1,-8.207916E-3,-9.945807E-4,1.691093E-2,-7.939111E-2,-1.893571E-2,5.1002383E-2,-4.2435196E-3,-1.21563645E-2,5.5822782E-2],"categories":[],"categories_nodes":[],"categories_segments":[],"categories_sizes":[],"default_left":[0,0,0,0,0,0,0,0,0,0,0,0,0,0,0,0,0,0,0,0,0,0,0,0,0],"id":14,"left_children":[1,3,5,7,9,11,13,15,17,19,21,23,-1,-1,-1,-1,-1,-1,-1,-1,-1,-1,-1,-1,-1],"loss_changes":[3.8454812E0,3.4724836E0,3.8741198E0,6.2079463E0,6.758381E0,5.6803246E0,1.7326651E0,1.0954919E0,3.187491E0,4.1012173E0,7.1232977E0,2.2735555E0,0E0,0E0,0E0,0E0,0E0,0E0,0E0,0E0,0E0,0E0,0E0,0E0,0E0],"parents":[2147483647,0,0,1,1,2,2,3,3,4,4,5,5,6,6,7,7,8,8,9,9,10,10,11,11],"right_children":[2,4,6,8,10,12,14,16,18,20,22,24,-1,-1,-1,-1,-1,-1,-1,-1,-1,-1,-1,-1,-1],"split_conditions":[4.543019E0,9.778803E-1,-1.299406E1,-1.743034E1,1.2947092E0,-1.1199853E1,1.8579582E1,7.676543E-1,8.826998E-1,9.888052E-1,1.3473542E0,-2.483418E1,-9.363821E-2,1.0329909E-1,3.3270803E-3,-1.0074269E-1,-8.207916E-3,-9.945807E-4,1.691093E-2,-7.939111E-2,-1.893571E-2,5.1002383E-2,-4.2435196E-3,-1.21563645E-2,5.5822782E-2],"split_indices":[4,3,1,1,3,2,2,3,3,3,3,2,0,0,0,0,0,0,0,0,0,0,0,0,0],"split_type":[0,0,0,0,0,0,0,0,0,0,0,0,0,0,0,0,0,0,0,0,0,0,0,0,0],"sum_hessian":[8.6434296E2,8.44996E2,1.9346985E1,5.170907E2,3.2790527E2,1.3627129E1,5.7198563E0,4.7179613E0,5.1237274E2,1.5258658E2,1.7531871E2,1.1673186E1,1.9539422E0,4.2245874E0,1.4952687E0,3.4848392E0,1.2331221E0,4.3897498E2,7.339774E1,6.6975555E0,1.4588902E2,1.5466276E1,1.5985243E2,4.7054915E0,6.9676948E0],"tree_param":{"num_deleted":"0","num_feature":"6","num_nodes":"25","size_leaf_vector":"1"}},{"base_weights":[1.5500121E-2,-7.369228E-3,1.5292841E-1,1.087335E-3,-6.6173077E-1,-5.4947835E-1,2.1283084E-1,-5.891299E-3,4.3343005E-1,4.9694587E-2,-9.3166786E-1,-7.972418E-1,5.2568674E-2,8.051549E-1,1.5016173E-1,2.588676E-4,-2.6836388E-2,7.419296E-2,8.818445E-3,-4.00445E-2,-1.0110303E-1,6.3003483E-3,-7.909952E-2,1.03816204E-1,-4.673605E-2,-2.4096323E-2,1.9513203E-2],"categories":[],"categories_nodes":[],"categories_segments":[],"categories_sizes":[],"default_left":[0,0,0,0,0,0,0,0,0,0,0,0,0,0,0,0,0,0,0,0,0,0,0,0,0,0,0],"id":15,"left_children":[1,3,5,7,9,11,13,15,17,-1,19,21,-1,23,25,-1,-1,-1,-1,-1,-1,-1,-1,-1,-1,-1,-1],"loss_changes":[2.7206156E0,4.111045E0,5.3130617E0,2.218082E0,3.8611922E0,3.5083854E0,4.1297774E0,2.1777487E0,1.7622073E0,0E0,5.459013E-1,1.5431132E0,0E0,8.098864E0,4.507598E0,0E0,0E0,0E0,0E0,0E0,0E0,0E0,0E0,0E0,0E0,0E0,0E0],"parents":[2147483647,0,0,1,1,2,2,3,3,4,4,5,5,6,6,7,7,8,8,10,10,11,11,13,13,14,14],"right_children":[2,4,6,8,10,12,14,16,18,-1,20,22,-1,24,26,-1,-1,-1,-1,-1,-1,-1,-1,-1,-1,-1,-1],"split_conditions":[6.4912415E1,2.6670265E1,4.5290065E-1,4.942796E0,2.5681005E0,2.7868817E0,4.8761473E0,4.3435335E0,-1.8667479E1,4.9694587E-2,5.85368E1,1.7824574E0,5.2568674E-2,6.9787094E1,8.571868E0,2.588676E-4,-2.6836388E-2,7.419296E-2,8.818445E-3,-4.00445E-2,-1.0110303E-1,6.3003483E-3,-7.909952E-2,1.03816204E-1,-4.673605E-2,-2.4096323E-2,1.9513203E-2],"split_indices":[0,2,2,4,4,4,2,4,2,0,0,4,0,0,2,0,0,0,0,0,0,0,0,0,0,0,0],"split_type":[0,0,0,0,0,0,0,0,0,0,0,0,0,0,0,0,0,0,0,0,0,0,0,0,0,0,0],"sum_hessian":[8.642813E2,7.4178735E2,1.2249396E2,7.333089E2,8.478491E0,8.983375E0,1.1351058E2,7.226309E2,1.0677931E1,1.2476503E0,7.230841E0,7.7344275E0,1.2489474E0,9.727004E0,1.0378358E2,7.041208E2,1.851019E1,3.4837906E0,7.19414E0,4.237487E0,2.9933543E0,1.4931242E0,6.241303E0,7.229872E0,2.4971313E0,1.7468847E1,8.631473E1],"tree_param":{"num_deleted":"0","num_feature":"6","num_nodes":"27","size_leaf_vector":"1"}},{"base_weights":[1.008068E-2,-2.1911941E-2,1.8721294E-1,1.665936E-1,-6.994763E-2,-8.3347225E-1,2.2771649E-1,2.3397814E-1,-8.07795E-2,-5.6055623E-1,-5.5117745E-2,4.968369E-2,-1.15444496E-1,1.09828E-1,4.5578378E-1,-9.278198E-4,2.6061282E-2,-6.518835E-3,-7.098687E-2,4.0049765E-2,-5.177997E-3,2.0502223E-2,-8.082602E-3,2.4295138E-2,6.2881015E-2],"categories":[],"categories_nodes":[],"categories_segments":[],"categories_sizes":[],"default_left":[0,0,0,0,0,0,0,0,0,0,0,0,0,0,0,0,0,0,0,0,0,0,0,0,0],"id":16,"left_children":[1,3,5,7,9,11,13,15,-1,17,19,-1,-1,21,23,-1,-1,-1,-1,-1,-1,-1,-1,-1,-1],"loss_changes":[4.8773656E0,6.6153307E0,5.632905E0,1.1999132E1,4.202744E0,5.542163E0,3.3758922E0,3.1858182E0,0E0,2.583415E0,3.0539474E0,0E0,0E0,2.6605947E0,1.9262028E0,0E0,0E0,0E0,0E0,0E0,0E0,0E0,0E0,0E0,0E0],"parents":[2147483647,0,0,1,1,2,2,3,3,4,4,5,5,6,6,7,7,9,9,10,10,13,13,14,14],"right_children":[2,4,6,8,10,12,14,16,-1,18,20,-1,-1,22,24,-1,-1,-1,-1,-1,-1,-1,-1,-1,-1],"split_conditions":[1.57663965E1,5.868716E-1,3.349416E-1,6.7957954E1,6.1221296E-1,6.371047E0,1.06277075E1,-7.8434486E0,-8.07795E-2,-4.1560326E0,6.229111E-1,4.968369E-2,-1.15444496E-1,6.0227745E1,1.2508029E0,-9.278198E-4,2.6061282E-2,-6.518835E-3,-7.098687E-2,4.0049765E-2,-5.177997E-3,2.0502223E-2,-8.082602E-3,2.4295138E-2,6.2881015E-2],"split_indices":[2,3,3,0,3,1,1,2,0,2,3,0,0,0,3,0,0,0,0,0,0,0,0,0,0],"split_type":[0,0,0,0,0,0,0,0,0,0,0,0,0,0,0,0,0,0,0,0,0,0,0,0,0],"sum_hessian":[8.589483E2,7.2828577E2,1.3066254E2,1.4739568E2,5.808901E2,4.239894E0,1.2642264E2,1.401675E2,7.2281675E0,1.5963979E1,5.6492615E2,1.2465996E0,2.9932942E0,8.431934E1,4.21033E1,3.8373615E1,1.01793884E2,6.9801645E0,8.983814E0,8.731549E0,5.561946E2,4.9632496E1,3.4686844E1,3.0140863E1,1.1962437E1],"tree_param":{"num_deleted":"0","num_feature":"6","num_nodes":"25","size_leaf_vector":"1"}},{"base_weights":[1.111961E-2,1.2560526E-1,-3.1135796E-2,1.6558988E-1,-2.6799577E-1,-7.023857E-2,1.6829024E-1,1.9240247E-1,-6.714733E-1,-9.532088E-1,1.22886464E-1,-2.5479238E-2,-4.195295E-1,2.880698E-1,-3.6866346E-1,-7.491638E-2,1.6653009E-2,-8.3741665E-2,-1.892587E-3,-8.9769006E-2,-4.0297285E-2,-7.366113E-2,3.0609557E-2,-4.2759404E-3,2.716632E-2,-6.1379213E-2,-2.0256085E-2,6.0381214E-3,5.73397E-2,-7.4773215E-2,9.4479155E-3],"categories":[],"categories_nodes":[],"categories_segments":[],"categories_sizes":[],"default_left":[0,0,0,0,0,0,0,0,0,0,0,0,0,0,0,0,0,0,0,0,0,0,0,0,0,0,0,0,0,0,0],"id":17,"left_children":[1,3,5,7,9,11,13,15,17,19,21,23,25,27,29,-1,-1,-1,-1,-1,-1,-1,-1,-1,-1,-1,-1,-1,-1,-1,-1],"loss_changes":[4.1372805E0,3.6726005E0,4.8847027E0,4.840092E0,5.9136486E0,8.168203E0,6.7135835E0,3.827135E0,1.6132615E0,4.0276527E-2,4.3279486E0,4.763958E0,3.2386818E0,7.6519156E0,5.393475E0,0E0,0E0,0E0,0E0,0E0,0E0,0E0,0E0,0E0,0E0,0E0,0E0,0E0,0E0,0E0,0E0],"parents":[2147483647,0,0,1,1,2,2,3,3,4,4,5,5,6,6,7,7,8,8,9,9,10,10,11,11,12,12,13,13,14,14],"right_children":[2,4,6,8,10,12,14,16,18,20,22,24,26,28,30,-1,-1,-1,-1,-1,-1,-1,-1,-1,-1,-1,-1,-1,-1,-1,-1],"split_conditions":[6.4058506E-1,6.82463E1,7.395204E0,2.3876934E1,7.054009E1,5.993786E1,7.5003265E1,2.0795647E1,2.897939E1,4.8064396E-1,3.5477933E-1,4.3328586E0,6.1663624E1,1.2316009E0,1.7201817E1,-7.491638E-2,1.6653009E-2,-8.3741665E-2,-1.892587E-3,-8.9769006E-2,-4.0297285E-2,-7.366113E-2,3.0609557E-2,-4.2759404E-3,2.716632E-2,-6.1379213E-2,-2.0256085E-2,6.0381214E-3,5.73397E-2,-7.4773215E-2,9.4479155E-3],"split_indices":[3,0,1,2,0,0,0,0,2,3,3,1,0,3,2,0,0,0,0,0,0,0,0,0,0,0,0,0,0,0,0],"split_type":[0,0,0,0,0,0,0,0,0,0,0,0,0,0,0,0,0,0,0,0,0,0,0,0,0,0,0,0,0,0,0],"sum_hessian":[8.53419E2,2.295392E2,6.238798E2,2.0889731E2,2.0641891E1,5.2214685E2,1.0173297E2,2.031599E2,5.7374167E0,6.9754252E0,1.3666466E1,4.6378836E2,5.835848E1,8.3557175E1,1.8175795E1,1.9929239E0,2.0116696E2,3.2428813E0,2.4945354E0,3.9825299E0,2.9928954E0,2.2162323E0,1.1450233E1,4.315755E2,3.221285E1,1.7714146E1,4.0644333E1,5.6642536E1,2.6914637E1,7.9784155E0,1.0197378E1],"tree_param":{"num_deleted":"0","num_feature":"6","num_nodes":"31","size_leaf_vector":"1"}},{"base_weights":[8.330883E-3,1.899406E-2,-2.538126E-1,3.16404E-3,6.004958E-1,-5.1032E-1,9.2322105E-1,8.746977E-3,-1.0644277E0,-1.8503511E-1,7.2057676E-1,-8.4000736E-1,-2.671233E-1,8.624698E-2,1.228307E-2,1.1854346E-3,-4.544015E-2,-1.7695336E-2,-1.07286364E-1,3.2532934E-2,-6.100571E-2,8.53425E-3,6.698875E-2,-1.735846E-2,-8.836595E-2,1.6157659E-2,-4.276571E-2],"categories":[],"categories_nodes":[],"categories_segments":[],"categories_sizes":[],"default_left":[0,0,0,0,0,0,0,0,0,0,0,0,0,0,0,0,0,0,0,0,0,0,0,0,0,0,0],"id":18,"left_children":[1,3,5,7,9,11,13,15,17,19,21,23,25,-1,-1,-1,-1,-1,-1,-1,-1,-1,-1,-1,-1,-1,-1],"loss_changes":[2.4322767E0,7.6880975E0,1.0740323E1,4.8625712E0,2.2211518E0,2.0664139E0,6.023512E-1,2.848138E0,6.934562E-1,1.5849326E0,1.3017435E0,1.6826916E0,2.3547487E0,0E0,0E0,0E0,0E0,0E0,0E0,0E0,0E0,0E0,0E0,0E0,0E0,0E0,0E0],"parents":[2147483647,0,0,1,1,2,2,3,3,4,4,5,5,6,6,7,7,8,8,9,9,10,10,11,11,12,12],"right_children":[2,4,6,8,10,12,14,16,18,20,22,24,26,-1,-1,-1,-1,-1,-1,-1,-1,-1,-1,-1,-1,-1,-1],"split_conditions":[7.326489E1,7.054009E1,3.0529573E1,3.350808E1,5.798103E-1,1.3814296E1,8.368438E1,6.9787094E1,6.5581965E-1,1.7753176E1,8.34899E0,7.5003265E1,1.923969E1,8.624698E-2,1.228307E-2,1.1854346E-3,-4.544015E-2,-1.7695336E-2,-1.07286364E-1,3.2532934E-2,-6.100571E-2,8.53425E-3,6.698875E-2,-1.735846E-2,-8.836595E-2,1.6157659E-2,-4.276571E-2],"split_indices":[0,0,2,2,3,2,0,0,3,2,2,0,2,0,0,0,0,0,0,0,0,0,0,0,0,0,0],"split_type":[0,0,0,0,0,0,0,0,0,0,0,0,0,0,0,0,0,0,0,0,0,0,0,0,0,0,0],"sum_hessian":[8.6741174E2,8.343986E2,3.3013176E1,8.1326483E2,2.1133783E1,2.757112E1,5.4420557E0,8.100206E2,3.2441702E0,2.7305405E0,1.8403242E1,1.0662533E1,1.6908587E1,4.1969132E0,1.2451426E0,8.025472E2,7.4734406E0,1.2459722E0,1.998198E0,1.494878E0,1.2356625E0,3.2471614E0,1.5156081E1,3.7207377E0,6.9417953E0,6.228627E0,1.0679959E1],"tree_param":{"num_deleted":"0","num_feature":"6","num_nodes":"27","size_leaf_vector":"1"}},{"base_weights":[1.0511489E-2,6.7127824E-1,4.462345E-3,-2.64571E-2,8.584698E-2,-1.04076765E-1,2.4897236E-2,-4.785828E-3,-3.8840443E-1,4.935119E-1,1.3056339E-2,-7.004876E-3,5.1027693E-2,-2.1796908E-2,-9.3546785E-2,1.9465804E-2,9.394749E-2,2.7553705E-3,-1.1130827E-2],"categories":[],"categories_nodes":[],"categories_segments":[],"categories_sizes":[],"default_left":[0,0,0,0,0,0,0,0,0,0,0,0,0,0,0,0,0,0,0],"id":19,"left_children":[1,3,5,-1,-1,7,9,11,13,15,17,-1,-1,-1,-1,-1,-1,-1,-1],"loss_changes":[3.4344368E0,3.4931626E0,1.8949596E0,0E0,0E0,3.819921E0,3.982147E0,5.4469705E0,2.8527894E0,2.7272081E0,2.2900417E0,0E0,0E0,0E0,0E0,0E0,0E0,0E0,0E0],"parents":[2147483647,0,0,1,1,2,2,5,5,6,6,7,7,8,8,9,9,10,10],"right_children":[2,4,6,-1,-1,8,10,12,14,16,18,-1,-1,-1,-1,-1,-1,-1,-1],"split_conditions":[1.4131123E-1,3.3122166E1,-8.06972E0,-2.64571E-2,8.584698E-2,-9.910932E0,-7.4236403E0,1.9496361E0,1.6123534E0,1.3473542E0,1.4955434E0,-7.004876E-3,5.1027693E-2,-2.1796908E-2,-9.3546785E-2,1.9465804E-2,9.394749E-2,2.7553705E-3,-1.1130827E-2],"split_indices":[3,0,1,0,0,1,1,3,3,3,3,0,0,0,0,0,0,0,0],"split_type":[0,0,0,0,0,0,0,0,0,0,0,0,0,0,0,0,0,0,0],"sum_hessian":[8.589874E2,6.7948427E0,8.5219257E2,1.9955285E0,4.799314E0,1.3437453E2,7.1781805E2,1.0034839E2,3.402614E1,1.6688202E1,7.011298E2,8.966297E1,1.0685419E1,3.0801935E1,3.2242038E0,1.3196278E1,3.4919245E0,6.154248E2,8.570506E1],"tree_param":{"num_deleted":"0","num_feature":"6","num_nodes":"19","size_leaf_vector":"1"}},{"base_weights":[5.796764E-3,1.3965377E-1,-2.4373192E-2,2.2548288E-2,3.5794193E-1,1.2976912E-1,-5.2527975E-2,-1.4028972E-2,1.0181771E-1,-3.3754766E-1,4.446049E-1,4.7429282E-2,6.362689E-1,-5.234676E-1,-3.5281334E-2,7.7690664E-3,-3.0743506E-2,4.9864044E-3,-9.2907414E-2,5.719099E-2,1.7968155E-2,-6.96158E-3,4.4710238E-2,9.305649E-2,8.891371E-3,-9.1197625E-2,-1.648286E-2,3.2934908E-2,-4.4082035E-3],"categories":[],"categories_nodes":[],"categories_segments":[],"categories_sizes":[],"default_left":[0,0,0,0,0,0,0,0,0,0,0,0,0,0,0,0,0,0,0,0,0,0,0,0,0,0,0,0,0],"id":20,"left_children":[1,3,5,7,9,11,13,15,-1,17,19,21,23,25,27,-1,-1,-1,-1,-1,-1,-1,-1,-1,-1,-1,-1,-1,-1],"loss_changes":[3.4886577E0,4.0534797E0,3.0669703E0,4.7953506E0,3.4897523E0,4.52367E0,4.829941E0,4.255237E0,0E0,2.282048E0,2.794815E0,6.5814304E0,4.0734167E0,3.8779774E0,5.133893E0,0E0,0E0,0E0,0E0,0E0,0E0,0E0,0E0,0E0,0E0,0E0,0E0,0E0,0E0],"parents":[2147483647,0,0,1,1,2,2,3,3,4,4,5,5,6,6,7,7,9,9,10,10,11,11,12,12,13,13,14,14],"right_children":[2,4,6,8,10,12,14,16,-1,18,20,22,24,26,28,-1,-1,-1,-1,-1,-1,-1,-1,-1,-1,-1,-1,-1,-1],"split_conditions":[5.6273985E-1,5.0062174E-1,-1.2414042E1,4.543019E0,1.7523963E0,-1.3108109E1,2.8355764E1,3.2004554E0,1.0181771E-1,6.2952595E1,2.5282629E0,1.3980925E0,-1.2831645E1,-1.0782059E1,3.2650246E1,7.7690664E-3,-3.0743506E-2,4.9864044E-3,-9.2907414E-2,5.719099E-2,1.7968155E-2,-6.96158E-3,4.4710238E-2,9.305649E-2,8.891371E-3,-9.1197625E-2,-1.648286E-2,3.2934908E-2,-4.4082035E-3],"split_indices":[3,3,2,4,4,2,0,4,0,0,4,3,2,2,0,0,0,0,0,0,0,0,0,0,0,0,0,0,0],"split_type":[0,0,0,0,0,0,0,0,0,0,0,0,0,0,0,0,0,0,0,0,0,0,0,0,0,0,0,0,0],"sum_hessian":[8.620156E2,1.5788557E2,7.0413007E2,1.03476585E2,5.440899E1,1.081916E2,5.959385E2,1.0149583E2,1.9807618E0,5.7077875E0,4.8701202E1,9.400344E1,1.4188157E1,2.0016367E1,5.759221E2,7.863092E1,2.2864904E1,4.4648476E0,1.24294E0,2.084403E1,2.785717E1,7.509296E1,1.8910488E1,6.4753675E0,7.7127895E0,5.92257E0,1.4093798E1,2.3615833E1,5.523063E2],"tree_param":{"num_deleted":"0","num_feature":"6","num_nodes":"29","size_leaf_vector":"1"}},{"base_weights":[6.241188E-3,-4.5219857E-2,5.3907156E-2,-1.1405763E-2,-5.4035735E-1,9.318562E-2,-1.327945E-1,-5.3026438E-2,1.314206E-1,-6.3854605E-1,3.544682E-2,2.7515438E-1,2.0331703E-2,-8.023646E-3,-8.205361E-1,-2.1518506E-3,-5.9397526E-2,1.54393595E-2,-3.900823E-2,-3.1625837E-2,-1.0276474E-1,7.7412136E-2,1.5048721E-2,-2.5310984E-3,3.3872414E-2,-5.971401E-2,1.0988982E-2,-7.919834E-2,8.755941E-3],"categories":[],"categories_nodes":[],"categories_segments":[],"categories_sizes":[],"default_left":[0,0,0,0,0,0,0,0,0,0,0,0,0,0,0,0,0,0,0,0,0,0,0,0,0,0,0,0,0],"id":21,"left_children":[1,3,5,7,9,11,13,15,17,19,-1,21,23,25,27,-1,-1,-1,-1,-1,-1,-1,-1,-1,-1,-1,-1,-1,-1],"loss_changes":[2.1051157E0,6.904158E0,3.2791548E0,2.30973E0,2.8286595E0,4.8813553E0,6.6729593E0,5.3963923E0,3.4366767E0,3.3228712E0,0E0,6.1659884E0,5.5502763E0,7.2841873E0,1.9904089E0,0E0,0E0,0E0,0E0,0E0,0E0,0E0,0E0,0E0,0E0,0E0,0E0,0E0,0E0],"parents":[2147483647,0,0,1,1,2,2,3,3,4,4,5,5,6,6,7,7,8,8,9,9,11,11,12,12,13,13,14,14],"right_children":[2,4,6,8,10,12,14,16,18,20,-1,22,24,26,28,-1,-1,-1,-1,-1,-1,-1,-1,-1,-1,-1,-1,-1,-1],"split_conditions":[4.5290065E-1,-8.980192E-1,3.1870697E0,-4.3560305E0,2.0067654E0,5.285478E1,2.3876934E1,-4.8920817E0,6.2033104E1,1.0665635E0,3.544682E-2,4.415828E-1,2.2617E1,4.0782867E1,7.1406136E1,-2.1518506E-3,-5.9397526E-2,1.54393595E-2,-3.900823E-2,-3.1625837E-2,-1.0276474E-1,7.7412136E-2,1.5048721E-2,-2.5310984E-3,3.3872414E-2,-5.971401E-2,1.0988982E-2,-7.919834E-2,8.755941E-3],"split_indices":[2,2,4,2,3,0,2,2,0,3,0,3,2,0,0,0,0,0,0,0,0,0,0,0,0,0,0,0,0],"split_type":[0,0,0,0,0,0,0,0,0,0,0,0,0,0,0,0,0,0,0,0,0,0,0,0,0,0,0,0,0],"sum_hessian":[8.5620703E2,4.1173825E2,4.4446878E2,3.8637485E2,2.5363405E1,3.676278E2,7.684098E1,2.996758E2,8.6699036E1,2.3379824E1,1.9835814E0,1.04311066E2,2.6331674E2,6.589746E1,1.0943524E1,2.8973453E2,9.941263E0,7.9481606E1,7.217435E0,1.8156042E1,5.2237816E0,1.0517946E1,9.379312E1,2.3405966E2,2.9257067E1,1.0160275E1,5.5737183E1,9.202348E0,1.7411767E0],"tree_param":{"num_deleted":"0","num_feature":"6","num_nodes":"29","size_leaf_vector":"1"}},{"base_weights":[1.17279235E-2,6.367451E-1,5.8876607E-3,-1.08153E-3,7.9072535E-1,1.7495003E-2,-2.7305508E-1,8.3077356E-2,5.286169E-3,5.3009246E-3,4.706612E-1,-5.2597517E-1,1.07897036E-1,9.2203036E-4,-3.294468E-2,1.6924174E-3,5.6894396E-2,-5.0559305E-2,2.4423448E-2,3.905145E-2,-3.7482988E-2],"categories":[],"categories_nodes":[],"categories_segments":[],"categories_sizes":[],"default_left":[0,0,0,0,0,0,0,0,0,0,0,0,0,0,0,0,0,0,0,0,0],"id":22,"left_children":[1,3,5,-1,7,9,11,-1,-1,13,15,17,19,-1,-1,-1,-1,-1,-1,-1,-1],"loss_changes":[3.1125824E0,8.011174E-1,2.7466404E0,0E0,1.0802684E0,4.4953055E0,3.322146E0,0E0,0E0,2.0652199E0,2.2896094E0,2.002942E0,3.374591E0,0E0,0E0,0E0,0E0,0E0,0E0,0E0,0E0],"parents":[2147483647,0,0,1,1,2,2,4,4,5,5,6,6,9,9,10,10,11,11,12,12],"right_children":[2,4,6,-1,8,10,12,-1,-1,14,16,18,20,-1,-1,-1,-1,-1,-1,-1,-1],"split_conditions":[1.4131123E-1,3.124077E1,7.326489E1,-1.08153E-3,2.7498755E0,7.054009E1,7.72195E1,8.3077356E-2,5.286169E-3,6.942665E1,2.1772509E0,3.4048605E0,9.6188575E-1,9.2203036E-4,-3.294468E-2,1.6924174E-3,5.6894396E-2,-5.0559305E-2,2.4423448E-2,3.905145E-2,-3.7482988E-2],"split_indices":[3,0,0,0,4,0,0,0,0,0,4,4,3,0,0,0,0,0,0,0,0],"split_type":[0,0,0,0,0,0,0,0,0,0,0,0,0,0,0,0,0,0,0,0,0],"sum_hessian":[8.527275E2,6.894185E0,8.458333E2,1.4946067E0,5.399578E0,8.129425E2,3.2890812E1,3.701166E0,1.6984123E0,7.9262573E2,2.0316769E1,1.9538326E1,1.3352488E1,7.819295E2,1.0696235E1,7.4609475E0,1.2855821E1,1.7540958E1,1.9973676E0,8.137643E0,5.2148447E0],"tree_param":{"num_deleted":"0","num_feature":"6","num_nodes":"21","size_leaf_vector":"1"}},{"base_weights":[-3.6859103E-2,-4.4522148E-1,-2.553327E-2,-9.5793474E-1,-2.357947E-1,-3.4374785E-2,4.5893592E-1,-1.5077454E-1,-1.1363002E-1,2.220341E-1,-5.2972645E-1,-2.360038E-2,-4.809508E-1,9.511479E-1,1.1731531E-1,-4.289081E-2,2.3992768E-2,5.3197354E-2,-1.2418327E-2,5.675733E-3,-5.6749593E-2,1.3550114E-2,-3.8265926E-3,-5.9320517E-2,3.9179426E-2,8.79347E-2,2.3534043E-2,4.6630993E-2,-5.3864375E-2],"categories":[],"categories_nodes":[],"categories_segments":[],"categories_sizes":[],"default_left":[0,0,0,0,0,0,0,0,0,0,0,0,0,0,0,0,0,0,0,0,0,0,0,0,0,0,0,0,0],"id":23,"left_children":[1,3,5,7,9,11,13,15,-1,17,19,21,23,25,27,-1,-1,-1,-1,-1,-1,-1,-1,-1,-1,-1,-1,-1,-1],"loss_changes":[4.0037565E0,2.2831426E0,3.6385386E0,2.1934004E0,2.5286717E0,3.9896395E0,2.4490132E0,7.6312053E-1,0E0,1.3915654E0,1.2596157E0,3.8098397E0,5.304663E0,2.6973343E-1,4.121159E0,0E0,0E0,0E0,0E0,0E0,0E0,0E0,0E0,0E0,0E0,0E0,0E0,0E0,0E0],"parents":[2147483647,0,0,1,1,2,2,3,3,4,4,5,5,6,6,7,7,9,9,10,10,11,11,12,12,13,13,14,14],"right_children":[2,4,6,8,10,12,14,16,-1,18,20,22,24,26,28,-1,-1,-1,-1,-1,-1,-1,-1,-1,-1,-1,-1,-1,-1],"split_conditions":[1.5288645E0,4.6795242E1,3.0529573E1,3.1004833E1,1.4332917E0,7.5003265E1,2.2478414E0,2.5476454E1,-1.1363002E-1,5.7321686E1,5.172441E1,1.8237402E0,3.1131728E0,8.368438E1,3.951097E1,-4.289081E-2,2.3992768E-2,5.3197354E-2,-1.2418327E-2,5.675733E-3,-5.6749593E-2,1.3550114E-2,-3.8265926E-3,-5.9320517E-2,3.9179426E-2,8.79347E-2,2.3534043E-2,4.6630993E-2,-5.3864375E-2],"split_indices":[4,0,2,0,4,0,4,0,0,0,0,4,4,0,2,0,0,0,0,0,0,0,0,0,0,0,0,0,0],"split_type":[0,0,0,0,0,0,0,0,0,0,0,0,0,0,0,0,0,0,0,0,0,0,0,0,0,0,0,0,0],"sum_hessian":[8.6712665E2,2.236669E1,8.4475995E2,5.4500175E0,1.6916672E1,8.3053186E2,1.4228075E1,2.4681175E0,2.9819E0,6.709909E0,1.0206763E1,8.1199396E2,1.8537882E1,5.098237E0,9.129838E0,1.228272E0,1.2398455E0,2.735563E0,3.974346E0,2.4890866E0,7.7176766E0,8.9918594E1,7.220754E2,1.4801057E1,3.7368248E0,3.6113784E0,1.4868586E0,5.9114885E0,3.2183497E0],"tree_param":{"num_deleted":"0","num_feature":"6","num_nodes":"29","size_leaf_vector":"1"}},{"base_weights":[-9.304717E-3,-5.375887E-2,2.9468395E-2,6.3785017E-3,-3.1995893E-1,1.861948E-1,-2.9238986E-2,-6.3266225E-2,2.3404595E-1,9.053493E-2,-4.8265588E-1,9.237233E-1,1.5298483E-1,-2.6262555E-1,4.1423578E-2,-3.2677834E-3,-6.1432105E-2,8.974223E-3,6.3175015E-2,4.155999E-2,-8.262576E-3,-3.002735E-2,-8.419964E-2,1.1534343E-2,9.047038E-2,-3.3336136E-2,1.542008E-2,-1.2448291E-2,-5.8690347E-2,-6.1071806E-2,4.4987686E-3],"categories":[],"categories_nodes":[],"categories_segments":[],"categories_sizes":[],"default_left":[0,0,0,0,0,0,0,0,0,0,0,0,0,0,0,0,0,0,0,0,0,0,0,0,0,0,0,0,0,0,0],"id":24,"left_children":[1,3,5,7,9,11,13,15,17,19,21,23,25,27,29,-1,-1,-1,-1,-1,-1,-1,-1,-1,-1,-1,-1,-1,-1,-1,-1],"loss_changes":[1.4852265E0,6.427247E0,4.241655E0,5.22152E0,4.984676E0,2.9350538E0,5.548911E0,3.9533663E0,5.1345925E0,1.8695705E0,2.854599E0,6.788573E-1,2.8302512E0,3.8266988E0,3.1258326E0,0E0,0E0,0E0,0E0,0E0,0E0,0E0,0E0,0E0,0E0,0E0,0E0,0E0,0E0,0E0,0E0],"parents":[2147483647,0,0,1,1,2,2,3,3,4,4,5,5,6,6,7,7,8,8,9,9,10,10,11,11,12,12,13,13,14,14],"right_children":[2,4,6,8,10,12,14,16,18,20,22,24,26,28,30,-1,-1,-1,-1,-1,-1,-1,-1,-1,-1,-1,-1,-1,-1,-1,-1],"split_conditions":[-2.8303033E-1,-1.8901739E0,2.6883113E0,4.2840458E1,-7.7450595E0,-1.2586146E1,4.3328586E0,4.22728E1,5.0174956E0,4.5747616E1,5.2329163E1,-1.3716449E1,-1.0399044E1,4.056041E0,-1.4828833E1,-3.2677834E-3,-6.1432105E-2,8.974223E-3,6.3175015E-2,4.155999E-2,-8.262576E-3,-3.002735E-2,-8.419964E-2,1.1534343E-2,9.047038E-2,-3.3336136E-2,1.542008E-2,-1.2448291E-2,-5.8690347E-2,-6.1071806E-2,4.4987686E-3],"split_indices":[1,1,1,0,2,2,1,0,2,0,0,2,2,1,2,0,0,0,0,0,0,0,0,0,0,0,0,0,0,0,0],"split_type":[0,0,0,0,0,0,0,0,0,0,0,0,0,0,0,0,0,0,0,0,0,0,0,0,0,0,0,0,0,0,0],"sum_hessian":[8.597682E2,4.003604E2,4.5940778E2,3.2737827E2,7.298213E1,1.2460041E2,3.3480737E2,2.5124359E2,7.613468E1,2.084146E1,5.214067E1,4.2134447E0,1.2038697E2,7.717958E1,2.5762778E2,2.4452176E2,6.7218256E0,6.3425533E1,1.2709148E1,5.9631596E0,1.4878299E1,4.5273335E1,6.8673387E0,1.2406788E0,2.9727662E0,7.236647E0,1.1315032E2,6.3973774E1,1.3205811E1,3.742101E0,2.5388568E2],"tree_param":{"num_deleted":"0","num_feature":"6","num_nodes":"31","size_leaf_vector":"1"}},{"base_weights":[-4.214924E-3,-2.473537E-1,2.1310322E-2,-2.031452E-2,-3.986223E-1,2.191377E-1,-6.527794E-4,-2.672459E-1,7.8862005E-1,-2.8090733E-1,-9.797151E-1,2.5582644E-1,-7.099313E-2,-9.148932E-1,4.502081E-3,4.29656E-2,-3.3663854E-2,1.0230396E-1,-2.901669E-2,1.8259538E-2,-3.5706997E-2,-9.99973E-2,9.332566E-3,1.6355883E-2,1.08687215E-1,-1.7885858E-2,-9.194368E-2,-1.027833E-4,4.540629E-2],"categories":[],"categories_nodes":[],"categories_segments":[],"categories_sizes":[],"default_left":[0,0,0,0,0,0,0,0,0,0,0,0,0,0,0,0,0,0,0,0,0,0,0,0,0,0,0,0,0],"id":25,"left_children":[1,3,5,7,9,11,13,15,17,19,21,23,-1,25,27,-1,-1,-1,-1,-1,-1,-1,-1,-1,-1,-1,-1,-1,-1],"loss_changes":[5.387659E0,2.8244596E0,3.41431E0,7.0087595E0,3.1069226E0,3.4149666E0,3.3420036E0,3.5384164E0,5.098404E0,3.6830435E0,2.4945292E0,4.072462E0,0E0,3.8734484E-1,2.2988698E0,0E0,0E0,0E0,0E0,0E0,0E0,0E0,0E0,0E0,0E0,0E0,0E0,0E0,0E0],"parents":[2147483647,0,0,1,1,2,2,3,3,4,4,5,5,6,6,7,7,8,8,9,9,10,10,11,11,13,13,14,14],"right_children":[2,4,6,8,10,12,14,16,18,20,22,24,-1,26,28,-1,-1,-1,-1,-1,-1,-1,-1,-1,-1,-1,-1,-1,-1],"split_conditions":[2.9617693E1,2.3731216E1,-1.2010285E1,1.6461854E0,1.6290616E0,7.2625213E0,-1.1879874E1,5.5888504E-1,-1.2831645E1,-1.8919584E1,-7.8434486E0,5.559701E1,-7.099313E-2,6.6513556E-1,2.0597374E1,4.29656E-2,-3.3663854E-2,1.0230396E-1,-2.901669E-2,1.8259538E-2,-3.5706997E-2,-9.99973E-2,9.332566E-3,1.6355883E-2,1.08687215E-1,-1.7885858E-2,-9.194368E-2,-1.027833E-4,4.540629E-2],"split_indices":[0,0,2,3,3,1,2,3,2,2,2,0,0,3,1,0,0,0,0,0,0,0,0,0,0,0,0,0,0],"split_type":[0,0,0,0,0,0,0,0,0,0,0,0,0,0,0,0,0,0,0,0,0,0,0,0,0,0,0,0,0],"sum_hessian":[8.66263E2,8.147629E1,7.8478674E2,3.3032333E1,4.844396E1,7.7524635E1,7.072621E2,2.5820213E1,7.2121186E0,4.1517048E1,6.926912E0,7.578085E1,1.743776E0,2.9759767E0,7.0428613E2,3.7387564E0,2.2081457E1,4.9808145E0,2.231304E0,1.0088263E1,3.1428785E1,5.4447184E0,1.4821934E0,7.3540016E1,2.240841E0,1.2482717E0,1.727705E0,6.981092E2,6.176917E0],"tree_param":{"num_deleted":"0","num_feature":"6","num_nodes":"29","size_leaf_vector":"1"}},{"base_weights":[-8.649256E-3,-5.6397202E-3,-5.4947484E-1,-1.0363382E-2,3.5613388E-1,-5.788018E-2,-1.9608136E-2,-4.6641016E-3,-6.4780617E-1,-4.0690553E-1,7.2648484E-1,-9.009178E-4,3.0875124E-2,-7.687243E-2,-1.4648148E-2,2.4858784E-2,-7.267714E-2,7.498875E-2,-1.2434439E-3],"categories":[],"categories_nodes":[],"categories_segments":[],"categories_sizes":[],"default_left":[0,0,0,0,0,0,0,0,0,0,0,0,0,0,0,0,0,0,0],"id":26,"left_children":[1,3,5,7,9,-1,-1,11,13,15,17,-1,-1,-1,-1,-1,-1,-1,-1],"loss_changes":[1.3880816E0,1.4579719E0,7.266259E-2,3.052337E0,3.4031696E0,0E0,0E0,2.1549795E0,9.0735936E-1,1.8063729E0,1.2291789E0,0E0,0E0,0E0,0E0,0E0,0E0,0E0,0E0],"parents":[2147483647,0,0,1,1,2,2,3,3,4,4,7,7,8,8,9,9,10,10],"right_children":[2,4,6,8,10,-1,-1,12,14,16,18,-1,-1,-1,-1,-1,-1,-1,-1],"split_conditions":[4.4932068E1,3.0529573E1,7.100455E1,2.7774662E1,6.2952595E1,-5.788018E-2,-1.9608136E-2,1.6761883E1,6.1345284E1,3.350808E1,1.4455095E1,-9.009178E-4,3.0875124E-2,-7.687243E-2,-1.4648148E-2,2.4858784E-2,-7.267714E-2,7.498875E-2,-1.2434439E-3],"split_indices":[2,2,0,2,0,0,0,1,0,2,1,0,0,0,0,0,0,0,0],"split_type":[0,0,0,0,0,0,0,0,0,0,0,0,0,0,0,0,0,0,0],"sum_hessian":[8.537257E2,8.500061E2,3.7196069E0,8.400095E2,9.996613E0,1.4904227E0,2.2291842E0,8.33564E2,6.4454546E0,3.234279E0,6.762334E0,8.206738E2,1.2890188E1,3.2129312E0,3.2325237E0,1.4870458E0,1.7472332E0,5.060863E0,1.7014705E0],"tree_param":{"num_deleted":"0","num_feature":"6","num_nodes":"19","size_leaf_vector":"1"}},{"base_weights":[-8.723526E-4,-5.2778283E-3,8.5719264E-1,1.5573505E-1,-2.9750142E-2,1.06389076E-1,-1.6385797E-2,4.5020126E-2,8.820116E-1,1.4943495E-1,-5.64048E-2,1.1755492E-2,-4.4307917E-2,-2.7961932E-2,8.1196666E-2,1.4937552E-2,-8.028003E-2,-1.9273037E-2,2.1805764E-4],"categories":[],"categories_nodes":[],"categories_segments":[],"categories_sizes":[],"default_left":[0,0,0,0,0,0,0,0,0,0,0,0,0,0,0,0,0,0,0],"id":27,"left_children":[1,3,5,7,9,-1,-1,11,13,15,17,-1,-1,-1,-1,-1,-1,-1,-1],"loss_changes":[3.3113403E0,3.4378748E0,2.518488E0,9.216822E0,3.6248322E0,0E0,0E0,6.2428627E0,2.8391056E0,4.413965E0,7.199785E0,0E0,0E0,0E0,0E0,0E0,0E0,0E0,0E0],"parents":[2147483647,0,0,1,1,2,2,3,3,4,4,7,7,8,8,9,9,10,10],"right_children":[2,4,6,8,10,-1,-1,12,14,16,18,-1,-1,-1,-1,-1,-1,-1,-1],"split_conditions":[5.2728114E0,1.8237402E0,-1.7843655E1,1.7911757E0,-1.2831645E1,1.06389076E-1,-1.6385797E-2,7.142162E0,5.439784E-1,7.2625213E0,-4.3560305E0,1.1755492E-2,-4.4307917E-2,-2.7961932E-2,8.1196666E-2,1.4937552E-2,-8.028003E-2,-1.9273037E-2,2.1805764E-4],"split_indices":[4,4,1,4,2,0,0,2,3,1,2,0,0,0,0,0,0,0,0],"split_type":[0,0,0,0,0,0,0,0,0,0,0,0,0,0,0,0,0,0,0],"sum_hessian":[8.737764E2,8.70302E2,3.474454E0,1.1411714E2,7.561848E2,2.2298207E0,1.2446332E0,9.994355E1,1.4173591E1,9.732361E1,6.5886127E2,8.6052605E1,1.3890946E1,1.2222626E0,1.2951327E1,9.508667E1,2.2369318E0,1.5915791E2,4.997033E2],"tree_param":{"num_deleted":"0","num_feature":"6","num_nodes":"19","size_leaf_vector":"1"}},{"base_weights":[-1.8363198E-3,-1.8539656E-2,1.1827281E-1,-2.5430305E-3,-4.5654982E-1,7.337466E-1,2.4020629E-2,-7.859826E-3,1.03462525E-1,-1.2147549E0,-2.589567E-1,7.3622435E-2,1.18582964E-1,-8.769303E-1,6.927614E-2,-9.560907E-5,-5.070184E-2,-1.6191266E-2,-1.183931E-1,7.8719575E-3,-5.731449E-2,7.212981E-2,-3.833312E-2,-1.4664295E-2,-8.688177E-2,1.540482E-2,-8.624318E-3],"categories":[],"categories_nodes":[],"categories_segments":[],"categories_sizes":[],"default_left":[0,0,0,0,0,0,0,0,0,0,0,0,0,0,0,0,0,0,0,0,0,0,0,0,0,0,0],"id":28,"left_children":[1,3,5,7,9,11,13,15,-1,17,19,21,-1,23,25,-1,-1,-1,-1,-1,-1,-1,-1,-1,-1,-1,-1],"loss_changes":[1.7295707E0,5.3011775E0,6.088225E0,5.04715E0,3.679247E0,6.7811046E0,3.8245633E0,3.0407171E0,0E0,1.1071267E0,3.7354202E0,4.3051286E0,0E0,4.518764E-1,1.9598703E0,0E0,0E0,0E0,0E0,0E0,0E0,0E0,0E0,0E0,0E0,0E0,0E0],"parents":[2147483647,0,0,1,1,2,2,3,3,4,4,5,5,6,6,7,7,9,9,10,10,11,11,13,13,14,14],"right_children":[2,4,6,8,10,12,14,16,-1,18,20,22,-1,24,26,-1,-1,-1,-1,-1,-1,-1,-1,-1,-1,-1,-1],"split_conditions":[6.6426216E1,8.862639E0,6.737809E1,8.738732E0,4.366557E0,9.663374E0,6.760108E1,2.6670265E1,1.03462525E-1,-5.997262E0,2.0885487E1,6.665187E1,1.18582964E-1,5.5664034E0,7.326489E1,-9.560907E-5,-5.070184E-2,-1.6191266E-2,-1.183931E-1,7.8719575E-3,-5.731449E-2,7.212981E-2,-3.833312E-2,-1.4664295E-2,-8.688177E-2,1.540482E-2,-8.624318E-3],"split_indices":[0,1,0,1,2,1,0,2,0,2,2,0,0,2,0,0,0,0,0,0,0,0,0,0,0,0,0],"split_type":[0,0,0,0,0,0,0,0,0,0,0,0,0,0,0,0,0,0,0,0,0,0,0,0,0,0,0],"sum_hessian":[8.600099E2,7.557543E2,1.0425559E2,7.300962E2,2.5658129E1,1.2944182E1,9.131141E1,7.2810266E2,1.9934862E0,4.24013E0,2.1418E1,7.461966E0,5.482217E0,3.488319E0,8.782309E1,7.214229E2,6.6797886E0,1.2460506E0,2.994079E0,1.2465489E1,8.95251E0,2.7347002E0,4.7272654E0,1.2426624E0,2.2456565E0,5.1724678E1,3.609841E1],"tree_param":{"num_deleted":"0","num_feature":"6","num_nodes":"27","size_leaf_vector":"1"}},{"base_weights":[-2.7926257E-2,-6.011415E-2,3.7389804E-2,-7.606018E-1,-5.333914E-2,7.004456E-1,7.6913494E-3,-7.397999E-2,-8.705092E-3,9.240188E-2,-6.0628835E-2,8.794083E-1,-1.886474E-2,-2.8037861E-2,3.5664183E-1,-3.1673375E-3,-2.7477812E-2,2.003899E-2,8.159205E-2,6.058821E-3,-1.5684228E-2,5.5436566E-2,4.2632902E-5],"categories":[],"categories_nodes":[],"categories_segments":[],"categories_sizes":[],"default_left":[0,0,0,0,0,0,0,0,0,0,0,0,0,0,0,0,0,0,0,0,0,0,0],"id":29,"left_children":[1,3,5,7,9,11,13,-1,-1,-1,15,17,-1,19,21,-1,-1,-1,-1,-1,-1,-1,-1],"loss_changes":[1.811544E0,2.697183E0,5.6011252E0,4.8253417E-1,5.112307E0,2.250638E0,3.420164E0,0E0,0E0,0E0,3.3776953E0,6.678009E-1,0E0,4.3570037E0,3.0509388E0,0E0,0E0,0E0,0E0,0E0,0E0,0E0,0E0],"parents":[2147483647,0,0,1,1,2,2,3,3,4,4,5,5,6,6,10,10,11,11,13,13,14,14],"right_children":[2,4,6,8,10,12,14,-1,-1,-1,16,18,-1,20,22,-1,-1,-1,-1,-1,-1,-1,-1],"split_conditions":[2.8493364E0,-1.4157184E1,2.8788786E0,9.2712337E-1,-1.261727E1,6.013337E0,2.0067654E0,-7.397999E-2,-8.705092E-3,9.240188E-2,1.7276639E0,3.654632E1,-1.886474E-2,9.5342207E-1,2.6732838E0,-3.1673375E-3,-2.7477812E-2,2.003899E-2,8.159205E-2,6.058821E-3,-1.5684228E-2,5.5436566E-2,4.2632902E-5],"split_indices":[4,1,4,3,1,1,3,0,0,0,3,0,0,3,3,0,0,0,0,0,0,0,0],"split_type":[0,0,0,0,0,0,0,0,0,0,0,0,0,0,0,0,0,0,0,0,0,0,0],"sum_hessian":[8.5959155E2,5.758775E2,2.8371402E2,4.4506106E0,5.714269E2,1.119462E1,2.725194E2,3.2207098E0,1.2299006E0,2.4824502E0,5.6894446E2,9.449156E0,1.7454647E0,2.4804192E2,2.4477482E1,5.306185E2,3.832592E1,2.2335389E0,7.215617E0,1.53675E2,9.436691E1,1.210212E1,1.2375361E1],"tree_param":{"num_deleted":"0","num_feature":"6","num_nodes":"23","size_leaf_vector":"1"}},{"base_weights":[2.3243623E-2,-4.224215E-2,4.8816465E-2,1.5574714E-2,-6.254635E-1,1.2088312E-1,-2.5865054E-2,-7.8271054E-2,2.646755E-1,2.6990125E-1,-7.918204E-1,5.1100403E-1,8.41815E-2,-5.472233E-1,3.989445E-3,4.7278777E-3,-2.1869196E-2,7.4892394E-2,1.4557947E-2,-2.6193652E-2,6.496737E-2,-7.6558515E-2,-2.6033627E-2,7.326323E-2,1.845845E-2,4.3413113E-3,4.06362E-2,-7.420524E-2,-1.4276672E-2,-2.9531993E-2,2.946562E-3],"categories":[],"categories_nodes":[],"categories_segments":[],"categories_sizes":[],"default_left":[0,0,0,0,0,0,0,0,0,0,0,0,0,0,0,0,0,0,0,0,0,0,0,0,0,0,0,0,0,0,0],"id":30,"left_children":[1,3,5,7,9,11,13,15,17,19,21,23,25,27,29,-1,-1,-1,-1,-1,-1,-1,-1,-1,-1,-1,-1,-1,-1,-1,-1],"loss_changes":[1.4578936E0,8.260305E0,3.370418E0,5.2474985E0,3.5043879E0,4.5183873E0,4.7973504E0,4.3892236E0,3.2399554E0,1.6285045E0,1.1433201E0,2.8741689E0,3.6789846E0,2.175788E0,3.5967064E0,0E0,0E0,0E0,0E0,0E0,0E0,0E0,0E0,0E0,0E0,0E0,0E0,0E0,0E0,0E0,0E0],"parents":[2147483647,0,0,1,1,2,2,3,3,4,4,5,5,6,6,7,7,8,8,9,9,10,10,11,11,12,12,13,13,14,14],"right_children":[2,4,6,8,10,12,14,16,18,20,22,24,26,28,30,-1,-1,-1,-1,-1,-1,-1,-1,-1,-1,-1,-1,-1,-1,-1,-1],"split_conditions":[4.0782867E1,3.9751488E1,5.6034077E1,1.2947092E0,5.164735E-1,4.1503823E-1,5.6775536E1,8.9276636E-1,1.3339994E0,4.1089097E-1,1.2947092E0,4.6397266E1,1.614528E1,7.419758E-1,4.3572006E-1,4.7278777E-3,-2.1869196E-2,7.4892394E-2,1.4557947E-2,-2.6193652E-2,6.496737E-2,-7.6558515E-2,-2.6033627E-2,7.326323E-2,1.845845E-2,4.3413113E-3,4.06362E-2,-7.420524E-2,-1.4276672E-2,-2.9531993E-2,2.946562E-3],"split_indices":[0,0,0,3,3,3,0,3,3,3,3,0,2,3,3,0,0,0,0,0,0,0,0,0,0,0,0,0,0,0,0],"split_type":[0,0,0,0,0,0,0,0,0,0,0,0,0,0,0,0,0,0,0,0,0,0,0,0,0,0,0,0,0,0,0],"sum_hessian":[8.6833105E2,2.4367845E2,6.246526E2,2.2258598E2,2.1092468E1,3.1757672E2,3.070759E2,1.6217447E2,6.0411526E1,3.2073686E0,1.78851E1,2.6196547E1,2.9138016E2,1.5693083E1,2.913828E2,9.557516E1,6.659931E1,5.4929123E0,5.4918613E1,1.7145717E0,1.4927969E0,1.2431147E1,5.453952E0,9.789918E0,1.640663E1,2.7322083E2,1.8159325E1,6.9793186E0,8.713764E0,2.2743513E1,2.6863928E2],"tree_param":{"num_deleted":"0","num_feature":"6","num_nodes":"31","size_leaf_vector":"1"}},{"base_weights":[-7.842219E-3,7.654472E-4,-4.2514187E-1,-5.5028526E-3,3.9536348E-1,-1.361929E-1,-7.603246E-1,2.9708773E-3,-6.528933E-1,-4.690563E-1,7.4707043E-1,-6.224918E-1,2.7503863E-1,-1.0132102E0,-6.157952E-3,-1.7091256E-3,8.786442E-3,2.7713818E-2,-6.789133E-2,5.43033E-3,-8.272872E-2,8.0470875E-2,3.6335874E-3,9.133817E-3,-7.030665E-2,5.4834876E-2,-1.22245E-2,-9.457643E-2,-2.5609493E-2],"categories":[],"categories_nodes":[],"categories_segments":[],"categories_sizes":[],"default_left":[0,0,0,0,0,0,0,0,0,0,0,0,0,0,0,0,0,0,0,0,0,0,0,0,0,0,0,0,0],"id":31,"left_children":[1,3,5,7,9,11,13,15,17,19,21,23,25,27,-1,-1,-1,-1,-1,-1,-1,-1,-1,-1,-1,-1,-1,-1,-1],"loss_changes":[3.1224062E0,2.1110806E0,1.5979345E0,4.6114907E0,4.4078865E0,2.301606E0,1.2898216E0,2.161757E0,2.4185076E0,1.427587E0,1.7470417E0,1.0799205E0,1.24E0,2.8860378E-1,0E0,0E0,0E0,0E0,0E0,0E0,0E0,0E0,0E0,0E0,0E0,0E0,0E0,0E0,0E0],"parents":[2147483647,0,0,1,1,2,2,3,3,4,4,5,5,6,6,7,7,8,8,9,9,10,10,11,11,12,12,13,13],"right_children":[2,4,6,8,10,12,14,16,18,20,22,24,26,28,-1,-1,-1,-1,-1,-1,-1,-1,-1,-1,-1,-1,-1,-1,-1],"split_conditions":[3.0348039E0,3.0529573E1,5.5463547E1,2.6670265E1,6.708087E1,3.598974E1,1.5533913E1,1.2947092E0,7.0966345E-1,3.350808E1,4.4932068E1,-1.2831645E1,4.6795242E1,5.316618E0,-6.157952E-3,-1.7091256E-3,8.786442E-3,2.7713818E-2,-6.789133E-2,5.43033E-3,-8.272872E-2,8.0470875E-2,3.6335874E-3,9.133817E-3,-7.030665E-2,5.4834876E-2,-1.22245E-2,-9.457643E-2,-2.5609493E-2],"split_indices":[3,2,0,2,0,0,2,3,3,2,2,2,0,3,0,0,0,0,0,0,0,0,0,0,0,0,0,0,0],"split_type":[0,0,0,0,0,0,0,0,0,0,0,0,0,0,0,0,0,0,0,0,0,0,0,0,0,0,0,0,0],"sum_hessian":[8.6818195E2,8.516138E2,1.6568127E1,8.392678E2,1.2345949E1,9.652971E0,6.915155E0,8.294071E2,9.860745E0,3.4739857E0,8.8719635E0,4.1874304E0,5.465541E0,4.694985E0,2.2201705E0,6.762142E2,1.5319292E2,1.4890828E0,8.371662E0,2.2324727E0,1.241513E0,6.1644897E0,2.7074738E0,1.2241422E0,2.9632883E0,2.4823525E0,2.9831886E0,3.207264E0,1.4877207E0],"tree_param":{"num_deleted":"0","num_feature":"6","num_nodes":"29","size_leaf_vector":"1"}},{"base_weights":[1.957799E-3,8.757216E-3,-3.1065825E-1,-4.4800367E-2,6.4725414E-2,1.452759E-1,-6.917845E-1,-1.0877697E-1,1.3807234E-1,-1.909915E-1,9.69917E-2,-2.4795038E-1,6.271536E-2,-1.016448E0,6.849999E-2,2.4039268E-2,-1.1703044E-2,1.4225513E-2,-5.093825E-2,2.5941364E-2,-3.337955E-2,2.3083135E-2,3.3018105E-3,3.4547903E-2,-4.7077265E-2,-4.5143545E-2,-1.06729716E-1,3.235254E-2,-2.372697E-2],"categories":[],"categories_nodes":[],"categories_segments":[],"categories_sizes":[],"default_left":[0,0,0,0,0,0,0,0,0,0,0,0,0,0,0,0,0,0,0,0,0,0,0,0,0,0,0,0,0],"id":32,"left_children":[1,3,5,7,9,11,13,15,17,19,21,23,-1,25,27,-1,-1,-1,-1,-1,-1,-1,-1,-1,-1,-1,-1,-1,-1],"loss_changes":[1.8257166E0,2.521872E0,3.277676E0,5.046008E0,3.4124813E0,2.4926665E0,2.5707116E0,4.943207E0,3.5589101E0,5.5473413E0,3.8934262E0,1.7411155E0,0E0,2.7612066E-1,6.0667646E-1,0E0,0E0,0E0,0E0,0E0,0E0,0E0,0E0,0E0,0E0,0E0,0E0,0E0,0E0],"parents":[2147483647,0,0,1,1,2,2,3,3,4,4,5,5,6,6,7,7,8,8,9,9,10,10,11,11,13,13,14,14],"right_children":[2,4,6,8,10,12,14,16,18,20,22,24,-1,26,28,-1,-1,-1,-1,-1,-1,-1,-1,-1,-1,-1,-1,-1,-1],"split_conditions":[3.0348039E0,6.1694604E-1,-1.0890695E0,1.1911288E0,4.5503554E-1,-5.158403E0,1.5533913E1,4.207875E-1,9.591223E0,3.331846E0,6.3457763E-1,-1.2831645E1,6.271536E-2,6.223247E0,2.5250465E1,2.4039268E-2,-1.1703044E-2,1.4225513E-2,-5.093825E-2,2.5941364E-2,-3.337955E-2,2.3083135E-2,3.3018105E-3,3.4547903E-2,-4.7077265E-2,-4.5143545E-2,-1.06729716E-1,3.235254E-2,-2.372697E-2],"split_indices":[3,1,1,3,3,1,2,3,2,1,3,2,0,2,2,0,0,0,0,0,0,0,0,0,0,0,0,0,0],"split_type":[0,0,0,0,0,0,0,0,0,0,0,0,0,0,0,0,0,0,0,0,0,0,0,0,0,0,0,0,0],"sum_hessian":[8.566357E2,8.3935175E2,1.728396E1,4.290147E2,4.1033704E2,8.151409E0,9.132551E0,3.1812598E2,1.1088873E2,4.5423927E1,3.6491312E2,5.4237676E0,2.7276413E0,6.163589E0,2.9689622E0,2.6120909E1,2.9200507E2,1.0621072E2,4.6780186E0,1.3727745E1,3.1696182E1,8.128797E1,2.8362512E2,1.72059E0,3.7031775E0,3.6891093E0,2.47448E0,1.4901845E0,1.4787778E0],"tree_param":{"num_deleted":"0","num_feature":"6","num_nodes":"29","size_leaf_vector":"1"}},{"base_weights":[-6.7561236E-3,-6.158981E-2,4.6932094E-2,4.4900132E-3,-3.0393603E-1,8.932755E-2,-2.1893087E-1,3.853623E-1,-2.155445E-2,-3.654125E-1,1.7909235E-1,2.4686748E-1,2.2101568E-2,-4.2197606E-1,2.4288086E-2,-1.1393867E-2,5.3826913E-2,-7.445761E-3,1.0624915E-2,-1.4417617E-2,-4.696116E-2,8.436026E-2,-7.706518E-3,1.7200692E-2,8.1178054E-2,-2.6219353E-2,4.8750658E-3,-2.2972768E-5,-6.1589763E-2,-4.993809E-2,1.3609256E-2],"categories":[],"categories_nodes":[],"categories_segments":[],"categories_sizes":[],"default_left":[0,0,0,0,0,0,0,0,0,0,0,0,0,0,0,0,0,0,0,0,0,0,0,0,0,0,0,0,0,0,0],"id":33,"left_children":[1,3,5,7,9,11,13,15,17,19,21,23,25,27,29,-1,-1,-1,-1,-1,-1,-1,-1,-1,-1,-1,-1,-1,-1,-1,-1],"loss_changes":[2.5481036E0,6.8578773E0,4.9498043E0,3.3552501E0,2.7898169E0,3.9974842E0,2.9954457E0,3.3804374E0,3.509331E0,3.2477522E0,2.7608895E0,2.5448895E0,3.6342793E0,4.8409095E0,2.79663E0,0E0,0E0,0E0,0E0,0E0,0E0,0E0,0E0,0E0,0E0,0E0,0E0,0E0,0E0,0E0,0E0],"parents":[2147483647,0,0,1,1,2,2,3,3,4,4,5,5,6,6,7,7,8,8,9,9,10,10,11,11,12,12,13,13,14,14],"right_children":[2,4,6,8,10,12,14,16,18,20,22,24,26,28,30,-1,-1,-1,-1,-1,-1,-1,-1,-1,-1,-1,-1,-1,-1,-1,-1],"split_conditions":[2.7779222E-1,-1.8901739E0,1.4955434E0,4.2718065E-1,1.5119576E0,3.331846E0,5.8391047E0,-6.3660936E0,1.1549813E0,2.2536821E0,1.6000856E0,1.4171144E0,4.3572006E-1,2.6883113E0,2.0232334E0,-1.1393867E-2,5.3826913E-2,-7.445761E-3,1.0624915E-2,-1.4417617E-2,-4.696116E-2,8.436026E-2,-7.706518E-3,1.7200692E-2,8.1178054E-2,-2.6219353E-2,4.8750658E-3,-2.2972768E-5,-6.1589763E-2,-4.993809E-2,1.3609256E-2],"split_indices":[1,1,3,3,3,1,1,1,3,4,3,3,3,1,4,0,0,0,0,0,0,0,0,0,0,0,0,0,0,0,0],"split_type":[0,0,0,0,0,0,0,0,0,0,0,0,0,0,0,0,0,0,0,0,0,0,0,0,0,0,0,0,0,0,0],"sum_hessian":[8.635651E2,4.271522E2,4.364129E2,3.3640665E2,9.074554E1,3.7696478E2,5.944814E1,2.0648481E1,3.1575818E2,8.071605E1,1.0029481E1,1.1194841E2,2.6501636E2,3.1999338E1,2.74488E1,7.4589167E0,1.3189564E1,2.1605649E2,9.970169E1,4.4958008E1,3.5758045E1,1.7233393E0,8.306142E0,1.0871767E2,3.2307398E0,2.5737017E1,2.3927934E2,1.4917945E1,1.7081394E1,4.4368734E0,2.3011927E1],"tree_param":{"num_deleted":"0","num_feature":"6","num_nodes":"31","size_leaf_vector":"1"}},{"base_weights":[-1.0519357E-3,-1.6426869E-1,2.8087286E-2,-7.5842243E-1,-1.250112E-1,3.9435396E-1,6.8375557E-3,-8.803062E-2,-3.7078038E-1,4.265401E-2,-3.2022884E-1,4.9185166E-1,-7.6839846E-1,8.4364015E-1,1.521112E-4,4.3690536E-2,-7.028041E-2,-2.9078599E-3,4.926266E-2,-6.450395E-2,-1.7032998E-2,-1.7562328E-2,5.4635663E-2,-8.4436566E-2,-1.1075446E-2,9.294695E-2,8.230931E-3,-4.0733546E-2,6.554451E-4],"categories":[],"categories_nodes":[],"categories_segments":[],"categories_sizes":[],"default_left":[0,0,0,0,0,0,0,0,0,0,0,0,0,0,0,0,0,0,0,0,0,0,0,0,0,0,0,0,0],"id":34,"left_children":[1,3,5,7,9,11,13,-1,15,17,19,21,23,25,27,-1,-1,-1,-1,-1,-1,-1,-1,-1,-1,-1,-1,-1,-1],"loss_changes":[4.087637E0,2.942015E0,5.673506E0,6.3548803E-1,4.050216E0,4.9096293E0,3.861837E0,0E0,2.8995218E0,3.066296E0,2.806748E0,5.2465153E0,4.8369336E-1,1.1700819E0,2.8130457E0,0E0,0E0,0E0,0E0,0E0,0E0,0E0,0E0,0E0,0E0,0E0,0E0,0E0,0E0],"parents":[2147483647,0,0,1,1,2,2,3,3,4,4,5,5,6,6,8,8,9,9,10,10,11,11,12,12,13,13,14,14],"right_children":[2,4,6,8,10,12,14,-1,16,18,20,22,24,26,28,-1,-1,-1,-1,-1,-1,-1,-1,-1,-1,-1,-1,-1,-1],"split_conditions":[-8.479931E0,-2.483418E1,-6.6563873E0,2.2212841E1,-1.2831645E1,3.9035676E0,-1.7243914E1,-8.803062E-2,-2.0897745E1,3.598974E1,-1.3671402E1,-1.458278E1,1.1350368E1,3.9608643E0,-6.2348065E0,4.3690536E-2,-7.028041E-2,-2.9078599E-3,4.926266E-2,-6.450395E-2,-1.7032998E-2,-1.7562328E-2,5.4635663E-2,-8.4436566E-2,-1.1075446E-2,9.294695E-2,8.230931E-3,-4.0733546E-2,6.554451E-4],"split_indices":[1,2,1,0,2,2,2,0,1,0,1,2,2,1,1,0,0,0,0,0,0,0,0,0,0,0,0,0,0],"split_type":[0,0,0,0,0,0,0,0,0,0,0,0,0,0,0,0,0,0,0,0,0,0,0,0,0,0,0,0,0],"sum_hessian":[8.574977E2,1.2919633E2,7.2830133E2,6.871928E0,1.223244E2,3.89741E1,6.893273E2,2.6742065E0,4.1977215E0,6.6226456E1,5.609795E1,3.6491272E1,2.482828E0,4.471319E0,6.8485596E2,1.4690622E0,2.7286592E0,5.902659E1,7.1998644E0,8.967581E0,4.713037E1,7.6953187E0,2.8795952E1,1.2416048E0,1.2412231E0,2.730121E0,1.7411984E0,9.6755495E0,6.7518036E2],"tree_param":{"num_deleted":"0","num_feature":"6","num_nodes":"29","size_leaf_vector":"1"}},{"base_weights":[-4.4484748E-4,4.7499573E-1,-1.0171032E-2,-3.4213966E-1,9.4257206E-1,-8.0605514E-2,4.68782E-2,-7.395818E-2,-5.1533036E-2,9.577852E-2,9.722397E-2,-2.9639825E-2,-3.0605066E-1,2.2366947E-1,-1.741732E-2,2.7029969E-2,-2.4102323E-2,-6.004632E-2,8.003627E-2,-4.3382174E-3,3.8071625E-2,2.807893E-2,-3.512131E-2,-3.4481537E-2,2.078244E-2,-7.1695544E-2,-4.7858822E-4],"categories":[],"categories_nodes":[],"categories_segments":[],"categories_sizes":[],"default_left":[0,0,0,0,0,0,0,0,0,0,0,0,0,0,0,0,0,0,0,0,0,0,0,0,0,0,0],"id":35,"left_children":[1,3,5,7,9,11,13,15,-1,-1,17,19,21,23,25,-1,-1,-1,-1,-1,-1,-1,-1,-1,-1,-1,-1],"loss_changes":[4.0332556E0,7.0030923E0,3.4380498E0,5.272333E-1,2.3350897E0,4.3896937E0,5.3785777E0,5.5949944E-1,0E0,0E0,3.6031542E0,3.9208086E0,6.3115854E0,3.0948958E0,3.4882352E0,0E0,0E0,0E0,0E0,0E0,0E0,0E0,0E0,0E0,0E0,0E0,0E0],"parents":[2147483647,0,0,1,1,2,2,3,3,4,4,5,5,6,6,7,7,10,10,11,11,12,12,13,13,14,14],"right_children":[2,4,6,8,10,12,14,16,-1,-1,18,20,22,24,26,-1,-1,-1,-1,-1,-1,-1,-1,-1,-1,-1,-1],"split_conditions":[-2.2265574E1,2.2212841E1,-2.8303033E-1,-2.3456478E1,3.802736E1,-1.8901739E0,2.6883113E0,4.8232455E0,-5.1533036E-2,9.577852E-2,-8.06972E0,-2.2059836E0,-9.55062E0,1.5470612E0,2.7482316E0,2.7029969E-2,-2.4102323E-2,-6.004632E-2,8.003627E-2,-4.3382174E-3,3.8071625E-2,2.807893E-2,-3.512131E-2,-3.4481537E-2,2.078244E-2,-7.1695544E-2,-4.7858822E-4],"split_indices":[2,0,1,1,0,1,1,4,0,0,1,1,2,4,1,0,0,0,0,0,0,0,0,0,0,0,0],"split_type":[0,0,0,0,0,0,0,0,0,0,0,0,0,0,0,0,0,0,0,0,0,0,0,0,0,0,0],"sum_hessian":[8.7015717E2,1.6485134E1,8.5367206E2,6.097473E0,1.0387661E1,3.8183527E2,4.718368E2,3.8890595E0,2.2084138E0,7.662953E0,2.7247083E0,3.1235385E2,6.94814E1,1.2517325E2,3.4666354E2,1.2102108E0,2.6788487E0,1.4926549E0,1.2320535E0,2.9871774E2,1.3636109E1,1.1418465E1,5.8062935E1,5.971674E0,1.1920157E2,3.4590936E0,3.4320444E2],"tree_param":{"num_deleted":"0","num_feature":"6","num_nodes":"27","size_leaf_vector":"1"}},{"base_weights":[2.2050712E-2,4.8075882E-1,1.5746105E-2,6.2548316E-1,-5.1431604E-2,-8.5130006E-2,2.0433385E-2,-1.2387079E-3,7.105576E-2,2.7323077E-2,-3.4409147E-2,4.2386875E-1,1.3969138E-2,-1.7522026E-3,7.238163E-2,-1.0789908E-2,1.9195566E-3],"categories":[],"categories_nodes":[],"categories_segments":[],"categories_sizes":[],"default_left":[0,0,0,0,0,0,0,0,0,0,0,0,0,0,0,0,0],"id":36,"left_children":[1,3,5,7,9,-1,11,-1,-1,-1,-1,13,15,-1,-1,-1,-1],"loss_changes":[2.487121E0,9.3035316E-1,4.334094E0,1.5704076E0,6.554264E-1,0E0,2.2088766E0,0E0,0E0,0E0,0E0,2.8836296E0,1.2520634E0,0E0,0E0,0E0,0E0],"parents":[2147483647,0,0,1,1,2,2,3,3,4,4,6,6,11,11,12,12],"right_children":[2,4,6,8,10,-1,12,-1,-1,-1,-1,14,16,-1,-1,-1,-1],"split_conditions":[1.9679201E1,-1.1717172E1,2.0795647E1,-2.8067062E1,3.5354524E0,-8.5130006E-2,-2.2265574E1,-1.2387079E-3,7.105576E-2,2.7323077E-2,-3.4409147E-2,-2.483418E1,2.802792E1,-1.7522026E-3,7.238163E-2,-1.0789908E-2,1.9195566E-3],"split_indices":[0,2,0,2,4,0,2,0,0,0,0,2,0,0,0,0,0],"split_type":[0,0,0,0,0,0,0,0,0,0,0,0,0,0,0,0,0],"sum_hessian":[8.6162555E2,1.0661552E1,8.5096405E2,8.244292E0,2.4172597E0,2.7008862E0,8.482631E2,2.6703236E0,5.573969E0,1.2343878E0,1.1828719E0,1.2359069E1,8.3590405E2,6.909121E0,5.4499474E0,5.1963528E1,7.8394055E2],"tree_param":{"num_deleted":"0","num_feature":"6","num_nodes":"17","size_leaf_vector":"1"}},{"base_weights":[-1.2223454E-2,1.3359987E-2,-1.4747474E-1,2.4890518E-3,9.965363E-1,1.18187904E-1,-2.3347023E-1,-2.8759688E-1,2.1489969E-2,-1.9789439E-2,1.0117161E-1,3.9259148E-1,-1.5439714E-1,-3.778765E-1,1.5670825E-2,-1.3554203E-2,-1.15249336E-1,1.2271584E-2,-2.8966852E-3,1.5271503E-2,1.0399784E-1,8.50463E-3,-3.599779E-2,5.953014E-3,-3.5613928E-2,-3.2834556E-2,3.3630744E-2],"categories":[],"categories_nodes":[],"categories_segments":[],"categories_sizes":[],"default_left":[0,0,0,0,0,0,0,0,0,0,0,0,0,0,0,0,0,0,0,0,0,0,0,0,0,0,0],"id":37,"left_children":[1,3,5,7,9,11,13,15,17,-1,-1,19,21,23,25,-1,-1,-1,-1,-1,-1,-1,-1,-1,-1,-1,-1],"loss_changes":[2.9814327E0,7.7465453E0,3.158617E0,3.9642293E0,2.9562736E0,2.6171167E0,3.7429695E0,5.780115E0,5.1418586E0,0E0,0E0,2.920733E0,1.4243869E0,2.0358658E0,6.9108934E0,0E0,0E0,0E0,0E0,0E0,0E0,0E0,0E0,0E0,0E0,0E0,0E0],"parents":[2147483647,0,0,1,1,2,2,3,3,4,4,5,5,6,6,7,7,8,8,11,11,12,12,13,13,14,14],"right_children":[2,4,6,8,10,12,14,16,18,-1,-1,20,22,24,26,-1,-1,-1,-1,-1,-1,-1,-1,-1,-1,-1,-1],"split_conditions":[3.4048605E0,3.3681533E0,-1.6592512E1,-1.458278E1,5.108198E-1,3.9622276E0,3.9306724E0,3.9106119E0,-1.8901739E0,-1.9789439E-2,1.0117161E-1,-1.7652718E1,-1.8369965E1,-1.2831645E1,-7.6461787E0,-1.3554203E-2,-1.15249336E-1,1.2271584E-2,-2.8966852E-3,1.5271503E-2,1.0399784E-1,8.50463E-3,-3.599779E-2,5.953014E-3,-3.5613928E-2,-3.2834556E-2,3.3630744E-2],"split_indices":[4,4,2,2,3,4,4,1,1,0,0,2,1,2,1,0,0,0,0,0,0,0,0,0,0,0,0],"split_type":[0,0,0,0,0,0,0,0,0,0,0,0,0,0,0,0,0,0,0,0,0,0,0,0,0,0,0],"sum_hessian":[8.6006836E2,7.24018E2,1.3605034E2,7.170917E2,6.926318E0,3.3178596E1,1.02871735E2,4.3213757E1,6.738779E2,1.2418865E0,5.684432E0,1.631475E1,1.6863846E1,6.4797386E1,3.8074352E1,4.0236942E1,2.976814E0,2.0456427E2,4.693137E2,1.4338001E1,1.9767498E0,9.300712E0,7.5631347E0,8.378953E0,5.641843E1,1.8540182E1,1.953417E1],"tree_param":{"num_deleted":"0","num_feature":"6","num_nodes":"27","size_leaf_vector":"1"}},{"base_weights":[-3.0435245E-3,4.158025E-2,-7.3792644E-2,-5.0476767E-2,1.2550882E-1,-7.055701E-1,-5.101611E-2,-2.3141533E-2,-1.0489908E0,3.2436326E-1,4.2672332E-2,2.517999E-2,-8.5898423E-1,8.827173E-2,-1.4040244E-1,1.944865E-3,-2.7301976E-2,-9.2731416E-2,-3.1847075E-2,1.9559989E-2,7.865735E-2,1.2642692E-3,6.187533E-2,-1.9308418E-2,-8.359228E-2,5.5160775E-4,9.031093E-2,-4.02437E-2,-6.6575045E-3],"categories":[],"categories_nodes":[],"categories_segments":[],"categories_sizes":[],"default_left":[0,0,0,0,0,0,0,0,0,0,0,0,0,0,0,0,0,0,0,0,0,0,0,0,0,0,0,0,0],"id":38,"left_children":[1,3,5,7,9,11,13,15,17,19,21,-1,23,25,27,-1,-1,-1,-1,-1,-1,-1,-1,-1,-1,-1,-1,-1,-1],"loss_changes":[2.7237802E0,4.094275E0,4.765525E0,6.8824663E0,4.5499353E0,2.0756507E0,4.0356817E0,3.7419393E0,2.0382404E-2,4.0386267E0,3.8506515E0,0E0,9.298315E-1,1.0740684E1,4.047879E0,0E0,0E0,0E0,0E0,0E0,0E0,0E0,0E0,0E0,0E0,0E0,0E0,0E0,0E0],"parents":[2147483647,0,0,1,1,2,2,3,3,4,4,5,5,6,6,7,7,8,8,9,9,10,10,12,12,13,13,14,14],"right_children":[2,4,6,8,10,12,14,16,18,20,22,-1,24,26,28,-1,-1,-1,-1,-1,-1,-1,-1,-1,-1,-1,-1,-1,-1],"split_conditions":[9.7138E-1,6.1694604E-1,9.888052E-1,3.476258E-1,3.3946311E0,1.7824574E0,-2.5583637E0,4.995796E1,5.3588478E1,3.1830876E0,9.490234E-1,2.517999E-2,9.778803E-1,-3.0004482E0,4.7013763E1,1.944865E-3,-2.7301976E-2,-9.2731416E-2,-3.1847075E-2,1.9559989E-2,7.865735E-2,1.2642692E-3,6.187533E-2,-1.9308418E-2,-8.359228E-2,5.5160775E-4,9.031093E-2,-4.02437E-2,-6.6575045E-3],"split_indices":[3,1,3,1,1,4,1,0,0,1,3,0,3,1,0,0,0,0,0,0,0,0,0,0,0,0,0,0,0],"split_type":[0,0,0,0,0,0,0,0,0,0,0,0,0,0,0,0,0,0,0,0,0,0,0,0,0,0,0,0,0],"sum_hessian":[8.607776E2,5.2810004E2,3.326776E2,2.520441E2,2.760559E2,1.0533048E1,3.2214456E2,2.4632393E2,5.720167E0,8.0321976E1,1.9573395E2,1.2392781E0,9.29377E0,1.25927795E2,1.9621677E2,2.1515523E2,3.1168701E1,4.224442E0,1.4957249E0,7.286116E1,7.4608173E0,1.8977782E2,5.956136E0,2.6820612E0,6.6117086E0,1.1772803E2,8.199767E0,2.5664175E1,1.7055258E2],"tree_param":{"num_deleted":"0","num_feature":"6","num_nodes":"29","size_leaf_vector":"1"}},{"base_weights":[9.178975E-3,5.4459285E-2,-7.299654E-2,1.2841544E-2,2.3917517E-1,-2.1076405E-1,3.4803588E-2,4.463663E-2,-5.1293296E-1,2.2224259E-2,4.5684183E-1,-4.7005173E-2,-2.8192085E-1,2.6774788E-1,-9.370826E-2,2.7187744E-3,8.6453624E-2,-8.127218E-2,-4.7351206E-3,3.3233967E-2,-1.4410751E-2,4.4575896E-2,-2.7467405E-2,3.6572393E-2,-2.056516E-2,-7.652112E-2,-1.822608E-2,-5.1356044E-2,2.8551923E-2,-7.517714E-2,-4.890953E-3],"categories":[],"categories_nodes":[],"categories_segments":[],"categories_sizes":[],"default_left":[0,0,0,0,0,0,0,0,0,0,0,0,0,0,0,0,0,0,0,0,0,0,0,0,0,0,0,0,0,0,0],"id":39,"left_children":[1,3,5,7,9,11,13,15,17,19,21,23,25,27,29,-1,-1,-1,-1,-1,-1,-1,-1,-1,-1,-1,-1,-1,-1,-1,-1],"loss_changes":[3.1216304E0,4.154138E0,4.434391E0,7.41848E0,4.682884E0,1.5132184E0,5.0571165E0,4.577226E0,5.715538E0,4.1187034E0,4.1709557E0,4.4468637E0,3.1071858E0,5.096989E0,2.9480224E0,0E0,0E0,0E0,0E0,0E0,0E0,0E0,0E0,0E0,0E0,0E0,0E0,0E0,0E0,0E0,0E0],"parents":[2147483647,0,0,1,1,2,2,3,3,4,4,5,5,6,6,7,7,8,8,9,9,10,10,11,11,12,12,13,13,14,14],"right_children":[2,4,6,8,10,12,14,16,18,20,22,24,26,28,30,-1,-1,-1,-1,-1,-1,-1,-1,-1,-1,-1,-1,-1,-1,-1,-1],"split_conditions":[1.0089316E0,8.72172E-1,1.3073288E0,8.454819E-1,2.8872227E-2,2.0622985E0,1.4955434E0,8.4051675E-1,2.207228E0,9.101176E-1,2.1412142E1,1.075527E0,2.136779E0,-1.9943169E1,1.5119576E0,2.7187744E-3,8.6453624E-2,-8.127218E-2,-4.7351206E-3,3.3233967E-2,-1.4410751E-2,4.4575896E-2,-2.7467405E-2,3.6572393E-2,-2.056516E-2,-7.652112E-2,-1.822608E-2,-5.1356044E-2,2.8551923E-2,-7.517714E-2,-4.890953E-3],"split_indices":[3,3,3,3,2,4,3,3,4,3,2,3,4,2,3,0,0,0,0,0,0,0,0,0,0,0,0,0,0,0,0],"split_type":[0,0,0,0,0,0,0,0,0,0,0,0,0,0,0,0,0,0,0,0,0,0,0,0,0,0,0,0,0,0,0],"sum_hessian":[8.368692E2,5.397782E2,2.97091E2,4.4139783E2,9.8380394E1,1.2999875E2,1.6709225E2,4.1709027E2,2.4307537E1,4.9823166E1,4.855723E1,3.9880093E1,9.011866E1,5.9022648E1,1.080696E2,4.1386792E2,3.2223685E0,1.0940832E1,1.3366704E1,1.6571125E1,3.325204E1,4.3415806E1,5.141426E0,1.1383182E1,2.8496908E1,5.451629E0,8.466703E1,4.7145634E0,5.4308086E1,2.9739318E0,1.0509567E2],"tree_param":{"num_deleted":"0","num_feature":"6","num_nodes":"31","size_leaf_vector":"1"}},{"base_weights":[1.3215088E-3,-5.26581E-2,5.544431E-2,-2.5152694E-2,-4.533396E-1,-9.373025E-3,1.9442537E-1,2.0264214E-2,-2.6596218E-1,-6.2654656E-1,1.576936E-1,-2.8722274E-1,5.371723E-2,1.026946E0,1.5342194E-1,1.0788742E-2,-4.8435777E-3,-3.208682E-2,9.778277E-3,-1.464118E-4,-5.8772217E-2,-4.2859416E-2,4.344923E-2,1.4104514E-3,-4.067123E-2,8.040785E-3,-2.1049375E-2,1.0805588E-1,2.5526332E-4,5.953771E-2,8.5972035E-3],"categories":[],"categories_nodes":[],"categories_segments":[],"categories_sizes":[],"default_left":[0,0,0,0,0,0,0,0,0,0,0,0,0,0,0,0,0,0,0,0,0,0,0,0,0,0,0,0,0,0,0],"id":40,"left_children":[1,3,5,7,9,11,13,15,17,19,21,23,25,27,29,-1,-1,-1,-1,-1,-1,-1,-1,-1,-1,-1,-1,-1,-1,-1,-1],"loss_changes":[2.5068274E0,4.7232637E0,3.8614333E0,4.413691E0,3.0132837E0,5.1539664E0,4.495612E0,3.1570568E0,3.407506E0,1.461276E0,2.1300066E0,3.6769156E0,3.5806105E0,2.0582223E0,3.4792595E0,0E0,0E0,0E0,0E0,0E0,0E0,0E0,0E0,0E0,0E0,0E0,0E0,0E0,0E0,0E0,0E0],"parents":[2147483647,0,0,1,1,2,2,3,3,4,4,5,5,6,6,7,7,8,8,9,9,10,10,11,11,12,12,13,13,14,14],"right_children":[2,4,6,8,10,12,14,16,18,20,22,24,26,28,30,-1,-1,-1,-1,-1,-1,-1,-1,-1,-1,-1,-1,-1,-1,-1,-1],"split_conditions":[2.4702592E0,1.7276639E0,1.1168839E0,2.315664E0,2.7737684E0,3.3388577E1,2.5365021E0,7.646718E-1,5.9750496E1,1.7378589E0,1.9699432E0,7.06797E-1,9.778803E-1,1.3814296E1,2.2212841E1,1.0788742E-2,-4.8435777E-3,-3.208682E-2,9.778277E-3,-1.464118E-4,-5.8772217E-2,-4.2859416E-2,4.344923E-2,1.4104514E-3,-4.067123E-2,8.040785E-3,-2.1049375E-2,1.0805588E-1,2.5526332E-4,5.953771E-2,8.5972035E-3],"split_indices":[4,3,3,4,3,0,4,3,0,4,4,3,3,2,0,0,0,0,0,0,0,0,0,0,0,0,0,0,0,0,0],"split_type":[0,0,0,0,0,0,0,0,0,0,0,0,0,0,0,0,0,0,0,0,0,0,0,0,0,0,0,0,0,0,0],"sum_hessian":[8.560542E2,4.286076E2,4.274466E2,4.020697E2,2.6537926E1,2.9213474E2,1.3531186E2,3.390419E2,6.3027786E1,2.065699E1,5.8809357E0,5.3401546E1,2.3873318E2,5.2228765E0,1.3008899E2,1.3993349E2,1.9910841E2,4.6728954E1,1.6298834E1,3.1973433E0,1.7459646E1,1.9616294E0,3.919306E0,2.2839827E1,3.0561718E1,2.0860721E2,3.012597E1,3.725398E0,1.4974784E0,8.292375E0,1.21796616E2],"tree_param":{"num_deleted":"0","num_feature":"6","num_nodes":"31","size_leaf_vector":"1"}},{"base_weights":[-1.8636888E-2,-2.4000237E-2,5.8620006E-1,-9.307162E-2,6.9253705E-3,8.5234076E-2,3.2628766E-1,2.3502048E-2,-1.7466374E-1,3.7308258E-1,-6.765803E-3,-1.9315371E-2,6.3029796E-1,-6.3673416E-3,4.424061E-2,-1.1538899E-2,-8.291083E-2,9.2876956E-2,1.9532032E-2,-4.81004E-2,7.62175E-4,8.225813E-3,6.359547E-2],"categories":[],"categories_nodes":[],"categories_segments":[],"categories_sizes":[],"default_left":[0,0,0,0,0,0,0,0,0,0,0,0,0,0,0,0,0,0,0,0,0,0,0],"id":41,"left_children":[1,3,5,7,9,-1,11,13,15,17,19,-1,21,-1,-1,-1,-1,-1,-1,-1,-1,-1,-1],"loss_changes":[2.807332E0,1.8258352E0,5.9995246E-1,2.5182233E0,2.9659615E0,0E0,1.2522953E0,6.033132E0,3.9306388E0,1.882767E0,5.534612E0,0E0,3.028226E-1,0E0,0E0,0E0,0E0,0E0,0E0,0E0,0E0,0E0,0E0],"parents":[2147483647,0,0,1,1,2,2,3,3,4,4,6,6,7,7,8,8,9,9,10,10,12,12],"right_children":[2,4,6,8,10,-1,12,14,16,18,20,-1,22,-1,-1,-1,-1,-1,-1,-1,-1,-1,-1],"split_conditions":[5.0834484E0,-5.880678E0,6.0799277E-1,-1.2831645E1,-5.0669036E0,8.5234076E-2,1.0845201E0,1.3980925E0,2.53313E0,5.7117724E-1,-4.3560305E0,-1.9315371E-2,-1.8919584E1,-6.3673416E-3,4.424061E-2,-1.1538899E-2,-8.291083E-2,9.2876956E-2,1.9532032E-2,-4.81004E-2,7.62175E-4,8.225813E-3,6.359547E-2],"split_indices":[4,2,3,2,2,0,3,3,3,3,2,0,2,0,0,0,0,0,0,0,0,0,0],"split_type":[0,0,0,0,0,0,0,0,0,0,0,0,0,0,0,0,0,0,0,0,0,0,0],"sum_hessian":[8.6006805E2,8.534604E2,6.6076803E0,2.6332428E2,5.901361E2,1.23374E0,5.37394E0,1.08713394E2,1.5461089E2,2.0324594E1,5.698115E2,1.9458797E0,3.4280603E0,9.170774E1,1.7005651E1,1.5046532E2,4.145566E0,1.732596E0,1.8592E1,1.4242347E1,5.5556915E2,1.2019323E0,2.226128E0],"tree_param":{"num_deleted":"0","num_feature":"6","num_nodes":"23","size_leaf_vector":"1"}},{"base_weights":[-9.58977E-3,1.2850535E-1,-3.620161E-2,8.411004E-3,3.2642022E-1,-4.4365504E-1,-2.3829622E-2,1.4219451E-1,-3.0515534E-1,4.6998376E-1,-5.112794E-1,-9.729986E-2,-2.2274175E-1,-3.8981866E-2,2.8560334E-1,-1.05948765E-2,2.4149079E-2,-7.402919E-2,-4.8720688E-3,4.5564737E-2,-4.7229747E-3,-8.7698504E-2,-8.30102E-3,-3.1857607E-3,-8.234579E-2,-6.103715E-2,-2.3834067E-3,5.5751443E-2,-1.5107043E-3],"categories":[],"categories_nodes":[],"categories_segments":[],"categories_sizes":[],"default_left":[0,0,0,0,0,0,0,0,0,0,0,0,0,0,0,0,0,0,0,0,0,0,0,0,0,0,0,0,0],"id":42,"left_children":[1,3,5,7,9,11,13,15,17,19,21,-1,23,25,27,-1,-1,-1,-1,-1,-1,-1,-1,-1,-1,-1,-1,-1,-1],"loss_changes":[3.1460164E0,3.285162E0,3.6062026E0,3.6979656E0,6.5196333E0,3.328076E0,3.2808895E0,2.7475543E0,3.9385605E0,2.4091358E0,1.8214071E0,0E0,2.5589619E0,4.4061475E0,4.1051636E0,0E0,0E0,0E0,0E0,0E0,0E0,0E0,0E0,0E0,0E0,0E0,0E0,0E0,0E0],"parents":[2147483647,0,0,1,1,2,2,3,3,4,4,5,5,6,6,7,7,8,8,9,9,10,10,12,12,13,13,14,14],"right_children":[2,4,6,8,10,12,14,16,18,20,22,-1,24,26,28,-1,-1,-1,-1,-1,-1,-1,-1,-1,-1,-1,-1,-1,-1],"split_conditions":[-1.1561671E1,-1.458278E1,1.5470612E0,-1.6592512E1,1.4583981E0,1E0,3.9306724E0,3.1233735E0,-1.6032001E1,3.5977292E0,2.0825922E0,-9.729986E-2,6.0770555E0,-1.1199853E1,8.9150596E-1,-1.05948765E-2,2.4149079E-2,-7.402919E-2,-4.8720688E-3,4.5564737E-2,-4.7229747E-3,-8.7698504E-2,-8.30102E-3,-3.1857607E-3,-8.234579E-2,-6.103715E-2,-2.3834067E-3,5.5751443E-2,-1.5107043E-3],"split_indices":[2,2,4,2,3,5,4,4,2,4,4,0,2,2,2,0,0,0,0,0,0,0,0,0,0,0,0,0,0],"split_type":[0,0,0,0,0,0,0,0,0,0,0,0,0,0,0,0,0,0,0,0,0,0,0,0,0,0,0,0,0],"sum_hessian":[8.538011E2,1.3733073E2,7.164704E2,8.611738E1,5.1213352E1,2.0086637E1,6.963837E2,6.074638E1,2.5370998E1,4.409533E1,7.118024E0,3.4645667E0,1.662207E1,6.6470844E2,3.1675272E1,2.2395943E1,3.8350437E1,6.380681E0,1.8990318E1,3.704573E1,7.0495977E0,2.2287846E0,4.8892393E0,1.4404686E1,2.217384E0,7.3030887E0,6.574054E2,1.2926247E1,1.8749025E1],"tree_param":{"num_deleted":"0","num_feature":"6","num_nodes":"29","size_leaf_vector":"1"}},{"base_weights":[-1.5879236E-2,-1.850228E-1,-5.4273377E-3,7.326168E-2,-4.224318E-1,7.589273E-1,-1.10902935E-2,-1.6444741E-1,3.936484E-1,-1.6239293E-1,-8.5840774E-1,9.792495E-2,2.765609E-1,3.2214376E-1,-2.1870913E-2,4.0523014E-3,-3.2634027E-2,4.5847945E-2,-2.255537E-3,5.3001538E-2,-2.1142427E-2,-9.059816E-2,-4.1540094E-2,-1.32081E-2,5.2263908E-2,1.3275542E-2,9.996122E-2,-5.7810154E-2,-1.0147941E-3],"categories":[],"categories_nodes":[],"categories_segments":[],"categories_sizes":[],"default_left":[0,0,0,0,0,0,0,0,0,0,0,0,0,0,0,0,0,0,0,0,0,0,0,0,0,0,0,0,0],"id":43,"left_children":[1,3,5,7,9,11,13,15,17,19,21,-1,23,25,27,-1,-1,-1,-1,-1,-1,-1,-1,-1,-1,-1,-1,-1,-1],"loss_changes":[1.5103599E0,3.0798945E0,3.4979873E0,1.9433085E0,2.814602E0,9.9495006E-1,2.885476E0,7.992145E-1,8.337827E-1,1.6505218E0,2.9515123E-1,0E0,8.082842E-1,3.439022E0,4.992923E0,0E0,0E0,0E0,0E0,0E0,0E0,0E0,0E0,0E0,0E0,0E0,0E0,0E0,0E0],"parents":[2147483647,0,0,1,1,2,2,3,3,4,4,5,5,6,6,7,7,8,8,9,9,10,10,12,12,13,13,14,14],"right_children":[2,4,6,8,10,12,14,16,18,20,22,-1,24,26,28,-1,-1,-1,-1,-1,-1,-1,-1,-1,-1,-1,-1,-1,-1],"split_conditions":[-1.4485422E1,-1.8919584E1,-2.2265574E1,2.5476454E1,-1.5418334E1,-1.2331255E1,2.6277462E1,-1.8369965E1,2.9911797E1,1.9679201E1,-1.5169977E1,9.792495E-2,4.382638E1,-7.799712E0,2.802792E1,4.0523014E-3,-3.2634027E-2,4.5847945E-2,-2.255537E-3,5.3001538E-2,-2.1142427E-2,-9.059816E-2,-4.1540094E-2,-1.32081E-2,5.2263908E-2,1.3275542E-2,9.996122E-2,-5.7810154E-2,-1.0147941E-3],"split_indices":[1,2,2,0,1,1,0,1,0,0,2,0,0,1,0,0,0,0,0,0,0,0,0,0,0,0,0,0,0],"split_type":[0,0,0,0,0,0,0,0,0,0,0,0,0,0,0,0,0,0,0,0,0,0,0,0,0,0,0,0,0],"sum_hessian":[8.539061E2,4.8722656E1,8.051835E2,2.3666529E1,2.505613E1,4.943334E0,8.002402E2,1.38656845E1,9.800844E0,1.6554588E1,8.501541E0,1.7338272E0,3.209507E0,2.4172577E1,7.7606757E2,7.782326E0,6.0833583E0,6.624313E0,3.1765308E0,1.2150117E0,1.5339576E1,3.4082594E0,5.0932813E0,1.7360456E0,1.4734614E0,2.1697033E1,2.4755445E0,9.036661E0,7.6703094E2],"tree_param":{"num_deleted":"0","num_feature":"6","num_nodes":"29","size_leaf_vector":"1"}},{"base_weights":[1.3303816E-2,1.8634577E-3,1.9493522E-1,6.875598E-3,-9.362316E-1,-6.6074413E-1,2.716351E-1,1.2209772E-2,-4.237004E-1,-9.822328E-3,-9.8561525E-2,-1.8394716E-2,-7.822969E-2,-3.2816646E-1,3.7919495E-1,4.115407E-3,-3.999427E-3,-7.060229E-2,6.11619E-2,6.822251E-3,-7.45527E-2,1.0296924E-1,2.1750888E-2],"categories":[],"categories_nodes":[],"categories_segments":[],"categories_sizes":[],"default_left":[0,0,0,0,0,0,0,0,0,0,0,0,0,0,0,0,0,0,0,0,0,0,0],"id":44,"left_children":[1,3,5,7,9,11,13,15,17,-1,-1,-1,-1,19,21,-1,-1,-1,-1,-1,-1,-1,-1],"loss_changes":[1.7474853E0,3.7318053E0,3.4499924E0,1.8175507E0,8.6363626E-1,3.7501252E-1,3.120595E0,1.9070843E0,5.954404E0,0E0,0E0,0E0,0E0,1.9760059E0,3.5319362E0,0E0,0E0,0E0,0E0,0E0,0E0,0E0,0E0],"parents":[2147483647,0,0,1,1,2,2,3,3,4,4,5,5,6,6,7,7,8,8,13,13,14,14],"right_children":[2,4,6,8,10,12,14,16,18,-1,-1,-1,-1,20,22,-1,-1,-1,-1,-1,-1,-1,-1],"split_conditions":[7.100455E1,3.350808E1,4.6047637E-1,6.9787094E1,5.8747902E1,4.207875E-1,8.34899E0,9.778803E-1,1.1291047E0,-9.822328E-3,-9.8561525E-2,-1.8394716E-2,-7.822969E-2,6.701101E0,1.0621908E1,4.115407E-3,-3.999427E-3,-7.060229E-2,6.11619E-2,6.822251E-3,-7.45527E-2,1.0296924E-1,2.1750888E-2],"split_indices":[0,2,3,0,0,3,2,3,3,0,0,0,0,2,2,0,0,0,0,0,0,0,0],"split_type":[0,0,0,0,0,0,0,0,0,0,0,0,0,0,0,0,0,0,0,0,0,0,0],"sum_hessian":[8.401495E2,7.9131726E2,4.8832188E1,7.8809924E2,3.2180579E0,3.3906577E0,4.5441532E1,7.794151E2,8.684113E0,1.2354654E0,1.9825925E0,2.1690726E0,1.221585E0,6.59787E0,3.8843662E1,4.7806192E2,3.013532E2,6.450534E0,2.2335784E0,4.4258113E0,2.1720586E0,2.9436328E0,3.590003E1],"tree_param":{"num_deleted":"0","num_feature":"6","num_nodes":"23","size_leaf_vector":"1"}},{"base_weights":[1.760124E-2,3.131551E-2,-2.8554752E-1,4.260945E-2,-3.162057E-1,2.8868458E-1,-5.432805E-1,4.3836364E-1,3.656543E-2,-6.145064E-1,3.1726804E-1,5.8739144E-1,-4.7203395E-1,2.9167179E-2,-6.0304666E-1,1.0478582E-3,8.9565806E-2,-6.380131E-2,3.2576125E-3,-8.454917E-2,-2.2231417E-2,-6.4627975E-2,5.5775255E-2,-2.9696913E-3,6.758378E-2,-7.084943E-2,1.9461798E-2,-9.775374E-2,-3.3241242E-2],"categories":[],"categories_nodes":[],"categories_segments":[],"categories_sizes":[],"default_left":[0,0,0,0,0,0,0,0,0,0,0,0,0,0,0,0,0,0,0,0,0,0,0,0,0,0,0,0,0],"id":45,"left_children":[1,3,5,7,9,11,13,15,17,19,21,23,25,-1,27,-1,-1,-1,-1,-1,-1,-1,-1,-1,-1,-1,-1,-1,-1],"loss_changes":[3.5485091E0,3.213937E0,5.625023E0,1.8751489E0,5.067425E0,3.0265307E0,1.6224103E0,3.4043684E0,2.7349262E0,2.3672996E0,4.3737326E0,1.499546E0,1.3886735E0,0E0,2.3506603E0,0E0,0E0,0E0,0E0,0E0,0E0,0E0,0E0,0E0,0E0,0E0,0E0,0E0,0E0],"parents":[2147483647,0,0,1,1,2,2,3,3,4,4,5,5,6,6,7,7,8,8,9,9,10,10,11,11,12,12,14,14],"right_children":[2,4,6,8,10,12,14,16,18,20,22,24,26,-1,28,-1,-1,-1,-1,-1,-1,-1,-1,-1,-1,-1,-1,-1,-1],"split_conditions":[2.3876934E1,7.326489E1,2.5772953E0,1.9679201E1,2.5831597E0,4.4932068E1,4.0490383E-1,1.6461854E0,2.0795647E1,7.741288E-1,5.439784E-1,6.450919E-1,1.1968435E0,2.9167179E-2,6.1623216E-1,1.0478582E-3,8.9565806E-2,-6.380131E-2,3.2576125E-3,-8.454917E-2,-2.2231417E-2,-6.4627975E-2,5.5775255E-2,-2.9696913E-3,6.758378E-2,-7.084943E-2,1.9461798E-2,-9.775374E-2,-3.3241242E-2],"split_indices":[2,0,4,0,4,2,3,3,0,3,3,3,3,0,3,0,0,0,0,0,0,0,0,0,0,0,0,0,0],"split_type":[0,0,0,0,0,0,0,0,0,0,0,0,0,0,0,0,0,0,0,0,0,0,0,0,0,0,0,0,0],"sum_hessian":[8.503766E2,8.14429E2,3.5947575E1,7.896441E2,2.4784906E1,1.1098931E1,2.4848644E1,1.0802197E1,7.7884186E2,1.6870558E1,7.914348E0,8.133173E0,2.9657583E0,1.2197617E0,2.3628883E1,7.2779465E0,3.5242512E0,2.9138727E0,7.7592804E2,6.3655815E0,1.0504976E1,1.7135175E0,6.2008305E0,2.6236105E0,5.5095625E0,1.7283471E0,1.2374111E0,4.2122197E0,1.9416664E1],"tree_param":{"num_deleted":"0","num_feature":"6","num_nodes":"29","size_leaf_vector":"1"}},{"base_weights":[-1.2540637E-2,-1.6674697E-2,7.902846E-1,1.1422711E-2,-1.7157419E-1,9.9215865E-2,-1.6649576E-2,9.381489E-2,7.0443247E-3,-3.594862E-1,-1.01170816E-1,-2.7629994E-2,1.5989265E-3,4.2255968E-2,-3.8979087E-2,-2.6263602E-2,1.7582334E-3],"categories":[],"categories_nodes":[],"categories_segments":[],"categories_sizes":[],"default_left":[0,0,0,0,0,0,0,0,0,0,0,0,0,0,0,0,0],"id":46,"left_children":[1,3,5,7,9,-1,-1,-1,11,13,15,-1,-1,-1,-1,-1,-1],"loss_changes":[2.8673913E0,3.7299185E0,2.2464085E0,3.6829364E0,1.704361E0,0E0,0E0,0E0,3.3103034E0,4.279764E0,2.7233417E0,0E0,0E0,0E0,0E0,0E0,0E0],"parents":[2147483647,0,0,1,1,2,2,3,3,4,4,8,8,9,9,10,10],"right_children":[2,4,6,8,10,-1,-1,-1,12,14,16,-1,-1,-1,-1,-1,-1],"split_conditions":[5.2728114E0,3.4258888E0,-1.743034E1,-2.2919968E1,3.6536076E0,9.9215865E-2,-1.6649576E-2,9.381489E-2,-1.2068031E1,-1.3972829E1,-1.33504E1,-2.7629994E-2,1.5989265E-3,4.2255968E-2,-3.8979087E-2,-2.6263602E-2,1.7582334E-3],"split_indices":[4,4,1,2,4,0,0,0,1,1,1,0,0,0,0,0,0],"split_type":[0,0,0,0,0,0,0,0,0,0,0,0,0,0,0,0,0],"sum_hessian":[8.5898047E2,8.5555414E2,3.4263525E0,7.249761E2,1.3057805E2,2.1950228E0,1.2313297E0,1.7208704E0,7.2325525E2,3.4469692E1,9.610835E1,2.4710106E1,6.985451E2,3.9422777E0,3.0527416E1,3.3204037E1,6.2904316E1],"tree_param":{"num_deleted":"0","num_feature":"6","num_nodes":"17","size_leaf_vector":"1"}},{"base_weights":[1.3980827E-2,6.591686E-3,4.2892396E-1,1.2147838E-1,-1.3717628E-2,7.460813E-1,-8.4997915E-2,-6.3603483E-3,4.1391042E-1,-5.40138E-1,-6.2863384E-3,8.112747E-2,1.5542722E-1,2.2651504E-1,-4.4001293E-1,-1.9177508E-2,1.2916847E-2,1.7095162E-3,5.3681243E-2,6.413601E-2,-6.490036E-2,-4.7018016E-3,2.7814223E-3,4.7823284E-2,-2.3001945E-2,4.572113E-2,-2.6988195E-2,-1.0357418E-2,-4.400257E-2],"categories":[],"categories_nodes":[],"categories_segments":[],"categories_sizes":[],"default_left":[0,0,0,0,0,0,0,0,0,0,0,0,0,0,0,0,0,0,0,0,0,0,0,0,0,0,0,0,0],"id":47,"left_children":[1,3,5,7,9,11,13,15,17,19,21,-1,23,25,27,-1,-1,-1,-1,-1,-1,-1,-1,-1,-1,-1,-1,-1,-1],"loss_changes":[2.632199E0,1.974197E0,2.511706E0,4.7540627E0,2.8104768E0,1.3289661E0,8.3288795E-1,3.540674E0,3.8890023E0,4.288662E0,1.532568E0,0E0,9.776314E-1,1.0081884E0,4.6266794E-2,0E0,0E0,0E0,0E0,0E0,0E0,0E0,0E0,0E0,0E0,0E0,0E0,0E0,0E0],"parents":[2147483647,0,0,1,1,2,2,3,3,4,4,5,5,6,6,7,7,8,8,9,9,10,10,12,12,13,13,14,14],"right_children":[2,4,6,8,10,12,14,16,18,20,22,-1,24,26,28,-1,-1,-1,-1,-1,-1,-1,-1,-1,-1,-1,-1,-1,-1],"split_conditions":[3.0529573E1,-1.2259585E1,2.4595108E0,-1.458278E1,-1.299406E1,9.2249453E-1,3.350808E1,3.0502198E0,8.019475E-1,-1.8369965E1,6.1694604E-1,8.112747E-2,1.4455095E1,1.06277075E1,7.387426E-1,-1.9177508E-2,1.2916847E-2,1.7095162E-3,5.3681243E-2,6.413601E-2,-6.490036E-2,-4.7018016E-3,2.7814223E-3,4.7823284E-2,-2.3001945E-2,4.572113E-2,-2.6988195E-2,-1.0357418E-2,-4.400257E-2],"split_indices":[2,2,4,2,1,3,2,4,3,1,1,0,1,1,3,0,0,0,0,0,0,0,0,0,0,0,0,0,0],"split_type":[0,0,0,0,0,0,0,0,0,0,0,0,0,0,0,0,0,0,0,0,0,0,0,0,0,0,0,0,0],"sum_hessian":[8.5841394E2,8.4439325E2,1.4020732E1,1.26097496E2,7.182957E2,8.390779E0,5.6299534E0,8.8421616E1,3.767588E1,9.000921E0,7.092948E2,5.2786613E0,3.112117E0,3.1914911E0,2.4384623E0,3.6809216E1,5.16124E1,1.5339321E1,2.2336561E1,1.1839851E0,7.816936E0,3.1111462E2,3.981802E2,1.3821938E0,1.7299232E0,1.971611E0,1.21988E0,1.2073407E0,1.2311215E0],"tree_param":{"num_deleted":"0","num_feature":"6","num_nodes":"29","size_leaf_vector":"1"}},{"base_weights":[-6.8739667E-3,2.327677E-3,-2.3457053E-1,-7.0030564E-3,3.5350466E-1,-4.4389597E-1,5.946682E-1,1.5519116E-3,-8.7711346E-1,-1.8061155E-1,4.5750862E-1,-2.0045611E-1,-6.988782E-1,6.452137E-2,-1.8744238E-2,-8.860039E-5,5.7808172E-2,-8.3629966E-2,-1.4364866E-2,-5.752149E-2,2.262734E-2,7.050061E-2,1.794478E-2,-5.010203E-2,6.610241E-2,-6.758709E-2,1.2637034E-2],"categories":[],"categories_nodes":[],"categories_segments":[],"categories_sizes":[],"default_left":[0,0,0,0,0,0,0,0,0,0,0,0,0,0,0,0,0,0,0,0,0,0,0,0,0,0,0],"id":48,"left_children":[1,3,5,7,9,11,13,15,17,19,21,23,25,-1,-1,-1,-1,-1,-1,-1,-1,-1,-1,-1,-1,-1,-1],"loss_changes":[1.8144116E0,2.7323096E0,6.1026607E0,6.049519E0,1.281502E0,1.5625467E0,1.4546366E0,1.5455979E0,7.410083E-1,1.2599795E0,1.6153643E0,7.265574E0,1.7586832E0,0E0,0E0,0E0,0E0,0E0,0E0,0E0,0E0,0E0,0E0,0E0,0E0,0E0,0E0],"parents":[2147483647,0,0,1,1,2,2,3,3,4,4,5,5,6,6,7,7,8,8,9,9,10,10,11,11,12,12],"right_children":[2,4,6,8,10,12,14,16,18,20,22,24,26,-1,-1,-1,-1,-1,-1,-1,-1,-1,-1,-1,-1,-1,-1],"split_conditions":[7.326489E1,7.054009E1,3.0529573E1,6.9787094E1,8.180499E0,9.067283E-1,1.6035172E1,1.6761883E1,1.2398266E0,7.1406136E1,1.3814296E1,7.741288E-1,8.0050735E1,6.452137E-2,-1.8744238E-2,-8.860039E-5,5.7808172E-2,-8.3629966E-2,-1.4364866E-2,-5.752149E-2,2.262734E-2,7.050061E-2,1.794478E-2,-5.010203E-2,6.610241E-2,-6.758709E-2,1.2637034E-2],"split_indices":[0,0,2,0,2,3,1,1,3,0,2,3,0,0,0,0,0,0,0,0,0,0,0,0,0,0,0],"split_type":[0,0,0,0,0,0,0,0,0,0,0,0,0,0,0,0,0,0,0,0,0,0,0,0,0,0,0],"sum_hessian":[8.647315E2,8.320948E2,3.2636726E1,8.1151306E2,2.0581753E1,2.642974E1,6.2069874E0,8.046004E2,6.9126534E0,3.2344632E0,1.734729E1,1.4434658E1,1.1995083E1,4.965188E0,1.2417992E0,8.026385E2,1.9618706E0,5.1675286E0,1.7451249E0,1.2411484E0,1.9933147E0,5.171353E0,1.2175938E1,1.0478806E1,3.955852E0,1.0261135E1,1.7339474E0],"tree_param":{"num_deleted":"0","num_feature":"6","num_nodes":"27","size_leaf_vector":"1"}},{"base_weights":[-6.9312965E-3,2.7305193E-2,-7.986054E-2,-6.107971E-2,1.04262784E-1,-2.1425875E-1,4.640078E-2,1.18095264E-1,-1.6304791E-1,8.064428E-2,7.1310747E-1,4.6992447E-2,-4.971359E-1,-5.10715E-1,9.2958696E-2,2.7803965E-2,-1.8564355E-2,7.291831E-4,-2.2930453E-2,3.6156747E-2,4.695439E-3,1.03936076E-1,2.430901E-2,-1.9665033E-2,2.6073273E-2,-6.395391E-2,-2.0063292E-2,5.174365E-2,-5.7651527E-2,1.1045482E-2,-3.395812E-2],"categories":[],"categories_nodes":[],"categories_segments":[],"categories_sizes":[],"default_left":[0,0,0,0,0,0,0,0,0,0,0,0,0,0,0,0,0,0,0,0,0,0,0,0,0,0,0,0,0,0,0],"id":49,"left_children":[1,3,5,7,9,11,13,15,17,19,21,23,25,27,29,-1,-1,-1,-1,-1,-1,-1,-1,-1,-1,-1,-1,-1,-1,-1,-1],"loss_changes":[2.1509652E0,3.9950511E0,4.6797743E0,5.0174284E0,4.4554787E0,9.887747E0,3.7492077E0,8.099044E0,3.721054E0,2.4451792E0,2.3857126E0,5.8220086E0,4.5783195E0,3.1781034E0,3.1525846E0,0E0,0E0,0E0,0E0,0E0,0E0,0E0,0E0,0E0,0E0,0E0,0E0,0E0,0E0,0E0,0E0],"parents":[2147483647,0,0,1,1,2,2,3,3,4,4,5,5,6,6,7,7,8,8,9,9,10,10,11,11,12,12,13,13,14,14],"right_children":[2,4,6,8,10,12,14,16,18,20,22,24,26,28,30,-1,-1,-1,-1,-1,-1,-1,-1,-1,-1,-1,-1,-1,-1,-1,-1],"split_conditions":[5.7792263E1,4.3190765E1,7.2625213E0,2.4885747E0,4.2065253E0,6.0770555E0,-2.7475002E-1,3.859119E1,-1.2068031E1,4.4155243E1,-2.1759195E0,4.3328586E0,1.226264E1,6.0423923E1,3.446301E0,2.7803965E-2,-1.8564355E-2,7.291831E-4,-2.2930453E-2,3.6156747E-2,4.695439E-3,1.03936076E-1,2.430901E-2,-1.9665033E-2,2.6073273E-2,-6.395391E-2,-2.0063292E-2,5.174365E-2,-5.7651527E-2,1.1045482E-2,-3.395812E-2],"split_indices":[0,0,1,4,4,2,2,0,1,0,2,1,2,0,4,0,0,0,0,0,0,0,0,0,0,0,0,0,0,0,0],"split_type":[0,0,0,0,0,0,0,0,0,0,0,0,0,0,0,0,0,0,0,0,0,0,0,0,0,0,0,0,0,0,0],"sum_hessian":[8.596012E2,5.8540814E2,2.7419308E2,2.7257043E2,3.1283768E2,1.3247928E2,1.4171382E2,9.880159E1,1.7376886E2,3.0224533E2,1.0592347E1,6.9305786E1,6.3173485E1,1.0160692E1,1.3155313E2,5.9692387E1,3.91092E1,7.29996E1,1.0076926E2,1.57772665E1,2.8646805E2,3.4610417E0,7.1313057E0,3.3869415E1,3.543637E1,2.735779E1,3.5815697E1,1.2403897E0,8.920302E0,1.2167841E2,9.874718E0],"tree_param":{"num_deleted":"0","num_feature":"6","num_nodes":"31","size_leaf_vector":"1"}},{"base_weights":[9.784645E-3,-1.22702755E-2,1.2233743E-1,1.2821333E-3,-5.258796E-1,5.1050615E-1,1.9253338E-2,-1.4283114E-2,4.9112216E-1,-7.964778E-1,3.641136E-1,-8.1413746E-2,6.5887916E-1,6.3576525E-1,-3.2184165E-2,1.849035E-3,-1.3117596E-2,-4.7970418E-2,4.700627E-2,-3.4588464E-2,-1.1211361E-1,-3.4880158E-2,9.423881E-2,8.7013684E-2,2.3899099E-2,-1.8741906E-2,7.424566E-2,-1.1860432E-2,1.8900469E-2],"categories":[],"categories_nodes":[],"categories_segments":[],"categories_sizes":[],"default_left":[0,0,0,0,0,0,0,0,0,0,0,0,0,0,0,0,0,0,0,0,0,0,0,0,0,0,0,0,0],"id":50,"left_children":[1,3,5,7,9,11,13,15,17,19,21,-1,23,25,27,-1,-1,-1,-1,-1,-1,-1,-1,-1,-1,-1,-1,-1,-1],"loss_changes":[2.1216884E0,4.9780517E0,5.59346E0,5.326527E0,4.7178555E0,7.3242764E0,3.5622897E0,3.7943997E0,2.6159592E0,2.5688238E0,3.7519813E0,0E0,3.8994102E0,2.4170263E0,3.2766857E0,0E0,0E0,0E0,0E0,0E0,0E0,0E0,0E0,0E0,0E0,0E0,0E0,0E0,0E0],"parents":[2147483647,0,0,1,1,2,2,3,3,4,4,5,5,6,6,