{"learner":{"attributes":{},"feature_names":[],"feature_types":[],"gradient_booster":{"model":{"cats":{"enc":[],"feature_segments":[],"sorted_idx":[]},"gbtree_model_param":{"num_parallel_tree":"1","num_trees":"150"},"iteration_indptr":[0,1,2,3,4,5,6,7,8,9,10,11,12,13,14,15,16,17,18,19,20,21,22,23,24,25,26,27,28,29,30,31,32,33,34,35,36,37,38,39,40,41,42,43,44,45,46,47,48,49,50,51,52,53,54,55,56,57,58,59,60,61,62,63,64,65,66,67,68,69,70,71,72,73,74,75,76,77,78,79,80,81,82,83,84,85,86,87,88,89,90,91,92,93,94,95,96,97,98,99,100,101,102,103,104,105,106,107,108,109,110,111,112,113,114,115,116,117,118,119,120,121,122,123,124,125,126,127,128,129,130,131,132,133,134,135,136,137,138,139,140,141,142,143,144,145,146,147,148,149,150],"tree_info":[0,0,0,0,0,0,0,0,0,0,0,0,0,0,0,0,0,0,0,0,0,0,0,0,0,0,0,0,0,0,0,0,0,0,0,0,0,0,0,0,0,0,0,0,0,0,0,0,0,0,0,0,0,0,0,0,0,0,0,0,0,0,0,0,0,0,0,0,0,0,0,0,0,0,0,0,0,0,0,0,0,0,0,0,0,0,0,0,0,0,0,0,0,0,0,0,0,0,0,0,0,0,0,0,0,0,0,0,0,0,0,0,0,0,0,0,0,0,0,0,0,0,0,0,0,0,0,0,0,0,0,0,0,0,0,0,0,0,0,0,0,0,0,0,0,0,0,0,0,0],"trees":[{"base_weights":[-1.2010108E-2,-3.1872943E-2,1.7764224E-1,3.9730093E-1,-3.562907E-2,-2.7520119E-3,2.4781172E-1,9.9806E-2,1.612519E-1,-1.43919E-1,-1.627537E-2,1.814736E-1,-2.693881E-1,3.3670652E-1,-2.1088496E-2,2.221634E-2,-4.228051E-2,-4.804789E-2,-1.0077564E-2,-2.1008123E-3,7.980449E-3,-2.6394238E-3,2.705592E-2,-3.8110867E-2,2.0437611E-2,1.693259E-2,4.045829E-2,2.065199E-2,-3.892449E-2],"categories":[],"categories_nodes":[],"categories_segments":[],"categories_sizes":[],"default_left":[0,0,0,0,0,0,0,0,0,0,0,0,0,0,0,0,0,0,0,0,0,0,0,0,0,0,0,0,0],"id":0,"left_children":[1,3,5,7,9,11,13,-1,15,17,19,21,23,25,27,-1,-1,-1,-1,-1,-1,-1,-1,-1,-1,-1,-1,-1,-1],"loss_changes":[1.7949888E1,6.966436E0,5.718999E0,7.3253026E0,8.959852E0,6.311828E0,7.781807E0,0E0,2.5966458E0,5.2381306E0,4.206969E0,2.5656905E0,5.8255253E0,5.0607204E0,1.0751158E1,0E0,0E0,0E0,0E0,0E0,0E0,0E0,0E0,0E0,0E0,0E0,0E0,0E0,0E0],"parents":[2147483647,0,0,1,1,2,2,3,3,4,4,5,5,6,6,8,8,9,9,10,10,11,11,12,12,13,13,14,14],"right_children":[2,4,6,8,10,12,14,-1,16,18,20,22,24,26,28,-1,-1,-1,-1,-1,-1,-1,-1,-1,-1,-1,-1,-1,-1],"split_conditions":[4.3971395E0,1.5436976E-1,6.48021E-1,-1.1370296E1,4.8439172E-1,5.1293516E-1,1.40353775E1,9.9806E-2,1.7294079E1,-1.6364748E1,2.3177002E1,-8.309957E-1,5.2145314E0,-5.0465355E0,1.265754E0,2.221634E-2,-4.228051E-2,-4.804789E-2,-1.0077564E-2,-2.1008123E-3,7.980449E-3,-2.6394238E-3,2.705592E-2,-3.8110867E-2,2.0437611E-2,1.693259E-2,4.045829E-2,2.065199E-2,-3.892449E-2],"split_indices":[4,3,3,2,3,3,2,0,2,2,2,2,4,2,3,0,0,0,0,0,0,0,0,0,0,0,0,0,0],"split_type":[0,0,0,0,0,0,0,0,0,0,0,0,0,0,0,0,0,0,0,0,0,0,0,0,0,0,0,0,0],"sum_hessian":[4.7624907E3,4.3117417E3,4.5074915E2,3.649993E1,4.2752417E3,1.26499756E2,3.242494E2,6.9999866E0,2.9499943E1,6.472488E2,3.6279932E3,7.4999855E1,5.14999E1,2.4349954E2,8.074985E1,2.574995E1,3.7499928E0,2.3249956E1,6.239988E2,3.3412437E3,2.8674945E2,3.1999939E1,4.2999916E1,3.699993E1,1.4499972E1,1.4124973E2,1.022498E2,5.0749905E1,2.9999943E1],"tree_param":{"num_deleted":"0","num_feature":"6","num_nodes":"29","size_leaf_vector":"1"}},{"base_weights":[2.6641062E-3,-1.7464602E-2,1.261153E-1,-1.5447646E-1,-5.649512E-3,1.510577E-1,-2.772724E-1,3.455179E-2,-3.273958E-1,2.3142944E-1,-2.0545242E-2,1.12423226E-1,5.0238425E-1,6.0423747E-2,-4.8649582E-1,-3.5285443E-2,6.6559073E-3,1.5403237E-2,-3.0958688E-2,1.299122E-2,4.8046887E-2,-6.6561475E-3,8.092805E-4,1.2401682E-2,-1.3678513E-2,8.623305E-2,3.0834012E-2,-4.8817795E-2,3.1832166E-2,-5.9779023E-4,-5.272733E-2],"categories":[],"categories_nodes":[],"categories_segments":[],"categories_sizes":[],"default_left":[0,0,0,0,0,0,0,0,0,0,0,0,0,0,0,0,0,0,0,0,0,0,0,0,0,0,0,0,0,0,0],"id":1,"left_children":[1,3,5,7,9,11,13,15,17,19,21,23,25,27,29,-1,-1,-1,-1,-1,-1,-1,-1,-1,-1,-1,-1,-1,-1,-1,-1],"loss_changes":[1.1913878E1,6.6725864E0,6.804635E0,1.0707552E1,1.3410963E1,8.544272E0,2.819717E0,3.674848E0,5.372265E0,5.6241064E0,6.8644996E0,6.933885E0,3.790907E0,3.8634858E0,2.0202885E0,0E0,0E0,0E0,0E0,0E0,0E0,0E0,0E0,0E0,0E0,0E0,0E0,0E0,0E0,0E0,0E0],"parents":[2147483647,0,0,1,1,2,2,3,3,4,4,5,5,6,6,7,7,8,8,9,9,10,10,11,11,12,12,13,13,14,14],"right_children":[2,4,6,8,10,12,14,16,18,20,22,24,26,28,30,-1,-1,-1,-1,-1,-1,-1,-1,-1,-1,-1,-1,-1,-1,-1,-1],"split_conditions":[4.0702047E0,-8.436395E0,6.7812256E1,-1.0833627E1,3.7184338E1,1.2602376E1,1.9443624E1,2.530226E0,2.7258757E1,3.6467545E1,-3.1070915E-1,1.3212963E1,1.4433379E1,4.2452364E0,4.4660244E0,-3.5285443E-2,6.6559073E-3,1.5403237E-2,-3.0958688E-2,1.299122E-2,4.8046887E-2,-6.6561475E-3,8.092805E-4,1.2401682E-2,-1.3678513E-2,8.623305E-2,3.0834012E-2,-4.8817795E-2,3.1832166E-2,-5.9779023E-4,-5.272733E-2],"split_indices":[4,1,0,1,0,1,1,4,0,0,1,2,2,4,4,0,0,0,0,0,0,0,0,0,0,0,0,0,0,0,0],"split_type":[0,0,0,0,0,0,0,0,0,0,0,0,0,0,0,0,0,0,0,0,0,0,0,0,0,0,0,0,0,0,0],"sum_hessian":[4.792598E3,4.121454E3,6.711442E2,3.2623587E2,3.795218E3,6.326514E2,3.8492783E1,1.5624045E2,1.6999542E2,2.2349867E2,3.5717195E3,5.711622E2,6.148925E1,1.49974375E1,2.3495346E1,1.3749135E1,1.4249132E2,1.7249847E1,1.5274557E2,1.8949876E2,3.3999912E1,1.1729891E3,2.3987302E3,4.969239E2,7.423831E1,8.9976635E0,5.249159E1,4.7499747E0,1.0247462E1,6.4996033E0,1.699574E1],"tree_param":{"num_deleted":"0","num_feature":"6","num_nodes":"31","size_leaf_vector":"1"}},{"base_weights":[1.1160659E-3,-1.6646463E-2,1.12652324E-1,4.0584067E-1,-2.035372E-2,1.3502334E-1,-2.6122397E-1,-6.5022446E-2,5.118796E-1,-5.9225347E-2,6.9322335E-3,4.74891E-2,2.67616E-1,-5.25817E-2,-8.443935E-1,-1.2035042E-3,5.316049E-2,-1.2595217E-3,-1.2029392E-2,5.811683E-3,-1.4273701E-3,-5.6223283E-3,1.4321904E-2,1.780135E-2,6.2289562E-2,3.573296E-2,-2.5266428E-2,-1.2195538E-1,-1.7560571E-2],"categories":[],"categories_nodes":[],"categories_segments":[],"categories_sizes":[],"default_left":[0,0,0,0,0,0,0,0,0,0,0,0,0,0,0,0,0,0,0,0,0,0,0,0,0,0,0,0,0],"id":2,"left_children":[1,3,5,7,9,11,13,-1,15,17,19,21,23,25,27,-1,-1,-1,-1,-1,-1,-1,-1,-1,-1,-1,-1,-1,-1],"loss_changes":[9.421091E0,6.433269E0,5.4991837E0,5.033128E0,4.31448E0,7.148941E0,4.484582E0,0E0,2.702818E0,6.646128E0,3.8934507E0,5.788868E0,5.476511E0,3.8841455E0,3.8051262E0,0E0,0E0,0E0,0E0,0E0,0E0,0E0,0E0,0E0,0E0,0E0,0E0,0E0,0E0],"parents":[2147483647,0,0,1,1,2,2,3,3,4,4,5,5,6,6,8,8,9,9,10,10,11,11,12,12,13,13,14,14],"right_children":[2,4,6,8,10,12,14,-1,16,18,20,22,24,26,28,-1,-1,-1,-1,-1,-1,-1,-1,-1,-1,-1,-1,-1,-1],"split_conditions":[4.0911894E0,1.5436976E-1,6.7812256E1,2.9831175E1,-3.8251263E-1,9.965093E-1,2.0522385E0,-6.5022446E-2,2.1161432E0,4.4679764E1,5.4460213E1,-2.049775E0,1.2403629E1,4.4660244E0,2.519524E0,-1.2035042E-3,5.316049E-2,-1.2595217E-3,-1.2029392E-2,5.811683E-3,-1.4273701E-3,-5.6223283E-3,1.4321904E-2,1.780135E-2,6.2289562E-2,3.573296E-2,-2.5266428E-2,-1.2195538E-1,-1.7560571E-2],"split_indices":[4,3,0,0,1,3,3,0,4,0,0,1,1,4,3,0,0,0,0,0,0,0,0,0,0,0,0,0,0],"split_type":[0,0,0,0,0,0,0,0,0,0,0,0,0,0,0,0,0,0,0,0,0,0,0,0,0,0,0,0,0],"sum_hessian":[4.75338E3,4.1011143E3,6.522657E2,3.473003E1,4.0663843E3,6.160434E2,3.622232E1,2.2466104E0,3.248342E1,1.6766519E3,2.3897324E3,3.7188962E2,2.4415376E2,2.7480652E1,8.741669E0,7.4982176E0,2.4985203E1,1.1359125E3,5.407394E2,6.537454E2,1.735987E3,1.9645837E2,1.7543124E2,2.2567229E2,1.8481478E1,9.247085E0,1.8233568E1,3.4967206E0,5.244948E0],"tree_param":{"num_deleted":"0","num_feature":"6","num_nodes":"29","size_leaf_vector":"1"}},{"base_weights":[2.008772E-3,3.4661047E-2,-3.441314E-2,-2.1507242E-3,1.411712E-1,-8.709077E-2,2.9281754E-2,-3.0658513E-2,1.0614675E-1,2.1153834E-2,2.5366336E-1,2.0384735E-1,-1.0478404E-1,9.806356E-1,2.1766365E-2,-1.7451578E-3,-2.82799E-2,-4.7506666E-4,1.9577963E-2,2.3407495E-2,-5.483933E-3,-5.3190246E-2,2.2784028E-2,2.1801936E-2,-8.153057E-2,-3.3151265E-2,-6.9445395E-3,-1.8341191E-2,9.9098735E-2,5.581943E-3,-5.489524E-3],"categories":[],"categories_nodes":[],"categories_segments":[],"categories_sizes":[],"default_left":[0,0,0,0,0,0,0,0,0,0,0,0,0,0,0,0,0,0,0,0,0,0,0,0,0,0,0,0,0,0,0],"id":3,"left_children":[1,3,5,7,9,11,13,15,17,19,21,23,25,27,29,-1,-1,-1,-1,-1,-1,-1,-1,-1,-1,-1,-1,-1,-1,-1,-1],"loss_changes":[5.6830025E0,9.879486E0,7.5819597E0,5.787303E0,8.732266E0,6.387205E0,7.294958E0,4.2290215E0,6.0688376E0,7.670738E0,9.741215E0,6.260751E0,6.4561777E0,2.7814374E0,4.4146934E0,0E0,0E0,0E0,0E0,0E0,0E0,0E0,0E0,0E0,0E0,0E0,0E0,0E0,0E0,0E0,0E0],"parents":[2147483647,0,0,1,1,2,2,3,3,4,4,5,5,6,6,7,7,8,8,9,9,10,10,11,11,12,12,13,13,14,14],"right_children":[2,4,6,8,10,12,14,16,18,20,22,24,26,28,30,-1,-1,-1,-1,-1,-1,-1,-1,-1,-1,-1,-1,-1,-1,-1,-1],"split_conditions":[3.9480433E0,-2.8113917E-1,6.4001412E0,3.913485E0,5.0800873E1,3.7989185E1,5.147345E1,6.4102295E1,-7.6755605E0,3.962981E1,1.7178274E0,5.837012E0,4.417475E0,4.8033154E1,3.2796032E0,-1.7451578E-3,-2.82799E-2,-4.7506666E-4,1.9577963E-2,2.3407495E-2,-5.483933E-3,-5.3190246E-2,2.2784028E-2,2.1801936E-2,-8.153057E-2,-3.3151265E-2,-6.9445395E-3,-1.8341191E-2,9.9098735E-2,5.581943E-3,-5.489524E-3],"split_indices":[2,2,1,4,0,0,0,0,1,0,4,4,2,0,4,0,0,0,0,0,0,0,0,0,0,0,0,0,0,0,0],"split_type":[0,0,0,0,0,0,0,0,0,0,0,0,0,0,0,0,0,0,0,0,0,0,0,0,0,0,0,0,0,0,0],"sum_hessian":[4.7766074E3,2.5186677E3,2.2579395E3,1.8724844E3,6.4618353E2,1.235651E3,1.02228845E3,1.4828594E3,3.8962497E2,3.1320966E2,3.3297388E2,7.0234474E1,1.1654165E3,6.997593E0,1.0152909E3,1.4443595E3,3.84999E1,2.1593149E2,1.7369348E2,7.723524E1,2.3597441E2,1.024985E1,3.2272403E2,6.723598E1,2.9984975E0,6.274611E1,1.1026704E3,1.2499349E0,5.747658E0,6.632407E2,3.5205014E2],"tree_param":{"num_deleted":"0","num_feature":"6","num_nodes":"31","size_leaf_vector":"1"}},{"base_weights":[6.819924E-5,2.7133653E-1,-6.422267E-3,6.1167885E-2,5.737275E-1,3.9690784E-1,-9.761154E-3,-3.9051134E-2,7.298943E-1,7.98777E-1,4.1150185E-1,1.2734796E0,1.6044755E-1,-4.110784E-2,1.318598E-2,-1.0312681E-2,4.9608152E-2,-6.9456163E-4,8.2137376E-2,4.185499E-3,8.816429E-2,4.7032595E-2,-2.7844269E-2,1.0051137E-2,1.260117E-1,2.4299877E-2,-3.236688E-2,-7.3795086E-3,4.4707414E-3,6.862456E-3,-1.4987856E-3],"categories":[],"categories_nodes":[],"categories_segments":[],"categories_sizes":[],"default_left":[0,0,0,0,0,0,0,0,0,0,0,0,0,0,0,0,0,0,0,0,0,0,0,0,0,0,0,0,0,0,0],"id":4,"left_children":[1,3,5,7,9,11,13,15,17,19,21,23,25,27,29,-1,-1,-1,-1,-1,-1,-1,-1,-1,-1,-1,-1,-1,-1,-1,-1],"loss_changes":[8.380952E0,7.03399E0,6.264431E0,4.501461E0,1.3320713E0,7.712113E0,3.3178222E0,3.5740266E0,1.9270163E0,4.015562E0,4.0229316E0,2.561777E0,2.6510293E0,9.67362E0,6.173319E0,0E0,0E0,0E0,0E0,0E0,0E0,0E0,0E0,0E0,0E0,0E0,0E0,0E0,0E0,0E0,0E0],"parents":[2147483647,0,0,1,1,2,2,3,3,4,4,5,5,6,6,7,7,8,8,9,9,10,10,11,11,12,12,13,13,14,14],"right_children":[2,4,6,8,10,12,14,16,18,20,22,24,26,28,30,-1,-1,-1,-1,-1,-1,-1,-1,-1,-1,-1,-1,-1,-1,-1,-1],"split_conditions":[2.7258757E1,1.265754E0,1.5436976E-1,-9.933458E0,-1.5804902E1,-1.1370296E1,-3.8251263E-1,-5.0465355E0,6.685271E-1,2.0664953E1,2.519524E0,3.268751E1,5.689868E0,1.0273273E0,3.9480433E0,-1.0312681E-2,4.9608152E-2,-6.9456163E-4,8.2137376E-2,4.185499E-3,8.816429E-2,4.7032595E-2,-2.7844269E-2,1.0051137E-2,1.260117E-1,2.4299877E-2,-3.236688E-2,-7.3795086E-3,4.4707414E-3,6.862456E-3,-1.4987856E-3],"split_indices":[0,3,3,1,1,2,1,2,3,0,3,0,1,3,2,0,0,0,0,0,0,0,0,0,0,0,0,0,0,0,0],"split_type":[0,0,0,0,0,0,0,0,0,0,0,0,0,0,0,0,0,0,0,0,0,0,0,0,0,0,0,0,0,0,0],"sum_hessian":[4.758135E3,1.1023113E2,4.647904E3,6.574154E1,4.4489594E1,3.719304E1,4.610711E3,5.7992123E1,7.749415E0,1.6992577E1,2.7497019E1,6.969843E0,3.0223198E1,1.9483696E3,2.662341E3,5.174284E1,6.2492795E0,2.4998524E0,5.2495627E0,5.2480364E0,1.1744539E1,2.24979E1,4.999119E0,1.7453347E0,5.2245083E0,2.447771E1,5.745487E0,1.2757957E3,6.725739E2,8.1260846E2,1.8497327E3],"tree_param":{"num_deleted":"0","num_feature":"6","num_nodes":"31","size_leaf_vector":"1"}},{"base_weights":[-2.1249389E-4,5.1413834E-1,-4.3632956E-3,-3.221631E-2,6.0642016E-1,-2.3049321E-2,8.743839E-2,3.6574432E-1,-6.516551E-2,8.851564E-2,4.478166E-1,-1.7790752E-2,-3.9195827E-1,1.1520971E-1,-4.0777126E-1,8.621881E-2,-1.2686802E-2,7.327289E-3,4.2047437E-2,-3.0150958E-3,3.3791352E-3,-2.1508932E-2,-5.3326078E-2,3.4222016E-3,1.7854134E-2,-6.8497665E-2,-2.3734365E-2],"categories":[],"categories_nodes":[],"categories_segments":[],"categories_sizes":[],"default_left":[0,0,0,0,0,0,0,0,0,0,0,0,0,0,0,0,0,0,0,0,0,0,0,0,0,0,0],"id":5,"left_children":[1,3,5,7,9,11,13,15,-1,-1,17,19,21,23,25,-1,-1,-1,-1,-1,-1,-1,-1,-1,-1,-1,-1],"loss_changes":[1.0234387E1,1.9543676E0,8.159246E0,2.320027E0,2.1121397E0,7.6593246E0,1.1110068E1,2.035656E0,0E0,0E0,6.9001865E-1,4.6568613E0,1.6966553E0,5.9533978E0,1.8850751E0,0E0,0E0,0E0,0E0,0E0,0E0,0E0,0E0,0E0,0E0,0E0,0E0],"parents":[2147483647,0,0,1,1,2,2,3,3,4,4,5,5,6,6,7,7,10,10,11,11,12,12,13,13,14,14],"right_children":[2,4,6,8,10,12,14,16,-1,-1,18,20,22,24,26,-1,-1,-1,-1,-1,-1,-1,-1,-1,-1,-1,-1],"split_conditions":[1.5436976E-1,2.0228207E0,3.9310308E0,1.927965E0,2.3521378E0,3.8798232E0,6.834539E1,4.848062E1,-6.516551E-2,8.851564E-2,2.6039062E0,6.1278988E1,5.3793446E1,9.965093E-1,6.3760465E-1,8.621881E-2,-1.2686802E-2,7.327289E-3,4.2047437E-2,-3.0150958E-3,3.3791352E-3,-2.1508932E-2,-5.3326078E-2,3.4222016E-3,1.7854134E-2,-6.8497665E-2,-2.3734365E-2],"split_indices":[3,4,4,4,4,4,0,0,0,0,4,0,0,3,3,0,0,0,0,0,0,0,0,0,0,0,0],"split_type":[0,0,0,0,0,0,0,0,0,0,0,0,0,0,0,0,0,0,0,0,0,0,0,0,0,0,0],"sum_hessian":[4.791645E3,3.737535E1,4.7542695E3,5.4947224E0,3.1880627E1,3.950835E3,8.034346E2,3.995057E0,1.4996654E0,6.238016E0,2.564261E1,3.896343E3,5.4491756E1,7.6149725E2,4.1937363E1,1.2466996E0,2.7483575E0,4.9855933E0,2.0657017E1,2.926633E3,9.697102E2,3.899251E1,1.5499245E1,4.5658353E2,3.049137E2,6.9945927E0,3.4942772E1],"tree_param":{"num_deleted":"0","num_feature":"6","num_nodes":"27","size_leaf_vector":"1"}},{"base_weights":[6.9120387E-4,-1.8815972E-2,1.192457E-1,-3.80289E-2,3.9337073E-2,2.9486847E-1,5.366068E-2,-2.4116626E-2,-1.419417E-1,5.8960843E-1,3.0599255E-2,5.183922E-2,4.3870392E-1,-2.7207547E-1,1.0783002E-1,-3.7937441E-3,8.021226E-3,-3.42261E-2,-4.2418814E-3,7.013449E-2,-1.6237756E-2,-7.8562595E-2,3.1624793E-3,1.18434355E-2,-3.9676666E-2,2.0893836E-2,5.4961987E-2,-1.2685003E-2,-7.49914E-2,1.0893143E-2,-3.619592E-2],"categories":[],"categories_nodes":[],"categories_segments":[],"categories_sizes":[],"default_left":[0,0,0,0,0,0,0,0,0,0,0,0,0,0,0,0,0,0,0,0,0,0,0,0,0,0,0,0,0,0,0],"id":6,"left_children":[1,3,5,7,9,11,13,15,17,19,21,23,25,27,29,-1,-1,-1,-1,-1,-1,-1,-1,-1,-1,-1,-1,-1,-1,-1,-1],"loss_changes":[1.0958052E1,4.5475554E0,7.69547E0,4.418701E0,4.842714E0,6.332738E0,8.651942E0,7.8282127E0,9.153439E0,3.7608538E0,9.048918E0,3.695586E0,4.8497887E0,5.135042E0,6.72457E0,0E0,0E0,0E0,0E0,0E0,0E0,0E0,0E0,0E0,0E0,0E0,0E0,0E0,0E0,0E0,0E0],"parents":[2147483647,0,0,1,1,2,2,3,3,4,4,5,5,6,6,7,7,8,8,9,9,10,10,11,11,12,12,13,13,14,14],"right_children":[2,4,6,8,10,12,14,16,18,20,22,24,26,28,30,-1,-1,-1,-1,-1,-1,-1,-1,-1,-1,-1,-1,-1,-1,-1,-1],"split_conditions":[4.0702047E0,6.1100708E1,3.962981E1,4.8649306E0,1.9264488E0,8.578464E-1,-7.6755605E0,2.3065426E0,2.4901187E0,6.3576466E1,2.3065426E0,7.898129E-1,-1.3074118E1,4.5996536E1,7.036992E1,-3.7937441E-3,8.021226E-3,-3.42261E-2,-4.2418814E-3,7.013449E-2,-1.6237756E-2,-7.8562595E-2,3.1624793E-3,1.18434355E-2,-3.9676666E-2,2.0893836E-2,5.4961987E-2,-1.2685003E-2,-7.49914E-2,1.0893143E-2,-3.619592E-2],"split_indices":[4,0,0,1,1,3,1,1,4,0,1,3,1,0,0,0,0,0,0,0,0,0,0,0,0,0,0,0,0,0,0],"split_type":[0,0,0,0,0,0,0,0,0,0,0,0,0,0,0,0,0,0,0,0,0,0,0,0,0,0,0,0,0,0,0],"sum_hessian":[4.7363115E3,4.0678254E3,6.6848627E2,3.057889E3,1.00993646E3,1.8081258E2,4.8767368E2,2.6979133E3,3.599757E2,1.4747111E1,9.9518933E2,6.773152E1,1.13081055E2,6.8962036E1,4.1871164E2,2.272701E3,4.2521234E2,8.449639E1,2.7547934E2,1.07480545E1,3.9990575E0,7.748585E0,9.8744073E2,5.8234226E1,9.497295E0,6.713575E1,4.594531E1,5.9968796E1,8.993238E0,3.9927652E2,1.9435125E1],"tree_param":{"num_deleted":"0","num_feature":"6","num_nodes":"31","size_leaf_vector":"1"}},{"base_weights":[4.9255383E-3,9.396646E-2,-9.078419E-3,1.8628815E-3,2.6193863E-1,-8.627884E-2,3.1953357E-2,-3.2463644E-2,4.925845E-1,2.9365548E-1,-5.2630925E-1,-2.329044E-1,-6.1688725E-2,1.2561743E-1,-2.9083206E-3,-7.0478013E-3,1.4578894E-2,4.499453E-2,-3.4501754E-2,1.963201E-2,4.944439E-2,1.0443126E-2,-8.40162E-2,2.6457159E-2,-2.2047894E-2,-6.586037E-3,2.6190218E-3,8.20041E-3,3.631025E-2,8.057736E-2,-7.813912E-4],"categories":[],"categories_nodes":[],"categories_segments":[],"categories_sizes":[],"default_left":[0,0,0,0,0,0,0,0,0,0,0,0,0,0,0,0,0,0,0,0,0,0,0,0,0,0,0,0,0,0,0],"id":7,"left_children":[1,3,5,7,9,11,13,15,17,19,21,23,25,27,29,-1,-1,-1,-1,-1,-1,-1,-1,-1,-1,-1,-1,-1,-1,-1,-1],"loss_changes":[5.9460006E0,1.0025322E1,1.3056094E1,7.0832653E0,5.8920383E0,5.142887E0,8.788659E0,4.711014E0,2.0165396E0,3.3118973E0,3.3150535E0,5.025814E0,2.3923287E0,5.4922905E0,1.3606209E1,0E0,0E0,0E0,0E0,0E0,0E0,0E0,0E0,0E0,0E0,0E0,0E0,0E0,0E0,0E0,0E0],"parents":[2147483647,0,0,1,1,2,2,3,3,4,4,5,5,6,6,7,7,8,8,9,9,10,10,11,11,12,12,13,13,14,14],"right_children":[2,4,6,8,10,12,14,16,18,20,22,24,26,28,30,-1,-1,-1,-1,-1,-1,-1,-1,-1,-1,-1,-1,-1,-1,-1,-1],"split_conditions":[3.7388607E1,1.1738977E0,-3.8251263E-1,-4.1417737E0,4.603005E0,4.6237704E-1,5.4361717E1,3.5829372E1,1.1491804E0,-5.304257E0,-1.0623289E1,1.5436976E-1,4.901053E1,5.393304E1,-7.914295E-2,-7.0478013E-3,1.4578894E-2,4.499453E-2,-3.4501754E-2,1.963201E-2,4.944439E-2,1.0443126E-2,-8.40162E-2,2.6457159E-2,-2.2047894E-2,-6.586037E-3,2.6190218E-3,8.20041E-3,3.631025E-2,8.057736E-2,-7.813912E-4],"split_indices":[0,3,1,1,3,3,0,0,3,1,1,3,0,0,1,0,0,0,0,0,0,0,0,0,0,0,0,0,0,0,0],"split_type":[0,0,0,0,0,0,0,0,0,0,0,0,0,0,0,0,0,0,0,0,0,0,0,0,0,0,0,0,0,0,0],"sum_hessian":[4.7668457E3,6.4704565E2,4.1198003E3,4.1855307E2,2.2849261E2,1.4293693E3,2.690431E3,3.9206177E2,2.6491312E1,2.2025754E2,8.23508E0,2.0407036E2,1.225299E3,7.290538E2,1.9613771E3,3.118449E2,8.0216835E1,2.499296E1,1.4983513E0,1.9326524E2,2.6992296E1,3.9870343E0,4.248046E0,1.3894825E1,1.9017554E2,1.00564514E3,2.1965376E2,6.823247E2,4.672909E1,1.2244892E1,1.9491322E3],"tree_param":{"num_deleted":"0","num_feature":"6","num_nodes":"31","size_leaf_vector":"1"}},{"base_weights":[-9.44818E-3,2.716057E-1,-1.3879705E-2,4.7098357E-2,4.747783E-1,-2.9246297E-2,4.505785E-2,2.5856277E-1,-3.8833788E-1,8.93828E-1,2.4733014E-1,4.681806E-3,-8.760222E-2,4.82668E-1,3.5568126E-2,-6.276808E-3,6.0109362E-2,-6.88275E-2,-2.4085613E-3,1.8481907E-2,8.523867E-2,4.8485048E-2,-2.033353E-2,-1.971717E-3,1.0729638E-2,-1.3992498E-2,-1.0819257E-3,-7.456362E-2,6.035283E-2,3.89685E-3,-1.5688255E-2],"categories":[],"categories_nodes":[],"categories_segments":[],"categories_sizes":[],"default_left":[0,0,0,0,0,0,0,0,0,0,0,0,0,0,0,0,0,0,0,0,0,0,0,0,0,0,0,0,0,0,0],"id":8,"left_children":[1,3,5,7,9,11,13,15,17,19,21,23,25,27,29,-1,-1,-1,-1,-1,-1,-1,-1,-1,-1,-1,-1,-1,-1,-1,-1],"loss_changes":[5.9301176E0,3.3489199E0,4.2446585E0,3.4356422E0,3.4663658E0,7.359646E0,4.008335E0,4.208002E0,2.0437284E0,1.2589045E0,4.9142284E0,8.929625E0,8.83579E0,8.58215E0,2.9016037E0,0E0,0E0,0E0,0E0,0E0,0E0,0E0,0E0,0E0,0E0,0E0,0E0,0E0,0E0,0E0,0E0],"parents":[2147483647,0,0,1,1,2,2,3,3,4,4,5,5,6,6,7,7,8,8,9,9,10,10,11,11,12,12,13,13,14,14],"right_children":[2,4,6,8,10,12,14,16,18,20,22,24,26,28,30,-1,-1,-1,-1,-1,-1,-1,-1,-1,-1,-1,-1,-1,-1,-1,-1],"split_conditions":[-2.6215044E1,4.436139E0,7.5255065E0,3.895747E0,4.7632403E0,4.054998E0,7.6481614E0,3.6467545E1,4.053089E0,4.532644E0,3.366459E1,1.1555841E0,2.141E0,2.2997775E0,4.557094E1,-6.276808E-3,6.0109362E-2,-6.88275E-2,-2.4085613E-3,1.8481907E-2,8.523867E-2,4.8485048E-2,-2.033353E-2,-1.971717E-3,1.0729638E-2,-1.3992498E-2,-1.0819257E-3,-7.456362E-2,6.035283E-2,3.89685E-3,-1.5688255E-2],"split_indices":[2,4,1,4,4,2,1,0,4,4,0,2,1,4,2,0,0,0,0,0,0,0,0,0,0,0,0,0,0,0,0],"split_type":[0,0,0,0,0,0,0,0,0,0,0,0,0,0,0,0,0,0,0,0,0,0,0,0,0,0,0,0,0,0,0],"sum_hessian":[4.7572183E3,7.290935E1,4.684309E3,3.5221317E1,3.768803E1,3.7159624E3,9.683466E2,2.3981289E1,1.1240029E1,1.222849E1,2.5459538E1,2.3503752E3,1.3655872E3,1.9494894E1,9.4885175E2,1.47409315E1,9.240357E0,4.245069E0,6.99496E0,2.9980674E0,9.230423E0,1.47208805E1,1.0738658E1,1.9168616E3,4.3351373E2,6.2621136E2,7.393758E2,2.749723E0,1.674517E1,8.9866125E2,5.019047E1],"tree_param":{"num_deleted":"0","num_feature":"6","num_nodes":"31","size_leaf_vector":"1"}},{"base_weights":[1.4839686E-3,-5.0857123E-2,3.675563E-2,2.8293097E-1,-5.749635E-2,2.2653635E-1,2.3304854E-2,-6.376908E-2,3.743734E-1,-1.2130595E-1,-1.6147885E-2,7.87671E-1,1.5316468E-1,8.682874E-3,1.4779916E-1,-1.0430902E-2,3.8973678E-2,-2.5383844E-3,-1.7840704E-2,2.2200892E-2,-2.9472183E-3,-2.338165E-2,7.561225E-2,-7.937528E-3,2.5295364E-2,-2.6444404E-3,4.4156364E-3,1.6463194E-2,-1.770753E-2],"categories":[],"categories_nodes":[],"categories_segments":[],"categories_sizes":[],"default_left":[0,0,0,0,0,0,0,0,0,0,0,0,0,0,0,0,0,0,0,0,0,0,0,0,0,0,0,0,0],"id":9,"left_children":[1,3,5,7,9,11,13,-1,15,17,19,21,23,25,27,-1,-1,-1,-1,-1,-1,-1,-1,-1,-1,-1,-1,-1,-1],"loss_changes":[8.7807045E0,4.259632E0,7.2479534E0,4.003215E0,4.9537535E0,7.6171865E0,4.8307686E0,0E0,2.0713415E0,6.7197857E0,6.9428277E0,3.9313211E0,6.921203E0,4.615506E0,6.0167375E0,0E0,0E0,0E0,0E0,0E0,0E0,0E0,0E0,0E0,0E0,0E0,0E0,0E0,0E0],"parents":[2147483647,0,0,1,1,2,2,3,3,4,4,5,5,6,6,8,8,9,9,10,10,11,11,12,12,13,13,14,14],"right_children":[2,4,6,8,10,12,14,-1,16,18,20,22,24,26,28,-1,-1,-1,-1,-1,-1,-1,-1,-1,-1,-1,-1,-1,-1],"split_conditions":[7.2106415E-1,1.5436976E-1,7.574615E-1,2.9831175E1,4.848062E1,3.7184338E1,4.3971395E0,-6.376908E-2,2.1161432E0,5.5104935E-1,4.959529E1,2.6314411E1,4.985998E1,1.1491804E0,2.2141054E0,-1.0430902E-2,3.8973678E-2,-2.5383844E-3,-1.7840704E-2,2.2200892E-2,-2.9472183E-3,-2.338165E-2,7.561225E-2,-7.937528E-3,2.5295364E-2,-2.6444404E-3,4.4156364E-3,1.6463194E-2,-1.770753E-2],"split_indices":[3,3,3,0,0,0,4,0,4,3,0,0,0,3,3,0,0,0,0,0,0,0,0,0,0,0,0,0,0],"split_type":[0,0,0,0,0,0,0,0,0,0,0,0,0,0,0,0,0,0,0,0,0,0,0,0,0,0,0,0,0],"sum_hessian":[4.7541934E3,1.9137933E3,2.8404E3,3.6512405E1,1.8772809E3,1.8694194E2,2.653458E3,2.247667E0,3.4264736E1,7.373921E2,1.1398888E3,2.0491428E1,1.6645052E2,2.3755205E3,2.779375E2,6.230013E0,2.8034723E1,3.927682E2,3.446239E2,7.42168E1,1.065672E3,2.498938E0,1.799249E1,6.5476814E1,1.00973694E2,1.2521682E3,1.1233523E3,2.4058516E2,3.7352337E1],"tree_param":{"num_deleted":"0","num_feature":"6","num_nodes":"29","size_leaf_vector":"1"}},{"base_weights":[-1.2584993E-4,1.1919468E-1,-6.6206553E-3,9.651607E-2,1.0469322E-1,-1.2610807E-1,2.3790582E-3,-4.521115E-3,2.677316E-1,-1.0478115E-1,-7.6633877E-1,8.880825E-2,-5.936769E-3,-5.911063E-3,4.659817E-2,4.3855894E-2,8.999224E-3,-1.7905938E-2,-3.8313773E-3,1.9023515E-2,-7.4957095E-2,-3.2402356E-3,1.7567668E-2,-4.2059543E-3,1.1832148E-3],"categories":[],"categories_nodes":[],"categories_segments":[],"categories_sizes":[],"default_left":[0,0,0,0,0,0,0,0,0,0,0,0,0,0,0,0,0,0,0,0,0,0,0,0,0],"id":10,"left_children":[1,3,5,7,-1,9,11,13,15,17,19,21,23,-1,-1,-1,-1,-1,-1,-1,-1,-1,-1,-1,-1],"loss_changes":[3.6726112E0,6.47297E0,4.8333836E0,4.1727576E0,0E0,4.218356E0,3.0052469E0,6.258045E0,3.8355222E0,2.0604568E0,1.9345193E0,6.215639E0,3.6881845E0,0E0,0E0,0E0,0E0,0E0,0E0,0E0,0E0,0E0,0E0,0E0,0E0],"parents":[2147483647,0,0,1,1,2,2,3,3,5,5,6,6,7,7,8,8,9,9,10,10,11,11,12,12],"right_children":[2,4,6,8,-1,10,12,14,16,18,20,22,24,-1,-1,-1,-1,-1,-1,-1,-1,-1,-1,-1,-1],"split_conditions":[3.1299685E1,-5.8583064E0,-8.590315E0,1.3088189E0,1.0469322E-1,4.5538395E1,3.944745E1,-7.9536166E0,2.5411516E1,6.685271E-1,-1.1081521E1,9.011024E-1,-2.4660885E-1,-5.911063E-3,4.659817E-2,4.3855894E-2,8.999224E-3,-1.7905938E-2,-3.8313773E-3,1.9023515E-2,-7.4957095E-2,-3.2402356E-3,1.7567668E-2,-4.2059543E-3,1.1832148E-3],"split_indices":[0,1,1,3,0,0,0,1,0,3,1,3,1,0,0,0,0,0,0,0,0,0,0,0,0],"split_type":[0,0,0,0,0,0,0,0,0,0,0,0,0,0,0,0,0,0,0,0,0,0,0,0,0],"sum_hessian":[4.7370576E3,2.4363937E2,4.4934185E3,2.4014194E2,3.4974356E0,3.1382422E2,4.179594E3,1.5163383E2,8.85081E1,3.048335E2,8.990736E0,3.6599588E2,3.8135981E3,1.3639035E2,1.5243489E1,3.0633232E1,5.7874874E1,9.762132E1,2.0721216E2,1.2486621E0,7.7420735E0,1.843838E2,1.8161208E2,1.172907E3,2.6406912E3],"tree_param":{"num_deleted":"0","num_feature":"6","num_nodes":"25","size_leaf_vector":"1"}},{"base_weights":[3.8681175E-3,-1.645673E-3,2.3738368E-1,-3.774389E-2,2.53452E-2,2.8295973E-1,-5.606231E-1,-3.9606792E-1,-2.8742006E-2,1.7084472E-1,-3.056611E-3,3.0603257E-4,3.5762566E-1,2.9805124E-2,-9.347249E-1,5.325185E-2,-4.3151353E-2,-1.245487E-4,-6.786841E-3,-1.2427826E-3,1.9975368E-2,3.565758E-2,-8.975735E-4,1.1944584E-2,-6.890154E-2,3.1983536E-2,-2.7115222E-2,-9.1443636E-2,-1.5493024E-2],"categories":[],"categories_nodes":[],"categories_segments":[],"categories_sizes":[],"default_left":[0,0,0,0,0,0,0,0,0,0,0,0,0,0,0,0,0,0,0,0,0,0,0,0,0,0,0,0,0],"id":11,"left_children":[1,3,5,7,9,11,13,15,17,19,21,23,25,-1,27,-1,-1,-1,-1,-1,-1,-1,-1,-1,-1,-1,-1,-1,-1],"loss_changes":[6.094427E0,4.507043E0,4.1297126E0,6.3720875E0,1.0938425E1,2.1937408E0,2.5247068E0,7.727147E0,2.9453664E0,6.3567886E0,8.121347E0,3.0456297E0,2.5508213E0,0E0,5.0966215E-1,0E0,0E0,0E0,0E0,0E0,0E0,0E0,0E0,0E0,0E0,0E0,0E0,0E0,0E0],"parents":[2147483647,0,0,1,1,2,2,3,3,4,4,5,5,6,6,7,7,8,8,9,9,10,10,11,11,12,12,14,14],"right_children":[2,4,6,8,10,12,14,16,18,20,22,24,26,-1,28,-1,-1,-1,-1,-1,-1,-1,-1,-1,-1,-1,-1,-1,-1],"split_conditions":[5.394682E0,7.394605E-1,4.859444E1,-2.1976551E1,8.36481E-1,5.780059E-1,6.685271E-1,3.0319822E-1,9.318921E0,2.4535844E0,-2.6215044E1,5.4755354E-1,3.0601423E0,2.9805124E-2,1.5843291E0,5.325185E-2,-4.3151353E-2,-1.245487E-4,-6.786841E-3,-1.2427826E-3,1.9975368E-2,3.565758E-2,-8.975735E-4,1.1944584E-2,-6.890154E-2,3.1983536E-2,-2.7115222E-2,-9.1443636E-2,-1.5493024E-2],"split_indices":[4,3,2,2,3,3,3,3,2,4,2,3,3,0,3,0,0,0,0,0,0,0,0,0,0,0,0,0,0],"split_type":[0,0,0,0,0,0,0,0,0,0,0,0,0,0,0,0,0,0,0,0,0,0,0,0,0,0,0,0,0],"sum_hessian":[4.732027E3,4.623841E3,1.0818559E2,1.9780085E3,2.6458325E3,1.02951225E2,5.234369E0,4.742038E1,1.9305881E3,4.31302E2,2.2145305E3,2.1722631E1,8.122859E1,1.4990754E0,3.7352934E0,5.2065954E0,4.2213783E1,1.301067E3,6.295212E2,1.2845735E2,3.0284467E2,3.8604206E1,2.1759263E3,1.9224619E1,2.498011E0,7.699362E1,4.234974E0,2.4922526E0,1.2430408E0],"tree_param":{"num_deleted":"0","num_feature":"6","num_nodes":"29","size_leaf_vector":"1"}},{"base_weights":[-7.632005E-3,-4.830183E-2,3.799284E-2,-4.4562005E-2,-4.7044554E-1,7.3454864E-2,-5.2570406E-2,2.6077455E-1,-4.8707135E-2,6.5553296E-1,-7.7699095E-1,-9.243052E-2,9.402606E-2,1.4668667E-1,-1.2663646E-1,4.5466598E-2,-5.4390974E-2,-7.955131E-3,-1.7836206E-3,7.921693E-2,-1.8463623E-2,-7.265775E-2,3.0944351E-2,4.2610012E-2,-1.1279121E-2,5.235572E-2,6.682937E-3,-4.651132E-2,1.3400329E-2,-1.5693119E-2,6.591084E-3],"categories":[],"categories_nodes":[],"categories_segments":[],"categories_sizes":[],"default_left":[0,0,0,0,0,0,0,0,0,0,0,0,0,0,0,0,0,0,0,0,0,0,0,0,0,0,0,0,0,0,0],"id":12,"left_children":[1,3,5,7,9,11,13,15,17,19,21,23,25,27,29,-1,-1,-1,-1,-1,-1,-1,-1,-1,-1,-1,-1,-1,-1,-1,-1],"loss_changes":[8.833717E0,3.952642E0,7.2098203E0,3.1717181E0,8.102068E0,5.5123386E0,9.345017E0,1.01035385E1,3.2985015E0,1.7857599E0,3.061861E0,5.491084E0,8.383061E0,2.6999676E0,6.7193413E0,0E0,0E0,0E0,0E0,0E0,0E0,0E0,0E0,0E0,0E0,0E0,0E0,0E0,0E0,0E0,0E0],"parents":[2147483647,0,0,1,1,2,2,3,3,4,4,5,5,6,6,7,7,8,8,9,9,10,10,11,11,12,12,13,13,14,14],"right_children":[2,4,6,8,10,12,14,16,18,20,22,24,26,28,30,-1,-1,-1,-1,-1,-1,-1,-1,-1,-1,-1,-1,-1,-1,-1,-1],"split_conditions":[2.9414744E0,4.016893E1,9.465097E0,2.1020037E-1,2.2506723E0,4.3616638E-1,3.2796032E0,1.2250316E1,-1.5334179E-1,9.745001E-1,1.5843291E0,1.5436976E-1,4.5374945E-1,9.731796E0,2.9792082E1,4.5466598E-2,-5.4390974E-2,-7.955131E-3,-1.7836206E-3,7.921693E-2,-1.8463623E-2,-7.265775E-2,3.0944351E-2,4.2610012E-2,-1.1279121E-2,5.235572E-2,6.682937E-3,-4.651132E-2,1.3400329E-2,-1.5693119E-2,6.591084E-3],"split_indices":[4,2,2,3,4,3,4,2,2,3,3,3,3,2,2,0,0,0,0,0,0,0,0,0,0,0,0,0,0,0,0],"split_type":[0,0,0,0,0,0,0,0,0,0,0,0,0,0,0,0,0,0,0,0,0,0,0,0,0,0,0,0,0,0,0],"sum_hessian":[4.7587E3,2.5159407E3,2.2427595E3,2.494943E3,2.099747E1,1.6118091E3,6.309503E2,3.2587517E1,2.4623557E3,4.249626E0,1.6747845E1,1.7744067E2,1.4343684E3,1.7071141E2,4.602389E2,2.485633E1,7.731188E0,8.4209406E2,1.6202616E3,2.9997213E0,1.2499049E0,1.5248058E1,1.4997858E0,1.207247E1,1.6536821E2,2.5225748E1,1.4091427E3,3.9968197E0,1.667146E2,3.454081E2,1.1483079E2],"tree_param":{"num_deleted":"0","num_feature":"6","num_nodes":"31","size_leaf_vector":"1"}},{"base_weights":[8.983198E-3,4.254643E-2,-2.7831597E-2,8.135496E-3,1.3244987E-1,-6.2100597E-2,6.500007E-2,-2.8159607E-2,9.8491445E-2,9.345569E-2,3.746279E-1,-2.5904587E-1,-4.9835186E-2,8.355382E-2,-1.9764009E-1,-1.0429533E-2,-2.9013427E-5,-6.5447628E-3,1.7435104E-2,1.5582481E-2,-1.1042434E-3,5.830007E-2,1.9607745E-2,-7.279013E-3,-4.4584103E-2,-2.2720925E-3,-1.4731634E-2,-3.7290563E-3,1.02654435E-2,-5.2651465E-3,-6.198552E-2],"categories":[],"categories_nodes":[],"categories_segments":[],"categories_sizes":[],"default_left":[0,0,0,0,0,0,0,0,0,0,0,0,0,0,0,0,0,0,0,0,0,0,0,0,0,0,0,0,0,0,0],"id":13,"left_children":[1,3,5,7,9,11,13,15,17,19,21,23,25,27,29,-1,-1,-1,-1,-1,-1,-1,-1,-1,-1,-1,-1,-1,-1,-1,-1],"loss_changes":[5.877258E0,7.696042E0,7.2207766E0,5.907126E0,6.468137E0,3.990716E0,2.9994013E0,3.6514144E0,1.1134338E1,6.4633484E0,4.1868534E0,4.8078356E0,4.489929E0,3.341509E0,3.0447416E0,0E0,0E0,0E0,0E0,0E0,0E0,0E0,0E0,0E0,0E0,0E0,0E0,0E0,0E0,0E0,0E0],"parents":[2147483647,0,0,1,1,2,2,3,3,4,4,5,5,6,6,7,7,8,8,9,9,10,10,11,11,12,12,13,13,14,14],"right_children":[2,4,6,8,10,12,14,16,18,20,22,24,26,28,30,-1,-1,-1,-1,-1,-1,-1,-1,-1,-1,-1,-1,-1,-1,-1,-1],"split_conditions":[3.8405347E0,-6.873317E-1,1.876377E1,1.1491804E0,6.0892597E1,4.417475E0,4.859444E1,2.3667493E0,2.966649E0,7.7431583E-1,1.1555841E0,5.6916866E1,6.7812256E1,2.3805628E0,5.2145314E0,-1.0429533E-2,-2.9013427E-5,-6.5447628E-3,1.7435104E-2,1.5582481E-2,-1.1042434E-3,5.830007E-2,1.9607745E-2,-7.279013E-3,-4.4584103E-2,-2.2720925E-3,-1.4731634E-2,-3.7290563E-3,1.02654435E-2,-5.2651465E-3,-6.198552E-2],"split_indices":[2,2,2,3,0,2,2,4,4,3,2,0,0,4,4,0,0,0,0,0,0,0,0,0,0,0,0,0,0,0,0],"split_type":[0,0,0,0,0,0,0,0,0,0,0,0,0,0,0,0,0,0,0,0,0,0,0,0,0,0,0,0,0,0,0],"sum_hessian":[4.7545537E3,2.4870288E3,2.2675247E3,1.7993936E3,6.8763525E2,1.6563944E3,6.111303E2,1.2842223E3,5.151712E2,5.934647E2,9.417055E1,9.5929955E1,1.5604645E3,5.7144354E2,3.968676E1,2.7379306E2,1.01042926E3,2.0541725E2,3.0975397E2,3.047536E2,2.887111E2,2.3981586E1,7.0188965E1,6.2191772E1,3.3738186E1,1.346753E3,2.1371144E2,1.4621959E2,4.25224E2,3.321467E1,6.4720926E0],"tree_param":{"num_deleted":"0","num_feature":"6","num_nodes":"31","size_leaf_vector":"1"}},{"base_weights":[8.994342E-3,-5.7074483E-3,1.3871787E-1,2.0530937E-2,-7.8613356E-2,5.816833E-1,9.3415275E-2,4.6692812E-1,1.6393412E-2,-5.851318E-1,-6.9785215E-2,7.1753216E-1,1.5110675E-1,-3.9417446E-1,1.1844999E-1,8.051942E-2,1.6812978E-2,-1.3702587E-3,4.214292E-3,3.786305E-2,-6.0245864E-2,-2.674123E-3,-1.4052832E-2,1.9903583E-2,7.922452E-2,-2.5155617E-2,7.424937E-2,-1.2049882E-2,-8.691267E-2,4.9404442E-2,6.8768393E-3],"categories":[],"categories_nodes":[],"categories_segments":[],"categories_sizes":[],"default_left":[0,0,0,0,0,0,0,0,0,0,0,0,0,0,0,0,0,0,0,0,0,0,0,0,0,0,0,0,0,0,0],"id":14,"left_children":[1,3,5,7,9,11,13,15,17,19,21,23,25,27,29,-1,-1,-1,-1,-1,-1,-1,-1,-1,-1,-1,-1,-1,-1,-1,-1],"loss_changes":[9.073513E0,8.177248E0,9.664264E0,5.798496E0,5.0178223E0,2.508729E0,5.4243774E0,3.7830606E0,3.7907267E0,3.77709E0,4.2787433E0,4.0682487E0,4.6318636E0,3.5026245E0,6.754378E0,0E0,0E0,0E0,0E0,0E0,0E0,0E0,0E0,0E0,0E0,0E0,0E0,0E0,0E0,0E0,0E0],"parents":[2147483647,0,0,1,1,2,2,3,3,4,4,5,5,6,6,7,7,8,8,9,9,10,10,11,11,12,12,13,13,14,14],"right_children":[2,4,6,8,10,12,14,16,18,20,22,24,26,28,30,-1,-1,-1,-1,-1,-1,-1,-1,-1,-1,-1,-1,-1,-1,-1,-1],"split_conditions":[1.1320971E1,8.768505E0,2.2419088E0,1.5436976E-1,8.916377E0,1.5512361E1,2.3521378E0,-1.1370296E1,2.951643E0,3.901342E-1,3.2908385E0,1.2881041E1,3.3793476E1,1.5512361E1,2.483608E0,8.051942E-2,1.6812978E-2,-1.3702587E-3,4.214292E-3,3.786305E-2,-6.0245864E-2,-2.674123E-3,-1.4052832E-2,1.9903583E-2,7.922452E-2,-2.5155617E-2,7.424937E-2,-1.2049882E-2,-8.691267E-2,4.9404442E-2,6.8768393E-3],"split_indices":[1,2,4,3,2,1,4,2,4,3,4,1,2,1,4,0,0,0,0,0,0,0,0,0,0,0,0,0,0,0,0],"split_type":[0,0,0,0,0,0,0,0,0,0,0,0,0,0,0,0,0,0,0,0,0,0,0,0,0,0,0,0,0,0,0],"sum_hessian":[4.756169E3,4.272873E3,4.83296E2,3.142592E3,1.1302809E3,4.374275E1,4.3955322E2,2.7833069E1,3.1147588E3,1.8243984E1,1.112037E3,3.274508E1,1.099767E1,2.074608E1,4.1880716E2,8.032914E0,1.9800154E1,1.6193091E3,1.4954498E3,2.2493985E0,1.5994587E1,8.2875073E2,2.8328622E2,1.2749073E1,1.9996004E1,7.24943E0,3.7482398E0,1.6247322E1,4.4987583E0,2.4495651E1,3.943115E2],"tree_param":{"num_deleted":"0","num_feature":"6","num_nodes":"31","size_leaf_vector":"1"}},{"base_weights":[2.1178904E-3,-3.7231776E-3,2.4326682E-1,6.8919204E-2,-1.4723166E-2,3.0224597E-1,-8.107756E-1,-1.0913852E-2,2.4944578E-1,-3.403608E-2,3.882492E-2,2.2347495E-1,8.0168194E-1,5.314313E-2,-1.0524154E-1,-3.689172E-3,2.4844844E-2,1.5076054E-2,5.00545E-2,-1.6123749E-3,-1.6913502E-2,2.3524102E-2,3.931801E-4,4.151901E-2,-2.8350457E-4,8.4832944E-2,-3.1929534E-2],"categories":[],"categories_nodes":[],"categories_segments":[],"categories_sizes":[],"default_left":[0,0,0,0,0,0,0,0,0,0,0,0,0,0,0,0,0,0,0,0,0,0,0,0,0,0,0],"id":15,"left_children":[1,3,5,7,9,11,13,15,17,19,21,23,25,-1,-1,-1,-1,-1,-1,-1,-1,-1,-1,-1,-1,-1,-1],"loss_changes":[6.6845894E0,3.703718E0,7.222016E0,8.787927E0,4.1640778E0,4.030792E0,5.5038505E0,4.808097E0,4.1724033E0,7.281261E0,9.236759E0,6.295898E0,4.8324547E0,0E0,0E0,0E0,0E0,0E0,0E0,0E0,0E0,0E0,0E0,0E0,0E0,0E0,0E0],"parents":[2147483647,0,0,1,1,2,2,3,3,4,4,5,5,6,6,7,7,8,8,9,9,10,10,11,11,12,12],"right_children":[2,4,6,8,10,12,14,16,18,20,22,24,26,-1,-1,-1,-1,-1,-1,-1,-1,-1,-1,-1,-1,-1,-1],"split_conditions":[5.394682E0,3.7184338E1,4.859444E1,-4.740602E0,6.1278988E1,3.1572355E1,5.8437763E1,3.6229015E1,3.9508443E0,5.9307255E1,6.2560917E1,4.0788975E1,6.7528854E1,5.314313E-2,-1.0524154E-1,-3.689172E-3,2.4844844E-2,1.5076054E-2,5.00545E-2,-1.6123749E-3,-1.6913502E-2,2.3524102E-2,3.931801E-4,4.151901E-2,-2.8350457E-4,8.4832944E-2,-3.1929534E-2],"split_indices":[4,0,2,2,0,2,0,0,4,0,0,0,0,0,0,0,0,0,0,0,0,0,0,0,0,0,0],"split_type":[0,0,0,0,0,0,0,0,0,0,0,0,0,0,0,0,0,0,0,0,0,0,0,0,0,0,0],"sum_hessian":[4.744023E3,4.632793E3,1.11230156E2,6.085761E2,4.0242166E3,1.06011505E2,5.218646E0,4.2262225E2,1.8595386E2,2.9578047E3,1.066412E3,9.281947E1,1.3192032E1,1.2498852E0,3.968761E0,3.816851E2,4.093719E1,1.613042E2,2.4649666E1,2.7441685E3,2.1363614E2,1.2416995E2,9.4224207E2,3.976755E1,5.3051926E1,1.0949678E1,2.2423527E0],"tree_param":{"num_deleted":"0","num_feature":"6","num_nodes":"27","size_leaf_vector":"1"}},{"base_weights":[6.437704E-3,7.3024414E-2,-7.990658E-3,9.711322E-3,1.98949E-1,-1.8531157E-1,-1.1504602E-3,4.2348146E-1,-4.190002E-3,1.3828042E-1,4.8403674E-1,7.368451E-1,-2.166637E-1,2.401778E-2,-3.91408E-2,1.5921008E-2,6.6290446E-2,-1.3381053E-2,2.8275298E-3,4.0823445E-2,7.3447847E-3,6.752903E-2,9.273563E-3,-7.2197956E-3,8.922479E-2,-1.1159713E-2,-5.706806E-2,1.0590665E-3,1.9431213E-2,-1.4428102E-2,-1.7851985E-4],"categories":[],"categories_nodes":[],"categories_segments":[],"categories_sizes":[],"default_left":[0,0,0,0,0,0,0,0,0,0,0,0,0,0,0,0,0,0,0,0,0,0,0,0,0,0,0,0,0,0,0],"id":16,"left_children":[1,3,5,7,9,11,13,15,17,19,21,23,25,27,29,-1,-1,-1,-1,-1,-1,-1,-1,-1,-1,-1,-1,-1,-1,-1,-1],"loss_changes":[4.5552416E0,6.730271E0,4.7269654E0,3.2398221E0,4.818493E0,4.344664E0,3.5899768E0,1.500104E0,3.5236235E0,4.0036383E0,6.4186707E0,1.6616488E0,5.2957487E0,5.3252153E0,7.7976394E0,0E0,0E0,0E0,0E0,0E0,0E0,0E0,0E0,0E0,0E0,0E0,0E0,0E0,0E0,0E0,0E0],"parents":[2147483647,0,0,1,1,2,2,3,3,4,4,5,5,6,6,7,7,8,8,9,9,10,10,11,11,12,12,13,13,14,14],"right_children":[2,4,6,8,10,12,14,16,18,20,22,24,26,28,30,-1,-1,-1,-1,-1,-1,-1,-1,-1,-1,-1,-1,-1,-1,-1,-1],"split_conditions":[3.944745E1,1.1645718E0,-7.22093E0,2.776107E-1,-5.208817E0,-2.8803112E1,8.768505E0,3.6467545E1,5.241822E-1,2.4397968E1,-3.8624585E0,-1.3074118E1,4.5538395E1,7.944486E0,2.9401574E0,1.5921008E-2,6.6290446E-2,-1.3381053E-2,2.8275298E-3,4.0823445E-2,7.3447847E-3,6.752903E-2,9.273563E-3,-7.2197956E-3,8.922479E-2,-1.1159713E-2,-5.706806E-2,1.0590665E-3,1.9431213E-2,-1.4428102E-2,-1.7851985E-4],"split_indices":[0,3,1,3,1,2,2,0,3,0,1,1,0,2,1,0,0,0,0,0,0,0,0,0,0,0,0,0,0,0,0],"split_type":[0,0,0,0,0,0,0,0,0,0,0,0,0,0,0,0,0,0,0,0,0,0,0,0,0,0,0,0,0,0,0],"sum_hessian":[4.7397954E3,8.434096E2,3.896386E3,5.619475E2,2.814621E2,1.4375229E2,3.7526335E3,1.7308226E1,5.446393E2,2.3329947E2,4.816264E1,3.9867992E0,1.3976549E2,2.2574573E3,1.4951763E3,1.20971365E1,5.2110896E0,1.05643326E2,4.3899594E2,2.4798477E1,2.0850099E2,2.3693567E1,2.446907E1,1.4906638E0,2.4961355E0,1.2207957E2,1.7685913E1,2.152507E3,1.0495032E2,3.090194E2,1.1861569E3],"tree_param":{"num_deleted":"0","num_feature":"6","num_nodes":"31","size_leaf_vector":"1"}},{"base_weights":[9.439038E-3,1.1885634E-2,-2.9245988E-1,-1.03077486E-1,1.716932E-2,2.5179487E-2,-5.345637E-1,-3.674417E-1,3.9017368E-2,3.9839604E-1,1.5447679E-2,-3.0251426E-1,9.657865E-2,-8.4693664E-1,2.767582E-3,5.3099625E-2,-3.914769E-2,2.6616815E-2,-1.0636059E-2,-2.8602604E-2,5.4973487E-2,-3.034257E-2,1.3979521E-3,7.371008E-2,-6.51864E-2,-3.8295064E-2,-1.1165921E-1,2.982615E-2,-4.935939E-2],"categories":[],"categories_nodes":[],"categories_segments":[],"categories_sizes":[],"default_left":[0,0,0,0,0,0,0,0,0,0,0,0,0,0,0,0,0,0,0,0,0,0,0,0,0,0,0,0,0],"id":17,"left_children":[1,3,5,7,9,11,13,15,17,19,21,23,-1,25,27,-1,-1,-1,-1,-1,-1,-1,-1,-1,-1,-1,-1,-1,-1],"loss_changes":[3.5092554E0,2.8622546E0,2.9506788E0,7.7926984E0,2.9493914E0,7.1342278E0,3.6478834E0,9.436535E0,6.891854E0,4.6561527E0,3.593781E0,9.831086E0,0E0,2.1082706E0,2.2898781E0,0E0,0E0,0E0,0E0,0E0,0E0,0E0,0E0,0E0,0E0,0E0,0E0,0E0,0E0],"parents":[2147483647,0,0,1,1,2,2,3,3,4,4,5,5,6,6,7,7,8,8,9,9,10,10,11,11,13,13,14,14],"right_children":[2,4,6,8,10,12,14,16,18,20,22,24,-1,26,28,-1,-1,-1,-1,-1,-1,-1,-1,-1,-1,-1,-1,-1,-1],"split_conditions":[8.033814E1,-1.949527E1,1.0674728E0,7.464507E-1,-1.8910599E1,8.864559E-1,1.8323944E0,3.1358564E-1,-2.6215044E1,6.788366E-1,2.2787489E1,1.4427271E1,9.657865E-2,1.3938084E0,2.3767984E1,5.3099625E-2,-3.914769E-2,2.6616815E-2,-1.0636059E-2,-2.8602604E-2,5.4973487E-2,-3.034257E-2,1.3979521E-3,7.371008E-2,-6.51864E-2,-3.8295064E-2,-1.1165921E-1,2.982615E-2,-4.935939E-2],"split_indices":[0,2,3,3,2,3,3,3,2,3,0,1,0,3,1,0,0,0,0,0,0,0,0,0,0,0,0,0,0],"split_type":[0,0,0,0,0,0,0,0,0,0,0,0,0,0,0,0,0,0,0,0,0,0,0,0,0,0,0,0,0],"sum_hessian":[4.745362E3,4.708167E3,3.7194458E1,2.060652E2,4.502102E3,1.6475136E1,2.0719324E1,7.148434E1,1.3458087E2,1.920449E1,4.4828975E3,1.3481749E1,2.9933877E0,1.2738004E1,7.9813194E0,7.0873957E0,6.439694E1,4.935538E1,8.522548E1,5.242619E0,1.3961872E1,2.1948814E1,4.4609487E3,3.7425582E0,9.73919E0,8.7434025E0,3.9946017E0,5.246852E0,2.7344673E0],"tree_param":{"num_deleted":"0","num_feature":"6","num_nodes":"29","size_leaf_vector":"1"}},{"base_weights":[6.4131725E-3,6.4425826E-2,-5.849573E-3,3.7664361E-3,1.8168537E-1,-1.927844E-1,1.5193959E-3,-1.7392648E-2,4.1980827E-1,5.76959E-1,1.5178955E-1,-1.3090979E-1,-7.214283E-1,6.40462E-1,5.4038213E-5,-7.09892E-3,8.03432E-3,1.649486E-2,6.685669E-2,8.024369E-2,1.22420285E-2,-3.5086114E-2,1.4591869E-2,-3.5268355E-2,-3.4691612E-3,1.0802644E-2,-7.333212E-2,6.998179E-2,-8.014118E-3,-3.434643E-2,1.6067203E-4],"categories":[],"categories_nodes":[],"categories_segments":[],"categories_sizes":[],"default_left":[0,0,0,0,0,0,0,0,0,0,0,0,0,0,0,0,0,0,0,0,0,0,0,0,0,0,0,0,0,0,0],"id":18,"left_children":[1,3,5,7,9,11,13,15,17,19,21,23,25,27,29,-1,-1,-1,-1,-1,-1,-1,-1,-1,-1,-1,-1,-1,-1,-1,-1],"loss_changes":[3.403942E0,5.938101E0,5.44207E0,4.86037E0,3.2760162E0,4.8063664E0,3.559323E0,4.426796E0,2.201694E0,3.3972845E0,4.886398E0,3.6535048E0,2.7115974E0,1.5971787E0,3.184599E0,0E0,0E0,0E0,0E0,0E0,0E0,0E0,0E0,0E0,0E0,0E0,0E0,0E0,0E0,0E0,0E0],"parents":[2147483647,0,0,1,1,2,2,3,3,4,4,5,5,6,6,7,7,8,8,9,9,10,10,11,11,12,12,13,13,14,14],"right_children":[2,4,6,8,10,12,14,16,18,20,22,24,26,28,30,-1,-1,-1,-1,-1,-1,-1,-1,-1,-1,-1,-1,-1,-1,-1,-1],"split_conditions":[3.9277355E1,1.1645718E0,4.0625717E1,3.8953762E1,-2.6215044E1,1.0836201E1,-2.7342014E1,-5.0465355E0,8.4033006E-1,1.4535208E0,-2.1976551E1,5.2831316E-1,3.962981E1,1.126819E0,-2.5247244E1,-7.09892E-3,8.03432E-3,1.649486E-2,6.685669E-2,8.024369E-2,1.22420285E-2,-3.5086114E-2,1.4591869E-2,-3.5268355E-2,-3.4691612E-3,1.0802644E-2,-7.333212E-2,6.998179E-2,-8.014118E-3,-3.434643E-2,1.6067203E-4],"split_indices":[0,3,0,0,2,2,2,2,3,3,2,3,0,3,2,0,0,0,0,0,0,0,0,0,0,0,0,0,0,0,0],"split_type":[0,0,0,0,0,0,0,0,0,0,0,0,0,0,0,0,0,0,0,0,0,0,0,0,0,0,0,0,0,0,0],"sum_hessian":[4.7833574E3,8.339324E2,3.949425E3,5.502931E2,2.836393E2,1.4882764E2,3.8005974E3,5.245725E2,2.572055E1,1.8657436E1,2.6498187E2,1.3435036E2,1.4477278E1,7.6985893E0,3.792899E3,3.268835E2,1.9768903E2,1.7980717E1,7.739834E0,8.623791E0,1.0033645E1,1.2404396E1,2.5257747E2,2.8701176E1,1.0564918E2,2.744636E0,1.1732641E1,5.710799E0,1.9877901E0,1.6194511E1,3.7767043E3],"tree_param":{"num_deleted":"0","num_feature":"6","num_nodes":"31","size_leaf_vector":"1"}},{"base_weights":[3.8560797E-4,2.666288E-2,-3.6331963E-2,-6.004475E-4,1.2095351E-1,1.891373E-1,-4.4771753E-2,2.6070494E-2,-1.2350735E-1,1.5307927E-1,-1.22503236E-1,-1.8219532E-1,4.842486E-1,-1.17557034E-1,-2.1719284E-2,-2.526376E-4,1.4424186E-2,-4.0682636E-2,-6.303528E-3,3.3142198E-2,9.55495E-3,-1.8425658E-2,2.8716408E-2,2.480227E-3,-8.003919E-2,4.8576858E-2,-8.810167E-2,1.9997454E-3,-1.5983019E-2,1.2762545E-2,-2.602831E-3],"categories":[],"categories_nodes":[],"categories_segments":[],"categories_sizes":[],"default_left":[0,0,0,0,0,0,0,0,0,0,0,0,0,0,0,0,0,0,0,0,0,0,0,0,0,0,0,0,0,0,0],"id":19,"left_children":[1,3,5,7,9,11,13,15,17,19,21,23,25,27,29,-1,-1,-1,-1,-1,-1,-1,-1,-1,-1,-1,-1,-1,-1,-1,-1],"loss_changes":[4.5814676E0,7.114917E0,3.7776394E0,7.0442033E0,4.873945E0,7.940981E0,3.2023275E0,7.96053E0,6.556426E0,4.7734423E0,3.8679883E0,5.6936836E0,8.506229E0,5.3880696E0,2.8514624E0,0E0,0E0,0E0,0E0,0E0,0E0,0E0,0E0,0E0,0E0,0E0,0E0,0E0,0E0,0E0,0E0],"parents":[2147483647,0,0,1,1,2,2,3,3,4,4,5,5,6,6,7,7,8,8,9,9,10,10,11,11,12,12,13,13,14,14],"right_children":[2,4,6,8,10,12,14,16,18,20,22,24,26,28,30,-1,-1,-1,-1,-1,-1,-1,-1,-1,-1,-1,-1,-1,-1,-1,-1],"split_conditions":[5.4361717E1,1.4519331E-1,2.7783546E-1,-1.6126506E0,1.3938084E0,-7.939732E-1,5.8161293E1,1.4812791E0,4.1140926E-1,4.6769417E1,5.3008617E1,1.5644432E0,2.623338E0,6.4076865E-1,1E0,-2.526376E-4,1.4424186E-2,-4.0682636E-2,-6.303528E-3,3.3142198E-2,9.55495E-3,-1.8425658E-2,2.8716408E-2,2.480227E-3,-8.003919E-2,4.8576858E-2,-8.810167E-2,1.9997454E-3,-1.5983019E-2,1.2762545E-2,-2.602831E-3],"split_indices":[0,1,1,1,3,1,0,3,3,0,0,3,3,3,5,0,0,0,0,0,0,0,0,0,0,0,0,0,0,0,0],"split_type":[0,0,0,0,0,0,0,0,0,0,0,0,0,0,0,0,0,0,0,0,0,0,0,0,0,0,0,0,0,0,0],"sum_hessian":[4.74643E3,2.7666936E3,1.9797365E3,2.1469229E3,6.1977075E2,7.065937E1,1.909077E3,1.7647565E3,3.8216635E2,5.4784955E2,7.192122E1,3.1458456E1,3.920092E1,4.5821643E2,1.4508606E3,1.4844231E3,2.8033337E2,3.8684147E1,3.434822E2,6.1220654E1,4.866289E2,5.9188255E1,1.27329645E1,2.5719595E1,5.738861E0,3.6952187E1,2.2487333E0,1.6787941E2,2.9033704E2,8.092971E1,1.3699309E3],"tree_param":{"num_deleted":"0","num_feature":"6","num_nodes":"31","size_leaf_vector":"1"}},{"base_weights":[-8.9098625E-3,1.2807202E-2,-3.3075422E-2,-2.6258452E-2,1.16360776E-1,-5.4523304E-2,6.404156E-2,-1.8258885E-2,-4.7803232E-1,1.0465775E-1,8.7621105E-1,-4.41513E-2,-3.0290574E-1,2.033919E-2,2.8630748E-1,-7.927117E-3,2.5379574E-3,-8.79221E-2,-1.363217E-2,-1.0323794E-2,1.0256035E-2,2.6144048E-2,9.991187E-2,-6.1337795E-2,-3.258735E-3,2.3786359E-2,-3.3753026E-2,-1.758238E-2,3.7091158E-3,3.6979087E-2,-1.3195591E-2],"categories":[],"categories_nodes":[],"categories_segments":[],"categories_sizes":[],"default_left":[0,0,0,0,0,0,0,0,0,0,0,0,0,0,0,0,0,0,0,0,0,0,0,0,0,0,0,0,0,0,0],"id":20,"left_children":[1,3,5,7,9,11,13,15,17,19,21,23,25,27,29,-1,-1,-1,-1,-1,-1,-1,-1,-1,-1,-1,-1,-1,-1,-1,-1],"loss_changes":[2.4854267E0,1.009473E1,4.6724014E0,6.5402455E0,5.9863377E0,4.717992E0,3.9372473E0,7.201193E0,5.8283014E0,3.7263904E0,1.6868949E0,4.3245287E0,5.3718824E0,2.136804E0,5.365513E0,0E0,0E0,0E0,0E0,0E0,0E0,0E0,0E0,0E0,0E0,0E0,0E0,0E0,0E0,0E0,0E0],"parents":[2147483647,0,0,1,1,2,2,3,3,4,4,5,5,6,6,7,7,8,8,9,9,10,10,11,11,12,12,13,13,14,14],"right_children":[2,4,6,8,10,12,14,16,18,20,22,24,26,28,30,-1,-1,-1,-1,-1,-1,-1,-1,-1,-1,-1,-1,-1,-1,-1,-1],"split_conditions":[3.9480433E0,-5.5073047E-1,2.3177002E1,6.490363E1,3.543723E0,2.119878E1,7.442319E1,7.2106415E-1,2.6710367E0,1.9811858E0,5.485317E1,1.5991443E0,5.0528735E-1,4.848062E1,4.016893E1,-7.927117E-3,2.5379574E-3,-8.79221E-2,-1.363217E-2,-1.0323794E-2,1.0256035E-2,2.6144048E-2,9.991187E-2,-6.1337795E-2,-3.258735E-3,2.3786359E-2,-3.3753026E-2,-1.758238E-2,3.7091158E-3,3.6979087E-2,-1.3195591E-2],"split_indices":[2,2,2,0,3,2,0,3,4,4,0,4,3,0,2,0,0,0,0,0,0,0,0,0,0,0,0,0,0,0,0],"split_type":[0,0,0,0,0,0,0,0,0,0,0,0,0,0,0,0,0,0,0,0,0,0,0,0,0,0,0,0,0,0,0],"sum_hessian":[4.7340977E3,2.4936123E3,2.2404854E3,1.8111146E3,6.8249774E2,1.8355503E3,4.049351E2,1.7806255E3,3.048915E1,6.73266E2,9.231747E0,1.763104E3,7.244633E1,3.3931064E2,6.562443E1,6.7999536E2,1.10063E3,9.248075E0,2.1241076E1,6.1205544E1,6.120604E2,4.4898095E0,4.7419376E0,7.247249E0,1.7558567E3,1.1739164E1,6.070716E1,3.2451355E1,3.0685928E2,4.719862E1,1.8425812E1],"tree_param":{"num_deleted":"0","num_feature":"6","num_nodes":"31","size_leaf_vector":"1"}},{"base_weights":[-8.799193E-3,7.085503E-3,-5.337879E-2,-6.5873223E-3,9.290904E-2,9.703136E-2,-5.764862E-2,-1.8638711E-2,1.1431281E-1,8.404429E-2,9.592545E-2,-1.2940344E-1,3.7868395E-3,-8.820025E-4,-3.0234067E-2,4.9396552E-2,4.902905E-3,9.122508E-3,-2.2596454E-2,-2.266539E-2,-6.343152E-3,2.4525654E-2,-3.158563E-3],"categories":[],"categories_nodes":[],"categories_segments":[],"categories_sizes":[],"default_left":[0,0,0,0,0,0,0,0,0,0,0,0,0,0,0,0,0,0,0,0,0,0,0],"id":21,"left_children":[1,3,5,7,9,-1,11,13,15,17,-1,19,21,-1,-1,-1,-1,-1,-1,-1,-1,-1,-1],"loss_changes":[3.3580852E0,4.103968E0,6.805673E0,4.398276E0,4.611919E0,0E0,5.4780936E0,7.503653E0,7.262781E0,5.283972E0,0E0,4.39859E0,8.794987E0,0E0,0E0,0E0,0E0,0E0,0E0,0E0,0E0,0E0,0E0],"parents":[2147483647,0,0,1,1,2,2,3,3,4,4,6,6,7,7,8,8,9,9,11,11,12,12],"right_children":[2,4,6,8,10,-1,12,14,16,18,-1,20,22,-1,-1,-1,-1,-1,-1,-1,-1,-1,-1],"split_conditions":[1.1246943E1,4.0702047E0,3.1299685E1,1.7697062E0,7.0086624E1,9.703136E-2,6.1278988E1,1.6463056E0,2.0228207E0,2.2141054E0,9.592545E-2,2.4445007E0,6.310726E1,-8.820025E-4,-3.0234067E-2,4.9396552E-2,4.902905E-3,9.122508E-3,-2.2596454E-2,-2.266539E-2,-6.343152E-3,2.4525654E-2,-3.158563E-3],"split_indices":[2,4,0,3,0,0,0,3,4,3,0,4,0,0,0,0,0,0,0,0,0,0,0],"split_type":[0,0,0,0,0,0,0,0,0,0,0,0,0,0,0,0,0,0,0,0,0,0,0],"sum_hessian":[4.740631E3,3.4958303E3,1.2448007E3,3.0162283E3,4.7960187E2,3.2320638E0,1.2415685E3,2.7435916E3,2.726368E2,4.7685632E2,2.7455416E0,5.7217664E2,6.693919E2,2.6876677E3,5.592387E1,2.4978926E1,2.4765788E2,4.4142755E2,3.5428772E1,1.3939696E2,4.327797E2,8.293688E1,5.86455E2],"tree_param":{"num_deleted":"0","num_feature":"6","num_nodes":"23","size_leaf_vector":"1"}},{"base_weights":[4.9225246E-3,-1.5511813E-3,1.3596939E-1,2.8835002E-3,-2.611997E-1,1.8638384E-1,-8.171514E-1,-2.0000513E-3,1.8990631E-1,1.6564757E-1,-3.496799E-1,2.190768E-1,-4.231716E-1,-9.270104E-2,-5.58526E-1,-1.5748912E-3,4.388357E-3,2.5143122E-2,-3.5655492E-3,-9.97609E-4,7.054936E-2,-8.8999584E-2,-2.0032074E-2,2.1533873E-3,2.3110459E-2,-6.656895E-2,5.8003485E-2,2.3456942E-2,-5.9719402E-2],"categories":[],"categories_nodes":[],"categories_segments":[],"categories_sizes":[],"default_left":[0,0,0,0,0,0,0,0,0,0,0,0,0,0,0,0,0,0,0,0,0,0,0,0,0,0,0,0,0],"id":22,"left_children":[1,3,5,7,9,11,13,15,17,19,21,23,25,-1,27,-1,-1,-1,-1,-1,-1,-1,-1,-1,-1,-1,-1,-1,-1],"loss_changes":[4.0239973E0,5.2061944E0,1.0881459E1,4.060896E0,2.925479E0,4.3350863E0,3.6024475E-1,4.358728E0,3.3138661E0,1.7606266E0,4.508536E0,2.711217E0,5.8518295E0,0E0,1.566946E0,0E0,0E0,0E0,0E0,0E0,0E0,0E0,0E0,0E0,0E0,0E0,0E0,0E0,0E0],"parents":[2147483647,0,0,1,1,2,2,3,3,4,4,5,5,6,6,7,7,8,8,9,9,10,10,11,11,12,12,14,14],"right_children":[2,4,6,8,10,12,14,16,18,20,22,24,26,-1,28,-1,-1,-1,-1,-1,-1,-1,-1,-1,-1,-1,-1,-1,-1],"split_conditions":[4.930548E0,4.704737E0,6.89223E1,4.4660244E0,4.7191423E-1,3.0601423E0,7.856237E-1,6.1278988E1,1E0,4.6237704E-1,5.817947E-1,6.271908E-1,5.837012E0,-9.270104E-2,1.1738977E0,-1.5748912E-3,4.388357E-3,2.5143122E-2,-3.5655492E-3,-9.97609E-4,7.054936E-2,-8.8999584E-2,-2.0032074E-2,2.1533873E-3,2.3110459E-2,-6.656895E-2,5.8003485E-2,2.3456942E-2,-5.9719402E-2],"split_indices":[4,4,0,4,3,3,3,0,5,3,3,3,4,0,3,0,0,0,0,0,0,0,0,0,0,0,0,0,0],"split_type":[0,0,0,0,0,0,0,0,0,0,0,0,0,0,0,0,0,0,0,0,0,0,0,0,0,0,0,0,0],"sum_hessian":[4.7420234E3,4.519737E3,2.2228651E2,4.4448105E3,7.492649E1,2.1188358E2,1.0402941E1,4.332665E3,1.12145515E2,1.2714912E1,6.2211582E1,2.0170587E2,1.0177713E1,2.9827003E0,7.42024E0,3.3051614E3,1.0275034E3,7.305272E1,3.9092796E1,1.0969484E1,1.7454284E0,5.989006E0,5.6222576E1,5.411667E1,1.4758919E2,7.707842E0,2.4698713E0,1.2402679E0,6.179972E0],"tree_param":{"num_deleted":"0","num_feature":"6","num_nodes":"29","size_leaf_vector":"1"}},{"base_weights":[-8.014934E-3,3.1074753E-1,-1.0684177E-2,1.2521708E-1,8.76865E-1,-1.453388E-2,1.449121E-1,-6.110491E-2,7.703421E-2,5.742963E-1,9.266037E-2,-2.6963027E-2,4.700591E-2,1.8722618E-1,-8.63325E-2,1.8314844E-2,-3.9069477E-2,5.4348577E-2,4.9583144E-3,-1.3786552E-3,-2.0788126E-2,-1.1784549E-2,5.472895E-3,3.3406734E-2,-3.0862403E-3],"categories":[],"categories_nodes":[],"categories_segments":[],"categories_sizes":[],"default_left":[0,0,0,0,0,0,0,0,0,0,0,0,0,0,0,0,0,0,0,0,0,0,0,0,0],"id":23,"left_children":[1,3,5,7,9,11,13,15,-1,17,-1,19,21,23,-1,-1,-1,-1,-1,-1,-1,-1,-1,-1,-1],"loss_changes":[4.0422535E0,4.0340004E0,2.8224728E0,4.8788857E0,1.497407E-1,3.5164504E0,6.0949783E0,3.3589356E0,0E0,3.129034E-1,0E0,8.660811E0,3.2235146E0,5.7807107E0,0E0,0E0,0E0,0E0,0E0,0E0,0E0,0E0,0E0,0E0,0E0],"parents":[2147483647,0,0,1,1,2,2,3,3,4,4,5,5,6,6,7,7,9,9,11,11,12,12,13,13],"right_children":[2,4,6,8,10,12,14,16,-1,18,-1,20,22,24,-1,-1,-1,-1,-1,-1,-1,-1,-1,-1,-1],"split_conditions":[-2.8803112E1,5.131722E0,7.585109E1,4.0301754E1,3.2358597E1,3.9310308E0,4.532644E0,3.366459E1,7.703421E-2,2.7258757E1,9.266037E-2,3.799425E0,-2.0209671E1,7.9052864E1,-8.63325E-2,1.8314844E-2,-3.9069477E-2,5.4348577E-2,4.9583144E-3,-1.3786552E-3,-2.0788126E-2,-1.1784549E-2,5.472895E-3,3.3406734E-2,-3.0862403E-3],"split_indices":[2,4,0,0,0,4,4,0,0,0,0,4,2,0,0,0,0,0,0,0,0,0,0,0,0],"split_type":[0,0,0,0,0,0,0,0,0,0,0,0,0,0,0,0,0,0,0,0,0,0,0,0,0],"sum_hessian":[4.7459146E3,3.8452713E1,4.707462E3,2.9881126E1,8.571585E0,4.5946885E3,1.1277344E2,2.5202658E1,4.67847E0,5.5956736E0,2.9759111E0,3.8231013E3,7.7158716E2,1.0982404E2,2.949395E0,1.5288504E1,9.914153E0,4.372879E0,1.2227943E0,3.6708127E3,1.5228867E2,7.597945E1,6.956077E2,5.3943417E1,5.5880627E1],"tree_param":{"num_deleted":"0","num_feature":"6","num_nodes":"25","size_leaf_vector":"1"}},{"base_weights":[3.0895186E-4,3.1207262E-3,-3.522216E-1,-8.582171E-2,1.3847904E-2,-5.6944805E-1,-1.20003276E-1,-7.626167E-2,-5.965044E-1,3.9523745E-1,1.0360117E-2,-2.2829586E-1,-7.9273945E-1,-3.5859138E-1,3.5888135E-1,-5.247796E-3,-4.366739E-2,-1.6421942E-2,-8.90333E-2,-1.868076E-2,5.2000217E-2,6.977181E-2,7.433351E-4,-4.9281828E-2,7.018613E-2,-1.1157433E-1,-3.6774617E-2,5.30019E-2,-4.135645E-2,6.596085E-2,6.458658E-3],"categories":[],"categories_nodes":[],"categories_segments":[],"categories_sizes":[],"default_left":[0,0,0,0,0,0,0,0,0,0,0,0,0,0,0,0,0,0,0,0,0,0,0,0,0,0,0,0,0,0,0],"id":24,"left_children":[1,3,5,7,9,11,13,15,17,19,21,23,25,27,29,-1,-1,-1,-1,-1,-1,-1,-1,-1,-1,-1,-1,-1,-1,-1,-1],"loss_changes":[4.714726E0,4.5032725E0,1.8302155E0,2.4346228E0,5.598289E0,1.2800155E0,2.3518536E0,2.4670882E0,1.6279361E0,6.261083E0,3.835628E0,4.3949857E0,1.601758E0,2.5235257E0,8.361792E-1,0E0,0E0,0E0,0E0,0E0,0E0,0E0,0E0,0E0,0E0,0E0,0E0,0E0,0E0,0E0,0E0],"parents":[2147483647,0,0,1,1,2,2,3,3,4,4,5,5,6,6,7,7,8,8,9,9,10,10,11,11,12,12,13,13,14,14],"right_children":[2,4,6,8,10,12,14,16,18,20,22,24,26,28,30,-1,-1,-1,-1,-1,-1,-1,-1,-1,-1,-1,-1,-1,-1,-1,-1],"split_conditions":[4.859444E1,-8.590315E0,5.5583E1,4.5538395E1,3.1299685E1,1.6364508E1,7.1141235E1,1E0,-7.5763006E0,-8.323017E0,-2.8803112E1,1.3498262E1,6.1998283E1,5.6111813E1,7.234394E1,-5.247796E-3,-4.366739E-2,-1.6421942E-2,-8.90333E-2,-1.868076E-2,5.2000217E-2,6.977181E-2,7.433351E-4,-4.9281828E-2,7.018613E-2,-1.1157433E-1,-3.6774617E-2,5.30019E-2,-4.135645E-2,6.596085E-2,6.458658E-3],"split_indices":[2,1,2,0,0,1,0,5,2,2,2,1,0,0,0,0,0,0,0,0,0,0,0,0,0,0,0,0,0,0,0],"split_type":[0,0,0,0,0,0,0,0,0,0,0,0,0,0,0,0,0,0,0,0,0,0,0,0,0,0,0,0,0,0,0],"sum_hessian":[4.754301E3,4.717664E3,3.6636818E1,5.0699634E2,4.210668E3,1.817912E1,1.8457697E1,4.9880792E2,8.188413E0,3.7139534E1,4.1735283E3,7.9916363E0,1.0187484E1,1.2487444E1,5.970253E0,4.888459E2,9.962039E0,5.454E0,2.7344124E0,1.0733433E1,2.64061E1,4.158325E0,4.16937E3,6.2445745E0,1.7470617E0,2.4934719E0,7.6940117E0,1.2492002E0,1.1238244E1,1.4980991E0,4.4721537E0],"tree_param":{"num_deleted":"0","num_feature":"6","num_nodes":"31","size_leaf_vector":"1"}},{"base_weights":[-1.2575809E-3,-1.9944222E-1,3.623641E-3,-1.0189511E-1,-6.4886165E-1,1.8915947E-1,-3.2269477E-3,-1.6364916E-1,4.6266684E-1,1.3204637E-2,-7.992772E-1,5.484264E-4,4.4468746E-1,-3.542505E-2,1.940468E-2,-6.1210063E-3,-4.7276452E-2,7.904812E-2,-2.9000392E-2,-4.8233826E-2,4.5978863E-2,-3.7873376E-2,-9.374123E-2,3.032352E-3,-1.0222403E-1,4.0692825E-2,-3.933235E-2,-6.4365035E-3,1.9050752E-3,8.995322E-3,-1.1059802E-3],"categories":[],"categories_nodes":[],"categories_segments":[],"categories_sizes":[],"default_left":[0,0,0,0,0,0,0,0,0,0,0,0,0,0,0,0,0,0,0,0,0,0,0,0,0,0,0,0,0,0,0],"id":25,"left_children":[1,3,5,7,9,11,13,15,17,19,21,23,25,27,29,-1,-1,-1,-1,-1,-1,-1,-1,-1,-1,-1,-1,-1,-1,-1,-1],"loss_changes":[4.5842404E0,4.9276285E0,5.8793106E0,3.380157E0,2.0150576E0,7.938082E0,3.2517164E0,3.163404E0,4.5233555E0,1.9761205E0,1.4381142E0,4.6215997E0,4.4398937E0,4.9152446E0,8.103211E0,0E0,0E0,0E0,0E0,0E0,0E0,0E0,0E0,0E0,0E0,0E0,0E0,0E0,0E0,0E0,0E0],"parents":[2147483647,0,0,1,1,2,2,3,3,4,4,5,5,6,6,7,7,8,8,9,9,10,10,11,11,12,12,13,13,14,14],"right_children":[2,4,6,8,10,12,14,16,18,20,22,24,26,28,30,-1,-1,-1,-1,-1,-1,-1,-1,-1,-1,-1,-1,-1,-1,-1,-1],"split_conditions":[-1.5079169E1,3.460547E1,3.1299685E1,2.4258525E0,-2.8803112E1,-8.52965E0,-2.4660885E-1,-1.5804902E1,2.5411516E1,3.6229015E1,3.7184338E1,4.603005E0,2.623338E0,8.864559E-1,5.4361717E1,-6.1210063E-3,-4.7276452E-2,7.904812E-2,-2.9000392E-2,-4.8233826E-2,4.5978863E-2,-3.7873376E-2,-9.374123E-2,3.032352E-3,-1.0222403E-1,4.0692825E-2,-3.933235E-2,-6.4365035E-3,1.9050752E-3,8.995322E-3,-1.1059802E-3],"split_indices":[1,0,0,3,2,2,1,1,0,0,0,3,3,3,0,0,0,0,0,0,0,0,0,0,0,0,0,0,0,0,0],"split_type":[0,0,0,0,0,0,0,0,0,0,0,0,0,0,0,0,0,0,0,0,0,0,0,0,0,0,0,0,0,0,0],"sum_hessian":[4.737058E3,1.1290952E2,4.6241484E3,9.378097E1,1.9128561E1,1.637113E2,4.460437E3,8.5174385E1,8.606584E0,3.7101672E0,1.5418394E1,9.476514E1,6.894617E1,1.8408655E3,2.6195715E3,7.172686E1,1.3447521E1,5.137677E0,3.4689066E0,1.7339344E0,1.9762328E0,9.43523E0,5.983164E0,9.301733E1,1.7478079E0,6.496442E1,3.981748E0,1.0456426E3,7.9522296E2,6.8876404E2,1.9308075E3],"tree_param":{"num_deleted":"0","num_feature":"6","num_nodes":"31","size_leaf_vector":"1"}},{"base_weights":[4.488376E-3,7.344925E-3,-3.6844403E-1,4.0094048E-4,9.079772E-2,-1.0272596E-1,-2.7717373E-1,2.2432983E-3,-6.2852037E-1,-2.9245213E-1,1.1971881E-1,5.125506E-2,-3.542532E-1,1.4219342E-3,-3.7387046E-3,2.79546E-2,-8.006503E-2,1.8756397E-2,-4.3375865E-2,4.722217E-2,7.0587895E-3,-3.886468E-2,8.671153E-3],"categories":[],"categories_nodes":[],"categories_segments":[],"categories_sizes":[],"default_left":[0,0,0,0,0,0,0,0,0,0,0,0,0,0,0,0,0,0,0,0,0,0,0],"id":26,"left_children":[1,3,5,7,9,-1,11,13,15,17,19,-1,21,-1,-1,-1,-1,-1,-1,-1,-1,-1,-1],"loss_changes":[5.058099E0,2.729628E0,2.660327E0,5.041267E0,4.045587E0,0E0,2.6392088E0,3.3004699E0,4.9764977E0,3.5063717E0,4.942879E0,0E0,2.0062752E0,0E0,0E0,0E0,0E0,0E0,0E0,0E0,0E0,0E0,0E0],"parents":[2147483647,0,0,1,1,2,2,3,3,4,4,6,6,7,7,8,8,9,9,10,10,12,12],"right_children":[2,4,6,8,10,-1,12,14,16,18,20,-1,22,-1,-1,-1,-1,-1,-1,-1,-1,-1,-1],"split_conditions":[4.859444E1,2.3177002E1,8.387058E0,2.0571438E1,9.2206264E-1,-1.0272596E-1,5.5236427E1,9.465097E0,6.944612E1,-3.122973E0,5.147345E1,5.125506E-2,2.728817E1,1.4219342E-3,-3.7387046E-3,2.79546E-2,-8.006503E-2,1.8756397E-2,-4.3375865E-2,4.722217E-2,7.0587895E-3,-3.886468E-2,8.671153E-3],"split_indices":[2,2,1,1,1,0,0,2,0,1,0,0,1,0,0,0,0,0,0,0,0,0,0],"split_type":[0,0,0,0,0,0,0,0,0,0,0,0,0,0,0,0,0,0,0,0,0,0,0],"sum_hessian":[4.744512E3,4.70942E3,3.5092422E1,4.3485854E3,3.6083456E2,1.9963148E0,3.3096107E1,4.3368774E3,1.1707986E1,2.4679558E1,3.36155E2,1.9975263E0,3.109858E1,3.2932185E3,1.0436587E3,3.2450805E0,8.462905E0,7.955824E0,1.6723734E1,1.996782E1,3.161872E2,2.4174374E1,6.9242063E0],"tree_param":{"num_deleted":"0","num_feature":"6","num_nodes":"23","size_leaf_vector":"1"}},{"base_weights":[1.5482454E-3,3.2174924E-1,-1.052053E-3,1.0012891E0,1.2706098E-1,-1.0123324E-2,9.512568E-2,1.4369075E-2,9.795043E-2,-2.874957E-1,3.0678546E-1,-5.63184E-3,-2.738447E-1,-5.2674904E-2,1.7000648E-1,-4.883961E-2,6.260011E-2,5.437674E-2,-5.308863E-3,-3.692281E-3,1.4442877E-3,2.7470473E-2,-2.7805945E-2,-3.241801E-2,2.8672446E-3,4.8555844E-2,1.0013734E-2],"categories":[],"categories_nodes":[],"categories_segments":[],"categories_sizes":[],"default_left":[0,0,0,0,0,0,0,0,0,0,0,0,0,0,0,0,0,0,0,0,0,0,0,0,0,0,0],"id":27,"left_children":[1,3,5,7,9,11,13,-1,-1,15,17,19,21,23,25,-1,-1,-1,-1,-1,-1,-1,-1,-1,-1,-1,-1],"loss_changes":[3.9673674E0,4.9508505E0,4.125178E0,1.3203459E0,2.3964639E0,5.116232E0,4.519176E0,0E0,0E0,3.8942552E0,3.1197853E0,4.079186E0,3.4110193E0,4.3147435E0,5.2275167E0,0E0,0E0,0E0,0E0,0E0,0E0,0E0,0E0,0E0,0E0,0E0,0E0],"parents":[2147483647,0,0,1,1,2,2,3,3,4,4,5,5,6,6,9,9,10,10,11,11,12,12,13,13,14,14],"right_children":[2,4,6,8,10,12,14,-1,-1,16,18,20,22,24,26,-1,-1,-1,-1,-1,-1,-1,-1,-1,-1,-1,-1],"split_conditions":[1.5436976E-1,-1.1569051E1,2.3177002E1,-1.3074118E1,-4.1417737E0,1.5910026E1,8.673148E0,1.4369075E-2,9.795043E-2,3.799425E0,6.6904397E0,6.926329E-1,3.8405347E0,2.3074179E0,2.1425014E0,-4.883961E-2,6.260011E-2,5.437674E-2,-5.308863E-3,-3.692281E-3,1.4442877E-3,2.7470473E-2,-2.7805945E-2,-3.241801E-2,2.8672446E-3,4.8555844E-2,1.0013734E-2],"split_indices":[3,2,2,1,1,1,1,0,0,4,2,3,2,4,4,0,0,0,0,0,0,0,0,0,0,0,0],"split_type":[0,0,0,0,0,0,0,0,0,0,0,0,0,0,0,0,0,0,0,0,0,0,0,0,0,0,0],"sum_hessian":[4.7635244E3,3.738348E1,4.7261406E3,7.402557E0,2.9980923E1,4.3196187E3,4.065221E2,1.9661322E0,5.4364243E0,8.885584E0,2.109534E1,4.2482866E3,7.133194E1,1.3680042E2,2.6972168E2,7.155115E0,1.7304683E0,1.0139912E1,1.0955428E1,1.5668057E3,2.681481E3,7.2213464E0,6.4110596E1,2.6735798E1,1.1006461E2,2.3933935E1,2.4578775E2],"tree_param":{"num_deleted":"0","num_feature":"6","num_nodes":"27","size_leaf_vector":"1"}},{"base_weights":[3.1990223E-3,-1.7888136E-1,7.520712E-3,1.07245706E-1,-3.374255E-1,3.765463E-2,-2.5129588E-2,1.8538575E-1,-8.168109E-2,-2.3653907E-1,-6.1150295E-1,-2.1834413E-2,6.660734E-2,-3.386469E-1,-1.6641658E-2,-3.0114825E-3,8.898417E-2,-2.2867836E-2,2.9308965E-2,-1.5491926E-2,-8.64905E-2,-9.359426E-5,-1.5493173E-2,9.1185614E-2,5.0348253E-3,-7.0757526E-3,-5.8784798E-2,-6.993714E-3,7.782441E-4],"categories":[],"categories_nodes":[],"categories_segments":[],"categories_sizes":[],"default_left":[0,0,0,0,0,0,0,0,0,0,0,0,0,0,0,0,0,0,0,0,0,0,0,0,0,0,0,0,0],"id":28,"left_children":[1,3,5,7,9,11,13,15,-1,17,19,21,23,25,27,-1,-1,-1,-1,-1,-1,-1,-1,-1,-1,-1,-1,-1,-1],"loss_changes":[3.7207396E0,5.00929E0,4.5445557E0,3.7021549E0,1.8125162E0,4.1385303E0,5.894258E0,7.9205475E0,0E0,1.6912749E0,3.4040155E0,2.794499E0,6.2963047E0,5.722585E0,4.031782E0,0E0,0E0,0E0,0E0,0E0,0E0,0E0,0E0,0E0,0E0,0E0,0E0,0E0,0E0],"parents":[2147483647,0,0,1,1,2,2,3,3,4,4,5,5,6,6,7,7,9,9,10,10,11,11,12,12,13,13,14,14],"right_children":[2,4,6,8,10,12,14,16,-1,18,20,22,24,26,28,-1,-1,-1,-1,-1,-1,-1,-1,-1,-1,-1,-1,-1,-1],"split_conditions":[-1.5079169E1,-1.9327278E1,4.054998E0,-1.4690641E0,-1.5804902E1,-5.304257E0,4.417475E0,-1.949527E1,-8.168109E-2,-7.1997275E0,3.1299685E1,4.378901E1,3.2358597E1,5.6916866E1,2.141E0,-3.0114825E-3,8.898417E-2,-2.2867836E-2,2.9308965E-2,-1.5491926E-2,-8.64905E-2,-9.359426E-5,-1.5493173E-2,9.1185614E-2,5.0348253E-3,-7.0757526E-3,-5.8784798E-2,-6.993714E-3,7.782441E-4],"split_indices":[1,1,2,2,1,1,2,2,0,2,0,0,0,0,1,0,0,0,0,0,0,0,0,0,0,0,0,0,0],"split_type":[0,0,0,0,0,0,0,0,0,0,0,0,0,0,0,0,0,0,0,0,0,0,0,0,0,0,0,0,0],"sum_hessian":[4.725673E3,1.08627174E2,4.6170454E3,3.884556E1,6.978162E1,2.4009683E3,2.2160771E3,3.7111042E1,1.7345167E0,5.23682E1,1.7413418E1,7.8607294E2,1.6148954E3,5.7389603E1,2.1586875E3,3.0686758E1,6.424282E0,4.8895138E1,3.4730606E0,9.962015E0,7.4514027E0,7.02586E2,8.348691E1,4.451545E0,1.6104438E3,3.5924473E1,2.146513E1,5.853136E2,1.5733739E3],"tree_param":{"num_deleted":"0","num_feature":"6","num_nodes":"29","size_leaf_vector":"1"}},{"base_weights":[4.2184233E-3,-1.9627014E-2,3.1487755E-2,-9.023417E-3,-1.693167E-1,-1.280652E-1,5.175284E-2,-2.1555573E-2,1.5236607E-1,-1.4417677E-1,-1.1191768E-1,-2.8943905E-1,4.946765E-3,2.4732587E-1,3.1229686E-2,-1.992581E-3,3.2360714E-2,3.861969E-2,5.1702885E-3,-5.961201E-2,-9.039849E-3,6.95702E-3,-3.1906385E-2,-5.9407E-3,2.6526086E-2,-1.950616E-2,2.9991256E-2,1.8470317E-2,1.0941975E-3],"categories":[],"categories_nodes":[],"categories_segments":[],"categories_sizes":[],"default_left":[0,0,0,0,0,0,0,0,0,0,0,0,0,0,0,0,0,0,0,0,0,0,0,0,0,0,0,0,0],"id":29,"left_children":[1,3,5,7,9,11,13,15,17,19,-1,21,23,25,27,-1,-1,-1,-1,-1,-1,-1,-1,-1,-1,-1,-1,-1,-1],"loss_changes":[3.0927904E0,4.0262218E0,7.180788E0,4.798283E0,4.9857855E0,5.3749228E0,7.8972363E0,3.1529078E0,4.924142E0,3.0179799E0,0E0,4.692724E0,3.6003134E0,1.18013735E1,6.2469416E0,0E0,0E0,0E0,0E0,0E0,0E0,0E0,0E0,0E0,0E0,0E0,0E0,0E0,0E0],"parents":[2147483647,0,0,1,1,2,2,3,3,4,4,5,5,6,6,7,7,8,8,9,9,11,11,12,12,13,13,14,14],"right_children":[2,4,6,8,10,12,14,16,18,20,-1,22,24,26,28,-1,-1,-1,-1,-1,-1,-1,-1,-1,-1,-1,-1,-1,-1],"split_conditions":[2.951643E0,2.8729436E0,4.3616638E-1,1.1320971E1,1.9443624E1,4.998539E1,5.3194886E-1,7.521602E1,1.2165758E1,-1.1081521E1,-1.1191768E-1,3.8195312E1,4.337031E0,-6.686797E0,3.0400217E0,-1.992581E-3,3.2360714E-2,3.861969E-2,5.1702885E-3,-5.961201E-2,-9.039849E-3,6.95702E-3,-3.1906385E-2,-5.9407E-3,2.6526086E-2,-1.950616E-2,2.9991256E-2,1.8470317E-2,1.0941975E-3],"split_indices":[4,4,3,1,1,0,3,0,1,1,0,0,4,1,4,0,0,0,0,0,0,0,0,0,0,0,0,0,0],"split_type":[0,0,0,0,0,0,0,0,0,0,0,0,0,0,0,0,0,0,0,0,0,0,0,0,0,0,0,0,0],"sum_hessian":[4.754365E3,2.5365664E3,2.2177988E3,2.3697595E3,1.6680685E2,2.4934137E2,1.9684574E3,2.1998074E3,1.6995218E2,1.6455972E2,2.2471259E0,1.1212821E2,1.3721315E2,1.858994E2,1.782558E3,2.1835715E3,1.6235798E1,3.47179E1,1.3523427E2,6.98689E0,1.5757283E2,2.5295195E1,8.683302E1,1.1105554E2,2.6157608E1,3.8140118E1,1.4775928E2,1.4306769E2,1.6394904E3],"tree_param":{"num_deleted":"0","num_feature":"6","num_nodes":"29","size_leaf_vector":"1"}},{"base_weights":[6.677266E-3,9.954353E-2,-8.2542025E-4,4.650502E-2,3.6921218E-1,-4.905854E-1,1.3822942E-3,3.5056692E-1,7.015167E-3,-1.510705E-1,6.294685E-1,-9.857484E-1,-2.9112652E-1,-5.8437386E-3,1.4407507E-1,7.06973E-2,1.2830585E-2,-6.456688E-2,1.6185226E-3,-2.7992269E-2,5.9383053E-2,7.88652E-2,1.7802471E-2,-2.2730744E-2,-1.06357336E-1,5.39692E-2,-4.8164334E-2,1.7698441E-3,-3.2809037E-3,1.7006394E-2,-5.0089667E-3],"categories":[],"categories_nodes":[],"categories_segments":[],"categories_sizes":[],"default_left":[0,0,0,0,0,0,0,0,0,0,0,0,0,0,0,0,0,0,0,0,0,0,0,0,0,0,0,0,0,0,0],"id":30,"left_children":[1,3,5,7,9,11,13,15,17,19,21,23,25,27,29,-1,-1,-1,-1,-1,-1,-1,-1,-1,-1,-1,-1,-1,-1,-1,-1],"loss_changes":[3.3056085E0,5.0552483E0,4.748001E0,3.5697436E0,7.9681196E0,1.6592445E0,4.5087E0,3.3236156E0,2.860323E0,3.8466504E0,5.4288206E0,8.8575315E-1,5.0503216E0,4.09445E0,2.9975052E0,0E0,0E0,0E0,0E0,0E0,0E0,0E0,0E0,0E0,0E0,0E0,0E0,0E0,0E0,0E0,0E0],"parents":[2147483647,0,0,1,1,2,2,3,3,4,4,5,5,6,6,7,7,8,8,9,9,10,10,11,11,12,12,13,13,14,14],"right_children":[2,4,6,8,10,12,14,16,18,20,22,24,26,28,30,-1,-1,-1,-1,-1,-1,-1,-1,-1,-1,-1,-1,-1,-1,-1,-1],"split_conditions":[3.845951E-1,3.670445E-1,3.901342E-1,-1.0394215E1,2.42302E-1,4.264572E1,3.0714045E1,1.5436976E-1,2.9831175E1,5.4460213E1,1.0018702E1,3.8195312E1,4.7331688E1,3.9480433E0,4.557094E1,7.06973E-2,1.2830585E-2,-6.456688E-2,1.6185226E-3,-2.7992269E-2,5.9383053E-2,7.88652E-2,1.7802471E-2,-2.2730744E-2,-1.06357336E-1,5.39692E-2,-4.8164334E-2,1.7698441E-3,-3.2809037E-3,1.7006394E-2,-5.0089667E-3],"split_indices":[3,3,3,2,2,0,2,3,0,0,2,0,0,2,2,0,0,0,0,0,0,0,0,0,0,0,0,0,0,0,0],"split_type":[0,0,0,0,0,0,0,0,0,0,0,0,0,0,0,0,0,0,0,0,0,0,0,0,0,0,0,0,0,0,0],"sum_hessian":[4.7432314E3,3.5364462E2,4.389587E3,2.9650113E2,5.714348E1,1.8705652E1,4.370881E3,3.3176105E1,2.6332504E2,1.9193325E1,3.7950153E1,4.2393117E0,1.446634E1,4.161119E3,2.0976208E2,7.764122E0,2.5411983E1,3.2470365E0,2.60078E2,1.6196774E1,2.996552E0,1.9474356E1,1.8475796E1,1.9945633E0,2.2447484E0,3.238347E0,1.1227993E1,2.3180635E3,1.8430553E3,1.575236E2,5.223849E1],"tree_param":{"num_deleted":"0","num_feature":"6","num_nodes":"31","size_leaf_vector":"1"}},{"base_weights":[2.6545573E-3,-5.2090874E-3,5.3924363E-2,3.1313132E-3,-1.3853481E-1,3.7009704E-1,3.392796E-2,2.2001106E-1,4.0422103E-4,-1.0091036E-1,-7.0349026E-1,2.8903463E-1,1.0307459E-1,6.151403E-2,-5.9614062E-2,-6.838586E-2,2.2713443E-2,-2.6102583E-3,1.3197642E-3,-1.2068003E-2,1.7561328E-2,-1.0932067E-1,-1.3973229E-2,1.7381696E-3,4.1867718E-2,2.8135772E-3,4.791945E-2,-2.169851E-2,5.057325E-3],"categories":[],"categories_nodes":[],"categories_segments":[],"categories_sizes":[],"default_left":[0,0,0,0,0,0,0,0,0,0,0,0,0,0,0,0,0,0,0,0,0,0,0,0,0,0,0,0,0],"id":31,"left_children":[1,3,5,7,9,11,13,15,17,19,21,23,-1,25,27,-1,-1,-1,-1,-1,-1,-1,-1,-1,-1,-1,-1,-1,-1],"loss_changes":[1.9146155E0,4.579299E0,3.9800804E0,2.2925372E0,5.0825047E0,2.416479E0,1.539171E0,3.548997E0,2.0360544E0,3.6892023E0,5.010351E0,2.2255201E0,0E0,6.492661E0,3.552897E0,0E0,0E0,0E0,0E0,0E0,0E0,0E0,0E0,0E0,0E0,0E0,0E0,0E0,0E0],"parents":[2147483647,0,0,1,1,2,2,3,3,4,4,5,5,6,6,7,7,8,8,9,9,10,10,11,11,13,13,14,14],"right_children":[2,4,6,8,10,12,14,16,18,20,22,24,-1,26,28,-1,-1,-1,-1,-1,-1,-1,-1,-1,-1,-1,-1,-1,-1],"split_conditions":[1.8466295E1,1.5101882E1,1.909185E1,2.1020037E-1,2.279428E0,2.16293E0,7.197285E1,3.0879223E1,6.5909773E-1,1.3681135E0,1.6251528E1,6.074104E1,1.0307459E-1,7.07531E1,2.5752764E1,-6.838586E-2,2.2713443E-2,-2.6102583E-3,1.3197642E-3,-1.2068003E-2,1.7561328E-2,-1.0932067E-1,-1.3973229E-2,1.7381696E-3,4.1867718E-2,2.8135772E-3,4.791945E-2,-2.169851E-2,5.057325E-3],"split_indices":[2,2,2,3,3,3,0,0,3,3,2,0,0,0,2,0,0,0,0,0,0,0,0,0,0,0,0,0,0],"split_type":[0,0,0,0,0,0,0,0,0,0,0,0,0,0,0,0,0,0,0,0,0,0,0,0,0,0,0,0,0],"sum_hessian":[4.747236E3,4.116721E3,6.3051483E2,3.875274E3,2.4144733E2,3.646358E1,5.940512E2,4.7133987E1,3.82814E3,2.2747664E2,1.39706955E1,3.4714073E1,1.7495091E0,4.5902466E2,1.3502658E2,1.9506414E0,4.5183346E1,1.2537144E3,2.5744255E3,1.9726189E2,3.0214748E1,5.4959984E0,8.474697E0,1.6725744E1,1.7988329E1,4.3859265E2,2.0432001E1,4.914666E1,8.587992E1],"tree_param":{"num_deleted":"0","num_feature":"6","num_nodes":"29","size_leaf_vector":"1"}},{"base_weights":[-2.4916695E-3,3.0399793E-1,-4.851931E-3,1.0486815E0,7.040937E-2,-5.28837E-2,6.535453E-3,1.9431766E-2,9.4497666E-2,-9.6942496E-1,2.0520543E-1,-7.3955074E-2,1.5090653E-1,5.635218E-1,3.5928728E-3,-9.447276E-2,-2.579388E-2,2.649369E-2,-6.29348E-2,-2.2144392E-3,-1.6973626E-2,5.1145144E-2,5.2525657E-3,5.7597708E-2,-3.7090417E-2,1.5776798E-3,-3.3031225E-3],"categories":[],"categories_nodes":[],"categories_segments":[],"categories_sizes":[],"default_left":[0,0,0,0,0,0,0,0,0,0,0,0,0,0,0,0,0,0,0,0,0,0,0,0,0,0,0],"id":32,"left_children":[1,3,5,7,9,11,13,-1,-1,15,17,19,21,23,25,-1,-1,-1,-1,-1,-1,-1,-1,-1,-1,-1,-1],"loss_changes":[3.4289834E0,6.227419E0,2.5726035E0,6.291599E-1,4.2142534E0,3.8818524E0,6.230134E0,0E0,0E0,9.2971325E-2,3.5321758E0,5.223331E0,3.4886518E0,3.5439897E0,2.739537E0,0E0,0E0,0E0,0E0,0E0,0E0,0E0,0E0,0E0,0E0,0E0,0E0],"parents":[2147483647,0,0,1,1,2,2,3,3,4,4,5,5,6,6,9,9,10,10,11,11,12,12,13,13,14,14],"right_children":[2,4,6,8,10,12,14,-1,-1,16,18,20,22,24,26,-1,-1,-1,-1,-1,-1,-1,-1,-1,-1,-1,-1],"split_conditions":[1.5436976E-1,-1.1370296E1,5.2831316E-1,-1.5079169E1,-7.7431526E0,2.0766129E1,5.3194886E-1,1.9431766E-2,9.4497666E-2,-1.0833627E1,2.8090944E1,9.318921E0,2.2573677E1,1.322308E1,1.1114848E1,-9.447276E-2,-2.579388E-2,2.649369E-2,-6.29348E-2,-2.2144392E-3,-1.6973626E-2,5.1145144E-2,5.2525657E-3,5.7597708E-2,-3.7090417E-2,1.5776798E-3,-3.3031225E-3],"split_indices":[3,2,3,1,2,2,3,0,0,1,2,2,2,1,2,0,0,0,0,0,0,0,0,0,0,0,0],"split_type":[0,0,0,0,0,0,0,0,0,0,0,0,0,0,0,0,0,0,0,0,0,0,0,0,0,0,0],"sum_hessian":[4.7370835E3,3.5224613E1,4.701859E3,7.577619E0,2.7646992E1,9.0038934E2,3.8014692E3,1.470462E0,6.107157E0,2.4621165E0,2.5184875E1,8.165929E2,8.379645E1,1.89766E1,3.7824927E3,1.2336657E0,1.2284507E0,2.2937975E1,2.2469006E0,6.1267053E2,2.0392235E2,1.148689E1,7.230956E1,1.6727787E1,2.2488134E0,2.7829956E3,9.994972E2],"tree_param":{"num_deleted":"0","num_feature":"6","num_nodes":"27","size_leaf_vector":"1"}},{"base_weights":[1.2330816E-3,-1.3948558E-2,7.612497E-2,-2.6696683E-3,-1.0182112E-1,3.7895545E-1,5.988836E-2,-5.7910946E-3,2.9163337E-1,-7.270665E-2,-5.581878E-1,4.752186E-1,-4.971965E-1,-8.810837E-2,8.077606E-2,-1.1432271E-3,6.810325E-3,3.1463936E-2,-1.7385663E-2,-4.4459812E-2,-4.286115E-3,8.967935E-2,-6.375754E-2,2.78942E-2,9.391447E-2,-5.0493605E-3,-5.5419777E-2,-1.7507292E-2,4.95893E-2,8.76972E-3,-1.4765242E-2],"categories":[],"categories_nodes":[],"categories_segments":[],"categories_sizes":[],"default_left":[0,0,0,0,0,0,0,0,0,0,0,0,0,0,0,0,0,0,0,0,0,0,0,0,0,0,0,0,0,0,0],"id":33,"left_children":[1,3,5,7,9,11,13,15,17,19,21,23,25,27,29,-1,-1,-1,-1,-1,-1,-1,-1,-1,-1,-1,-1,-1,-1,-1,-1],"loss_changes":[5.383218E0,3.9014232E0,3.9010768E0,3.207689E0,5.909152E0,3.6454544E0,2.3521523E0,2.6705174E0,1.9816394E0,3.8705845E0,1.1600709E1,2.8559732E0,3.3742118E-1,8.863721E0,5.112279E0,0E0,0E0,0E0,0E0,0E0,0E0,0E0,0E0,0E0,0E0,0E0,0E0,0E0,0E0,0E0,0E0],"parents":[2147483647,0,0,1,1,2,2,3,3,4,4,5,5,6,6,7,7,8,8,9,9,10,10,11,11,12,12,13,13,14,14],"right_children":[2,4,6,8,10,12,14,16,18,20,22,24,26,28,30,-1,-1,-1,-1,-1,-1,-1,-1,-1,-1,-1,-1,-1,-1,-1,-1],"split_conditions":[3.9310308E0,3.5617502E0,3.9709923E0,3.5323586E0,2.2141054E0,1.5843291E0,4.0702047E0,1.1320971E1,8.281112E0,3.5737503E0,-1.0623289E1,1.1645718E0,-6.3378615E0,1.6046507E0,2.0522385E0,-1.1432271E-3,6.810325E-3,3.1463936E-2,-1.7385663E-2,-4.4459812E-2,-4.286115E-3,8.967935E-2,-6.375754E-2,2.78942E-2,9.391447E-2,-5.0493605E-3,-5.5419777E-2,-1.7507292E-2,4.95893E-2,8.76972E-3,-1.4765242E-2],"split_indices":[4,4,4,4,3,3,4,1,1,4,1,3,1,3,3,0,0,0,0,0,0,0,0,0,0,0,0,0,0,0,0],"split_type":[0,0,0,0,0,0,0,0,0,0,0,0,0,0,0,0,0,0,0,0,0,0,0,0,0,0,0,0,0,0,0],"sum_hessian":[4.732722E3,3.935712E3,7.970104E2,3.4889216E3,4.4679044E2,3.9421284E1,7.575891E2,3.453276E3,3.564569E1,4.2108606E2,2.5704388E1,3.5931126E1,3.4901593E0,9.330093E1,6.6428815E2,3.1588303E3,2.944456E2,2.9900227E1,5.7454624E0,1.497267E1,4.0611337E2,2.7401607E0,2.2964226E1,3.1690762E1,4.240363E0,1.4947994E0,1.9953598E0,7.934093E1,1.3960002E1,5.996831E2,6.460505E1],"tree_param":{"num_deleted":"0","num_feature":"6","num_nodes":"31","size_leaf_vector":"1"}},{"base_weights":[-1.4246659E-2,-5.812758E-2,-2.8842604E-3,-4.5457225E-2,-4.46539E-1,2.923052E-1,-1.18646175E-2,-3.196726E-2,-2.1247116E-1,-2.3983935E-1,-1.0822557E0,1.0922277E0,2.2682765E-1,-1.7410675E-1,-7.7500124E-3,-3.1995194E-3,5.480373E-2,-2.581188E-2,1.9584818E-2,-9.5537424E-2,-5.1287906E-3,-9.695591E-2,-2.7996264E-2,2.7374111E-2,1.05309926E-1,8.4048405E-4,2.768687E-2,5.1453725E-2,-2.2713237E-2,1.0357279E-2,-9.5697E-4],"categories":[],"categories_nodes":[],"categories_segments":[],"categories_sizes":[],"default_left":[0,0,0,0,0,0,0,0,0,0,0,0,0,0,0,0,0,0,0,0,0,0,0,0,0,0,0,0,0,0,0],"id":34,"left_children":[1,3,5,7,9,11,13,15,17,19,21,23,25,27,29,-1,-1,-1,-1,-1,-1,-1,-1,-1,-1,-1,-1,-1,-1,-1,-1],"loss_changes":[2.354727E0,4.760202E0,9.951518E0,2.1151285E0,3.7578301E0,5.557412E0,2.4304886E0,5.0494847E0,3.6162853E0,4.008299E0,2.6129723E-1,9.15349E-1,2.6718993E0,8.264492E0,2.0555406E0,0E0,0E0,0E0,0E0,0E0,0E0,0E0,0E0,0E0,0E0,0E0,0E0,0E0,0E0,0E0,0E0],"parents":[2147483647,0,0,1,1,2,2,3,3,4,4,5,5,6,6,7,7,8,8,9,9,10,10,11,11,12,12,13,13,14,14],"right_children":[2,4,6,8,10,12,14,16,18,20,22,24,26,28,30,-1,-1,-1,-1,-1,-1,-1,-1,-1,-1,-1,-1,-1,-1,-1,-1],"split_conditions":[-5.4134636E0,1.20847E1,3.8195312E1,4.436497E1,4.347288E1,3.2358597E1,4.0150013E1,4.4101395E1,4.787543E1,1.3001154E1,2.0766129E1,-7.0356817E0,3.5829372E1,-1.0853816E1,-1.4058502E1,-3.1995194E-3,5.480373E-2,-2.581188E-2,1.9584818E-2,-9.5537424E-2,-5.1287906E-3,-9.695591E-2,-2.7996264E-2,2.7374111E-2,1.05309926E-1,8.4048405E-4,2.768687E-2,5.1453725E-2,-2.2713237E-2,1.0357279E-2,-9.5697E-4],"split_indices":[1,2,0,0,0,0,0,0,0,2,2,2,0,2,2,0,0,0,0,0,0,0,0,0,0,0,0,0,0,0,0],"split_type":[0,0,0,0,0,0,0,0,0,0,0,0,0,0,0,0,0,0,0,0,0,0,0,0,0,0,0,0,0,0,0],"sum_hessian":[4.722085E3,9.703879E2,3.751697E3,9.4081464E2,2.957324E1,1.0983421E2,3.6418628E3,8.7160516E2,6.9209465E1,2.3356335E1,6.2169056E0,7.123786E0,1.0271043E2,8.905461E1,3.5528083E3,8.628896E2,8.715544E0,5.600906E1,1.3200403E1,2.7306309E0,2.0625704E1,4.725092E0,1.4918135E0,2.220384E0,4.903402E0,3.6887875E1,6.582255E1,9.972753E0,7.908186E1,1.04926636E2,3.4478816E3],"tree_param":{"num_deleted":"0","num_feature":"6","num_nodes":"31","size_leaf_vector":"1"}},{"base_weights":[-4.3322137E-3,-5.0638832E-2,7.6296665E-3,-3.786463E-2,-3.5215703E-1,8.579451E-1,5.927585E-3,-5.4080643E-2,1.6006842E-1,4.883514E-1,-4.8703036E-1,9.954896E-2,4.3128666E-1,1.1395723E-1,-1.7568831E-3,-3.5543656E-3,-3.5973463E-2,5.134118E-2,5.7665333E-3,-2.8974512E-3,8.1829175E-2,-5.4124992E-2,3.530497E-2,-2.4723915E-2,8.798504E-2,4.6724626E-3,3.3876173E-2,-3.7328857E-3,1.2561444E-3],"categories":[],"categories_nodes":[],"categories_segments":[],"categories_sizes":[],"default_left":[0,0,0,0,0,0,0,0,0,0,0,0,0,0,0,0,0,0,0,0,0,0,0,0,0,0,0,0,0],"id":35,"left_children":[1,3,5,7,9,11,13,15,17,19,21,-1,23,25,27,-1,-1,-1,-1,-1,-1,-1,-1,-1,-1,-1,-1,-1,-1],"loss_changes":[2.6410577E0,3.7566795E0,5.479465E0,3.0262136E0,4.734051E0,7.102752E-1,3.1405973E0,3.3003945E0,2.9816957E0,1.7148207E0,6.400302E0,0E0,2.8764017E0,4.294738E0,2.7702494E0,0E0,0E0,0E0,0E0,0E0,0E0,0E0,0E0,0E0,0E0,0E0,0E0,0E0,0E0],"parents":[2147483647,0,0,1,1,2,2,3,3,4,4,5,5,6,6,7,7,8,8,9,9,10,10,12,12,13,13,14,14],"right_children":[2,4,6,8,10,12,14,16,18,20,22,-1,24,26,28,-1,-1,-1,-1,-1,-1,-1,-1,-1,-1,-1,-1,-1,-1],"split_conditions":[-5.4134636E0,-5.626183E0,3.2358597E1,5.2145314E0,-1.375441E1,2.2919135E0,-3.9702957E0,1.20847E1,5.2937493E0,-1.7289446E1,3.9310308E0,9.954896E-2,2.4901187E0,4.6930813E1,1.4519331E-1,-3.5543656E-3,-3.5973463E-2,5.134118E-2,5.7665333E-3,-2.8974512E-3,8.1829175E-2,-5.4124992E-2,3.530497E-2,-2.4723915E-2,8.798504E-2,4.6724626E-3,3.3876173E-2,-3.7328857E-3,1.2561444E-3],"split_indices":[1,1,0,4,2,4,1,2,4,2,4,0,4,0,1,0,0,0,0,0,0,0,0,0,0,0,0,0,0],"split_type":[0,0,0,0,0,0,0,0,0,0,0,0,0,0,0,0,0,0,0,0,0,0,0,0,0,0,0,0,0],"sum_hessian":[4.766293E3,9.778036E2,3.7884895E3,9.3914124E2,3.8662342E1,6.5633326E0,3.781926E3,8.6869836E2,7.044286E1,4.9837313E0,3.367861E1,2.438393E0,4.124939E0,2.5023584E2,3.5316902E3,8.490955E2,1.9602892E1,9.9077215E0,6.0535145E1,2.9857585E0,1.9979728E0,2.819374E1,5.484871E0,2.2125006E0,1.9124386E0,2.1316367E2,3.707217E1,9.882398E2,2.5434504E3],"tree_param":{"num_deleted":"0","num_feature":"6","num_nodes":"29","size_leaf_vector":"1"}},{"base_weights":[-3.5622797E-3,1.1412225E-1,-9.862385E-3,3.579407E-3,3.4490353E-1,4.0577825E-2,-2.0844009E-2,1.9092986E-1,-1.4612255E-1,1.9728929E-1,8.818207E-1,5.0541744E-2,-8.245934E-1,-1.620182E-1,-1.0207486E-2,6.0524687E-2,7.202988E-3,-2.4183989E-2,2.2677567E-2,-2.4209699E-2,3.141639E-2,8.826269E-2,2.1099664E-2,4.9876228E-2,3.2071015E-3,-9.602411E-2,2.8591603E-2,-1.4892067E-2,1.949975E-2,3.2674586E-3,-2.3491425E-3],"categories":[],"categories_nodes":[],"categories_segments":[],"categories_sizes":[],"default_left":[0,0,0,0,0,0,0,0,0,0,0,0,0,0,0,0,0,0,0,0,0,0,0,0,0,0,0,0,0,0,0],"id":36,"left_children":[1,3,5,7,9,11,13,15,17,19,21,23,25,27,29,-1,-1,-1,-1,-1,-1,-1,-1,-1,-1,-1,-1,-1,-1,-1,-1],"loss_changes":[3.5202875E0,6.153742E0,2.49691E0,4.63145E0,6.0181E0,6.989862E0,5.5560946E0,4.1169844E0,6.2449784E0,6.2310905E0,1.9756603E0,4.75257E0,4.5299134E0,2.584056E0,3.3683007E0,0E0,0E0,0E0,0E0,0E0,0E0,0E0,0E0,0E0,0E0,0E0,0E0,0E0,0E0,0E0,0E0],"parents":[2147483647,0,0,1,1,2,2,3,3,4,4,5,5,6,6,7,7,8,8,9,9,10,10,11,11,12,12,13,13,14,14],"right_children":[2,4,6,8,10,12,14,16,18,20,22,24,26,28,30,-1,-1,-1,-1,-1,-1,-1,-1,-1,-1,-1,-1,-1,-1,-1,-1],"split_conditions":[3.1299685E1,-8.738558E0,-7.1997275E0,2.6314411E1,3.4611914E0,6.4701775E1,-4.740602E0,2.5739768E0,3.9896433E0,2.6314411E1,1.8907853E0,1.6475822E0,6.9772934E1,6.1616104E1,2.340766E0,6.0524687E-2,7.202988E-3,-2.4183989E-2,2.2677567E-2,-2.4209699E-2,3.141639E-2,8.826269E-2,2.1099664E-2,4.9876228E-2,3.2071015E-3,-9.602411E-2,2.8591603E-2,-1.4892067E-2,1.949975E-2,3.2674586E-3,-2.3491425E-3],"split_indices":[0,2,2,0,4,0,2,4,4,0,2,4,0,0,2,0,0,0,0,0,0,0,0,0,0,0,0,0,0,0,0],"split_type":[0,0,0,0,0,0,0,0,0,0,0,0,0,0,0,0,0,0,0,0,0,0,0,0,0,0,0,0,0,0,0],"sum_hessian":[4.745485E3,2.402655E2,4.505219E3,1.631386E2,7.71269E1,8.0500745E2,3.700212E3,7.233575E1,9.080285E1,6.1567608E1,1.5559289E1,7.967728E2,8.234614E0,2.582559E2,3.441956E3,9.965877E0,6.2369873E1,6.681039E1,2.3992464E1,1.7148882E1,4.4418728E1,1.0876933E1,4.682356E0,1.3226129E1,7.835467E2,6.2367134E0,1.997901E0,2.4426933E2,1.3986546E1,9.388619E2,2.5030942E3],"tree_param":{"num_deleted":"0","num_feature":"6","num_nodes":"31","size_leaf_vector":"1"}},{"base_weights":[8.312246E-3,-1.3829866E-1,1.244181E-2,-1.7279135E-1,6.210695E-1,1.077637E-2,3.0758962E-1,-2.5162074E-1,1.497916E-1,8.3158426E-2,-4.8530884E-3,1.4255529E-2,-1.038397E-1,4.8362112E-1,-5.945846E-1,8.0302805E-3,-2.5278982E-2,5.1620822E-2,-2.618593E-2,5.393925E-4,5.4829954E-3,-4.6260156E-2,-1.2806165E-3,-2.6057903E-2,5.0007556E-2,-1.116858E-2,-5.730643E-2],"categories":[],"categories_nodes":[],"categories_segments":[],"categories_sizes":[],"default_left":[0,0,0,0,0,0,0,0,0,0,0,0,0,0,0,0,0,0,0,0,0,0,0,0,0,0,0],"id":37,"left_children":[1,3,5,7,9,11,13,15,17,-1,-1,19,21,23,25,-1,-1,-1,-1,-1,-1,-1,-1,-1,-1,-1,-1],"loss_changes":[2.8859136E0,3.527757E0,2.2746382E0,3.2340221E0,1.7436078E0,1.8394992E0,4.411338E0,2.3288002E0,6.194644E0,0E0,0E0,1.8242915E0,5.654005E0,2.7545319E0,1.5966737E-1,0E0,0E0,0E0,0E0,0E0,0E0,0E0,0E0,0E0,0E0,0E0,0E0],"parents":[2147483647,0,0,1,1,2,2,3,3,4,4,5,5,6,6,7,7,8,8,11,11,12,12,13,13,14,14],"right_children":[2,4,6,8,10,12,14,16,18,-1,-1,20,22,24,26,-1,-1,-1,-1,-1,-1,-1,-1,-1,-1,-1,-1],"split_conditions":[-1.4452107E1,3.2394261E0,6.1557565E0,5.5172505E0,4.603005E0,2.7518675E0,4.859444E1,3.5034022E0,6.1557565E0,8.3158426E-2,-4.8530884E-3,1.4812791E0,-9.754928E0,-8.757646E0,8.531659E-1,8.0302805E-3,-2.5278982E-2,5.1620822E-2,-2.618593E-2,5.393925E-4,5.4829954E-3,-4.6260156E-2,-1.2806165E-3,-2.6057903E-2,5.0007556E-2,-1.116858E-2,-5.730643E-2],"split_indices":[1,3,4,4,3,3,2,4,4,0,0,3,2,1,3,0,0,0,0,0,0,0,0,0,0,0,0],"split_type":[0,0,0,0,0,0,0,0,0,0,0,0,0,0,0,0,0,0,0,0,0,0,0,0,0,0,0],"sum_hessian":[4.7628027E3,1.2958784E2,4.633215E3,1.24696236E2,4.891608E0,4.6082485E3,2.49666E1,1.0038516E2,2.4311079E1,2.7060313E0,2.1855767E0,4.4733364E3,1.3491205E2,2.1278664E1,3.687937E0,1.5432189E1,8.495297E1,1.1753277E1,1.2557802E1,3.9304497E3,5.4288666E2,2.0203274E1,1.1470877E2,2.9722958E0,1.8306368E1,1.2316895E0,2.4562476E0],"tree_param":{"num_deleted":"0","num_feature":"6","num_nodes":"27","size_leaf_vector":"1"}},{"base_weights":[2.5793107E-3,-1.302568E-1,5.7069035E-3,-1.9434252E-1,6.557617E-1,2.794879E-1,4.509664E-3,-3.0643284E-1,1.0900409E-1,8.5578084E-2,-1.5181601E-1,-1.485666E-1,7.563572E-1,-9.592387E-2,7.488716E-3,-1.3327697E-2,-7.207393E-2,1.0659359E-1,-2.8062956E-3,-5.4189768E-2,3.059638E-2,-5.5468507E-2,1.0032245E-2,8.391326E-2,-1.1951098E-2,1.8174835E-2,-1.6700016E-2,4.5576E-4,2.7980944E-2],"categories":[],"categories_nodes":[],"categories_segments":[],"categories_sizes":[],"default_left":[0,0,0,0,0,0,0,0,0,0,0,0,0,0,0,0,0,0,0,0,0,0,0,0,0,0,0,0,0],"id":38,"left_children":[1,3,5,7,9,11,13,15,17,-1,19,21,23,25,27,-1,-1,-1,-1,-1,-1,-1,-1,-1,-1,-1,-1,-1,-1],"loss_changes":[1.9747167E0,5.635049E0,1.5206252E0,3.4970834E0,2.994359E0,4.2354937E0,1.3841413E0,6.0551767E0,5.0216055E0,0E0,1.3110293E0,1.8004183E0,2.7320285E0,4.905888E0,2.7524588E0,0E0,0E0,0E0,0E0,0E0,0E0,0E0,0E0,0E0,0E0,0E0,0E0,0E0,0E0],"parents":[2147483647,0,0,1,1,2,2,3,3,4,4,5,5,6,6,7,7,8,8,10,10,11,11,12,12,13,13,14,14],"right_children":[2,4,6,8,10,12,14,16,18,-1,20,22,24,26,28,-1,-1,-1,-1,-1,-1,-1,-1,-1,-1,-1,-1,-1,-1],"split_conditions":[1.7429953E0,1.4812791E0,1.765379E0,2.857983E0,2.0443317E-1,7.9769385E-1,-1.4452107E1,1.0068327E0,5.6111813E1,8.5578084E-2,3.1848862E0,-1.8435745E0,6.4102295E1,2.4397968E1,6.1557565E0,-1.3327697E-2,-7.207393E-2,1.0659359E-1,-2.8062956E-3,-5.4189768E-2,3.059638E-2,-5.5468507E-2,1.0032245E-2,8.391326E-2,-1.1951098E-2,1.8174835E-2,-1.6700016E-2,4.5576E-4,2.7980944E-2],"split_indices":[4,3,4,1,1,3,1,1,0,0,1,1,0,0,4,0,0,0,0,0,0,0,0,0,0,0,0,0,0],"split_type":[0,0,0,0,0,0,0,0,0,0,0,0,0,0,0,0,0,0,0,0,0,0,0,0,0,0,0,0,0],"sum_hessian":[4.7503267E3,1.08337425E2,4.6419893E3,1.0086633E2,7.471091E0,1.9198912E1,4.62279E3,7.364385E1,2.7222485E1,4.7246327E0,2.746458E0,1.0480081E1,8.718831E0,1.3227199E2,4.490518E3,6.0656437E1,1.2987413E1,1.9992377E0,2.5223248E1,1.2494974E0,1.4969606E0,2.9945762E0,7.485504E0,6.470706E0,2.248125E0,3.397154E1,9.830044E1,4.468145E3,2.2373005E1],"tree_param":{"num_deleted":"0","num_feature":"6","num_nodes":"29","size_leaf_vector":"1"}},{"base_weights":[-1.6116206E-2,3.3044417E-3,-5.9816796E-2,-1.5445163E-3,4.2857867E-1,-8.531782E-3,-1.7438377E-1,-1.7930662E-2,9.466722E-2,-3.0115187E-1,6.0139465E-1,-3.1146267E-2,1.3518935E-1,-2.956015E-1,-4.685449E-2,-1.061269E-3,-2.2725936E-2,1.0565332E-2,-8.979268E-4,5.4095548E-2,-7.799455E-2,7.2439015E-2,2.1899605E-2,-3.8668476E-3,1.9945776E-2,1.4092494E-2,-4.9880855E-2,-1.9361718E-2,-6.4063035E-2,-3.0616956E-2,-3.6486323E-4],"categories":[],"categories_nodes":[],"categories_segments":[],"categories_sizes":[],"default_left":[0,0,0,0,0,0,0,0,0,0,0,0,0,0,0,0,0,0,0,0,0,0,0,0,0,0,0,0,0,0,0],"id":39,"left_children":[1,3,5,7,9,11,13,15,17,19,21,23,25,27,29,-1,-1,-1,-1,-1,-1,-1,-1,-1,-1,-1,-1,-1,-1,-1,-1],"loss_changes":[4.0159407E0,6.7579093E0,8.552504E0,5.1110625E0,4.8401513E0,3.2762513E0,6.9446383E0,3.4352984E0,1.8699288E0,5.756372E0,2.7615538E0,4.209595E0,4.369829E0,6.047716E0,3.130994E0,0E0,0E0,0E0,0E0,0E0,0E0,0E0,0E0,0E0,0E0,0E0,0E0,0E0,0E0,0E0,0E0],"parents":[2147483647,0,0,1,1,2,2,3,3,4,4,5,5,6,6,7,7,8,8,9,9,10,10,11,11,12,12,13,13,14,14],"right_children":[2,4,6,8,10,12,14,16,18,20,22,24,26,28,30,-1,-1,-1,-1,-1,-1,-1,-1,-1,-1,-1,-1,-1,-1,-1,-1],"split_conditions":[9.465097E0,9.184969E0,3.2908385E0,4.053089E0,2.2919135E0,3.0042028E0,1.8171707E1,8.768505E0,1E0,2.0330899E0,9.318921E0,2.0522385E0,2.7518675E0,1.9636257E0,4.6237704E-1,-1.061269E-3,-2.2725936E-2,1.0565332E-2,-8.979268E-4,5.4095548E-2,-7.799455E-2,7.2439015E-2,2.1899605E-2,-3.8668476E-3,1.9945776E-2,1.4092494E-2,-4.9880855E-2,-1.9361718E-2,-6.4063035E-2,-3.0616956E-2,-3.6486323E-4],"split_indices":[2,2,4,4,4,4,2,2,5,4,2,3,3,3,3,0,0,0,0,0,0,0,0,0,0,0,0,0,0,0,0],"split_type":[0,0,0,0,0,0,0,0,0,0,0,0,0,0,0,0,0,0,0,0,0,0,0,0,0,0,0,0,0,0,0],"sum_hessian":[4.7306753E3,3.275818E3,1.4548572E3,3.2398735E3,3.5944527E1,1.0057262E3,4.4913098E2,2.7690764E3,4.7079712E2,6.740321E0,2.9204206E1,8.696675E2,1.3605869E2,2.2958781E2,2.1954317E2,2.7224097E3,4.6666862E1,3.477346E2,1.2306254E2,2.749081E0,3.9912403E0,1.4231915E1,1.4972291E1,8.202253E2,4.9442238E1,1.298169E2,6.2417836E0,2.0890993E2,2.0677887E1,2.3654228E1,1.9588893E2],"tree_param":{"num_deleted":"0","num_feature":"6","num_nodes":"31","size_leaf_vector":"1"}},{"base_weights":[3.1768295E-3,-1.0976669E-2,7.355741E-2,2.3711247E-3,-1.1694129E-1,9.0424255E-2,-2.381446E-1,-4.401389E-3,1.3784206E-1,-1.0251802E-1,-9.737628E-1,3.5331386E-1,7.684284E-2,-9.0307844E-1,-7.670162E-2,-1.9321265E-4,-4.870401E-2,1.7877394E-2,-3.1678176E-3,-1.4531557E-2,4.7084275E-3,5.541332E-4,-1.0778141E-1,-3.946296E-2,4.1999977E-2,7.3166215E-4,1.0848365E-2,-1.2835691E-2,-1.05228156E-1,3.376041E-2,-4.1802462E-2],"categories":[],"categories_nodes":[],"categories_segments":[],"categories_sizes":[],"default_left":[0,0,0,0,0,0,0,0,0,0,0,0,0,0,0,0,0,0,0,0,0,0,0,0,0,0,0,0,0,0,0],"id":40,"left_children":[1,3,5,7,9,11,13,15,17,19,21,23,25,27,29,-1,-1,-1,-1,-1,-1,-1,-1,-1,-1,-1,-1,-1,-1,-1,-1],"loss_changes":[4.739015E0,5.6028085E0,4.209217E0,3.2291467E0,5.3767753E0,2.673377E0,4.349678E0,4.0229454E0,2.5548666E0,5.5899076E0,2.653483E0,5.6191316E0,2.8648448E0,2.2227283E0,7.827847E0,0E0,0E0,0E0,0E0,0E0,0E0,0E0,0E0,0E0,0E0,0E0,0E0,0E0,0E0,0E0,0E0],"parents":[2147483647,0,0,1,1,2,2,3,3,4,4,5,5,6,6,7,7,8,8,9,9,10,10,11,11,12,12,13,13,14,14],"right_children":[2,4,6,8,10,12,14,16,18,20,22,24,26,28,30,-1,-1,-1,-1,-1,-1,-1,-1,-1,-1,-1,-1,-1,-1,-1,-1],"split_conditions":[3.9310308E0,3.5617502E0,6.834539E1,3.4336839E0,3.9531345E0,3.9709923E0,6.5550035E-1,4.557094E1,6.7989044E0,5.5372555E1,3.6951008E1,-1.7289446E1,4.4660244E0,4.5788273E-1,1.3938084E0,-1.9321265E-4,-4.870401E-2,1.7877394E-2,-3.1678176E-3,-1.4531557E-2,4.7084275E-3,5.541332E-4,-1.0778141E-1,-3.946296E-2,4.1999977E-2,7.3166215E-4,1.0848365E-2,-1.2835691E-2,-1.05228156E-1,3.376041E-2,-4.1802462E-2],"split_indices":[4,4,0,4,3,4,3,2,2,0,0,2,4,3,3,0,0,0,0,0,0,0,0,0,0,0,0,0,0,0,0],"split_type":[0,0,0,0,0,0,0,0,0,0,0,0,0,0,0,0,0,0,0,0,0,0,0,0,0,0,0,0,0,0,0],"sum_hessian":[4.7556094E3,3.9600828E3,7.955266E2,3.517926E3,4.4215662E2,7.553623E2,4.0164333E1,3.3513516E3,1.6657451E2,4.3593793E2,6.2186923E0,3.587774E1,7.1948456E2,6.9491477E0,3.3215183E1,3.3413748E3,9.976737E0,1.12181015E2,5.439349E1,2.9242642E2,1.435115E2,1.9858965E0,4.232796E0,5.7332563E0,3.0144484E1,3.3486057E2,3.84624E2,2.9765797E0,3.972568E0,1.5703079E1,1.7512106E1],"tree_param":{"num_deleted":"0","num_feature":"6","num_nodes":"31","size_leaf_vector":"1"}},{"base_weights":[-7.930581E-3,-1.8027663E-2,5.2421167E-2,-1.2129255E-2,-2.2350717E-1,2.1910018E-1,1.2109671E-2,-5.9212595E-2,4.5465203E-3,-3.3831957E-1,2.6478877E-3,2.4239632E-1,-7.0687704E-2,1.8665111E-1,-3.9025124E-2,-2.0485385E-3,-2.114998E-2,3.5179835E-2,1.518966E-4,-1.7547006E-2,-5.7728216E-2,3.590347E-2,-1.3448041E-2,1.1390725E-2,3.8763538E-2,1.2675279E-2,8.0161266E-2,-3.0320775E-2,1.2281268E-3],"categories":[],"categories_nodes":[],"categories_segments":[],"categories_sizes":[],"default_left":[0,0,0,0,0,0,0,0,0,0,0,0,0,0,0,0,0,0,0,0,0,0,0,0,0,0,0,0,0],"id":41,"left_children":[1,3,5,7,9,11,13,15,17,19,21,23,-1,25,27,-1,-1,-1,-1,-1,-1,-1,-1,-1,-1,-1,-1,-1,-1],"loss_changes":[2.9038138E0,4.94427E0,4.58654E0,3.116394E0,2.956787E0,3.6296773E0,4.925494E0,7.1505003E0,3.3774915E0,3.2854815E0,3.0711613E0,3.1033344E0,0E0,2.717185E0,7.900214E0,0E0,0E0,0E0,0E0,0E0,0E0,0E0,0E0,0E0,0E0,0E0,0E0,0E0,0E0],"parents":[2147483647,0,0,1,1,2,2,3,3,4,4,5,5,6,6,7,7,8,8,9,9,10,10,11,11,13,13,14,14],"right_children":[2,4,6,8,10,12,14,16,18,20,22,24,-1,26,28,-1,-1,-1,-1,-1,-1,-1,-1,-1,-1,-1,-1,-1,-1],"split_conditions":[1.5150856E0,1.4240727E0,1.6463056E0,2.3805628E0,1.4812791E0,4.859444E1,2.4445007E0,2.3148725E0,2.3903651E0,1.2250316E1,-7.958704E0,1.6046507E0,-7.0687704E-2,4.603005E0,2.653819E0,-2.0485385E-3,-2.114998E-2,3.5179835E-2,1.518966E-4,-1.7547006E-2,-5.7728216E-2,3.590347E-2,-1.3448041E-2,1.1390725E-2,3.8763538E-2,1.2675279E-2,8.0161266E-2,-3.0320775E-2,1.2281268E-3],"split_indices":[3,3,3,4,3,2,4,4,4,2,2,3,0,3,4,0,0,0,0,0,0,0,0,0,0,0,0,0,0],"split_type":[0,0,0,0,0,0,0,0,0,0,0,0,0,0,0,0,0,0,0,0,0,0,0,0,0,0,0,0,0],"sum_hessian":[4.76267E3,4.080661E3,6.820091E2,3.9678213E3,1.1283959E2,1.3195784E2,5.500513E2,1.0370902E3,2.930731E3,7.451467E1,3.832492E1,1.2999174E2,1.9660944E0,1.24032745E2,4.2601855E2,8.920895E2,1.4500076E2,1.6724768E1,2.914006E3,5.8062634E1,1.6452034E1,1.0157134E1,2.8167786E1,9.311944E1,3.6872307E1,1.2103932E2,2.9934194E0,5.79186E1,3.6809995E2],"tree_param":{"num_deleted":"0","num_feature":"6","num_nodes":"29","size_leaf_vector":"1"}},{"base_weights":[-2.4106477E-3,-1.3425955E-2,6.5329835E-2,-1.16301235E-2,-4.183118E-1,3.2937837E-1,3.916332E-2,-1.8986037E-2,4.01243E-2,3.6146358E-1,-6.8566877E-1,5.096479E-1,-8.312534E-2,1.4120495E-2,1.521444E-1,-1.1785463E-3,-1.7095007E-2,8.228486E-4,3.6284234E-2,-2.0405594E-2,6.549092E-2,-8.86405E-2,-2.3593564E-2,4.8381235E-2,-5.99426E-4,-2.7460013E-2,7.816956E-2,5.3502666E-3,-7.317398E-3,5.442998E-2,8.714844E-3],"categories":[],"categories_nodes":[],"categories_segments":[],"categories_sizes":[],"default_left":[0,0,0,0,0,0,0,0,0,0,0,0,0,0,0,0,0,0,0,0,0,0,0,0,0,0,0,0,0,0,0],"id":42,"left_children":[1,3,5,7,9,11,13,15,17,19,21,23,25,27,29,-1,-1,-1,-1,-1,-1,-1,-1,-1,-1,-1,-1,-1,-1,-1,-1],"loss_changes":[3.528105E0,2.9520645E0,4.556344E0,1.5425172E0,3.985701E0,4.46628E0,1.7034864E0,2.934411E0,6.216355E0,1.6836689E0,1.9335637E0,2.047842E0,5.562262E0,2.7611E0,2.4199936E0,0E0,0E0,0E0,0E0,0E0,0E0,0E0,0E0,0E0,0E0,0E0,0E0,0E0,0E0,0E0,0E0],"parents":[2147483647,0,0,1,1,2,2,3,3,4,4,5,5,6,6,7,7,8,8,9,9,10,10,11,11,12,12,13,13,14,14],"right_children":[2,4,6,8,10,12,14,16,18,20,22,24,26,28,30,-1,-1,-1,-1,-1,-1,-1,-1,-1,-1,-1,-1,-1,-1,-1,-1],"split_conditions":[4.0702047E0,4.859444E1,4.1391816E0,1.8466295E1,5.2093583E-1,7.090988E0,5.394682E0,3.0601423E0,2.0522385E0,3.6868036E0,5.5583E1,1.5150856E0,4.016893E1,4.7632403E0,-2.6215044E1,-1.1785463E-3,-1.7095007E-2,8.228486E-4,3.6284234E-2,-2.0405594E-2,6.549092E-2,-8.86405E-2,-2.3593564E-2,4.8381235E-2,-5.99426E-4,-2.7460013E-2,7.816956E-2,5.3502666E-3,-7.317398E-3,5.442998E-2,8.714844E-3],"split_indices":[4,2,4,2,3,2,4,3,3,4,2,3,2,4,2,0,0,0,0,0,0,0,0,0,0,0,0,0,0,0,0],"split_type":[0,0,0,0,0,0,0,0,0,0,0,0,0,0,0,0,0,0,0,0,0,0,0,0,0,0,0,0,0,0,0],"sum_hessian":[4.726033E3,4.0657085E3,6.6032465E2,4.048779E3,1.6929228E1,5.8491737E1,6.018329E2,3.545488E3,5.0329105E2,4.2325506E0,1.2696677E1,4.053981E1,1.7951927E1,4.935582E2,1.0827469E2,3.4707288E3,7.475939E1,4.703677E2,3.292332E1,1.990405E0,2.2421455E0,5.2195654E0,7.477112E0,3.4098614E1,6.441193E0,1.4958261E1,2.9936671E0,3.2935837E2,1.6419983E2,7.072072E0,1.01202614E2],"tree_param":{"num_deleted":"0","num_feature":"6","num_nodes":"31","size_leaf_vector":"1"}},{"base_weights":[-3.0130935E-3,-6.9047265E-2,5.6497087E-3,-5.701219E-2,-8.8620347E-1,9.855294E-2,-9.684484E-3,-9.841633E-2,2.4169737E-2,-1.0028134E-1,-2.667898E-1,1.11637354E-1,-5.217368E-1,-1.5552366E-1,-5.581755E-6,-5.3302567E-3,-4.1947976E-2,4.957106E-2,-4.2498755E-4,2.244698E-2,-4.7103994E-2,1.5158623E-2,2.8122708E-3,-7.4920245E-2,5.5545345E-2,-1.4949839E-2,2.4983069E-2,1.4681473E-2,-5.366036E-4],"categories":[],"categories_nodes":[],"categories_segments":[],"categories_sizes":[],"default_left":[0,0,0,0,0,0,0,0,0,0,0,0,0,0,0,0,0,0,0,0,0,0,0,0,0,0,0,0,0],"id":43,"left_children":[1,3,5,7,9,11,13,15,17,-1,19,21,23,25,27,-1,-1,-1,-1,-1,-1,-1,-1,-1,-1,-1,-1,-1,-1],"loss_changes":[2.7184513E0,5.369496E0,5.9862447E0,1.8315505E0,1.4698792E0,4.8898444E0,5.0916276E0,4.8472404E0,3.2441773E0,0E0,9.0946877E-1,3.4694471E0,6.941992E0,3.3506737E0,4.1629534E0,0E0,0E0,0E0,0E0,0E0,0E0,0E0,0E0,0E0,0E0,0E0,0E0,0E0,0E0],"parents":[2147483647,0,0,1,1,2,2,3,3,4,4,5,5,6,6,7,7,8,8,10,10,11,11,12,12,13,13,14,14],"right_children":[2,4,6,8,10,12,14,16,18,-1,20,22,24,26,28,-1,-1,-1,-1,-1,-1,-1,-1,-1,-1,-1,-1,-1,-1],"split_conditions":[-8.267253E0,4.64615E1,-7.1997275E0,-8.738558E0,-9.125341E0,6.391336E1,-4.8863363E0,-8.757646E0,-8.323017E0,-1.0028134E-1,-8.757646E0,-3.6112764E0,6.834539E1,6.9284387E0,3.7184338E1,-5.3302567E-3,-4.1947976E-2,4.957106E-2,-4.2498755E-4,2.244698E-2,-4.7103994E-2,1.5158623E-2,2.8122708E-3,-7.4920245E-2,5.5545345E-2,-1.4949839E-2,2.4983069E-2,1.4681473E-2,-5.366036E-4],"split_indices":[1,0,2,2,1,0,2,1,2,0,1,1,0,1,0,0,0,0,0,0,0,0,0,0,0,0,0,0,0],"split_type":[0,0,0,0,0,0,0,0,0,0,0,0,0,0,0,0,0,0,0,0,0,0,0,0,0,0,0,0,0],"sum_hessian":[4.750515E3,5.501212E2,4.200394E3,5.431909E2,6.9303446E0,5.943086E2,3.6060854E3,3.5958447E2,1.836064E2,3.7078612E0,3.2224834E0,5.828343E2,1.1474301E1,2.2349239E2,3.382593E3,3.3568796E2,2.3896526E1,7.717318E0,1.7588908E2,1.2412137E0,1.9812696E0,2.881141E2,2.947202E2,8.727461E0,2.7468407E0,2.10019E2,1.3473398E1,1.1824463E2,3.2643484E3],"tree_param":{"num_deleted":"0","num_feature":"6","num_nodes":"29","size_leaf_vector":"1"}},{"base_weights":[-7.2697126E-3,2.4812491E-1,-9.298112E-3,-1.0169301E-1,6.6377026E-1,-1.6980687E-1,-4.683263E-3,8.94489E-1,-3.7787253E-1,-5.1525228E-2,8.6736304E-1,-3.8422456E-1,-4.3508768E-2,9.511246E-2,-1.1109354E-2,9.6550405E-2,2.2321241E-2,-9.3498886E-2,-9.173327E-3,9.378544E-2,5.5259433E-2,6.559555E-2,-3.7246607E-2,3.829463E-2,-9.311553E-3,9.693293E-3,-5.57018E-2,-2.0272038E-3,2.446321E-3],"categories":[],"categories_nodes":[],"categories_segments":[],"categories_sizes":[],"default_left":[0,0,0,0,0,0,0,0,0,0,0,0,0,0,0,0,0,0,0,0,0,0,0,0,0,0,0,0,0],"id":44,"left_children":[1,3,5,7,9,11,13,15,17,-1,19,21,23,25,27,-1,-1,-1,-1,-1,-1,-1,-1,-1,-1,-1,-1,-1,-1],"loss_changes":[2.4616895E0,5.5119133E0,3.4887614E0,6.1704783E0,5.150386E0,3.5480096E0,2.9384348E0,6.050942E-1,3.4673254E0,0E0,1.6900063E-2,5.149609E0,3.2515287E0,5.799882E0,2.5542445E0,0E0,0E0,0E0,0E0,0E0,0E0,0E0,0E0,0E0,0E0,0E0,0E0,0E0,0E0],"parents":[2147483647,0,0,1,1,2,2,3,3,4,4,5,5,6,6,7,7,8,8,10,10,11,11,12,12,13,13,14,14],"right_children":[2,4,6,8,10,12,14,16,18,-1,20,22,24,26,28,-1,-1,-1,-1,-1,-1,-1,-1,-1,-1,-1,-1,-1,-1],"split_conditions":[-2.8803112E1,9.213726E-1,-2.1065145E1,4.4936648E-1,2.0664953E1,7.464507E-1,-1.375441E1,3.4880028E1,5.857407E-1,-5.1525228E-2,1.0273273E0,1.5436976E-1,8.017164E-1,6.1278988E1,6.1278988E1,9.6550405E-2,2.2321241E-2,-9.3498886E-2,-9.173327E-3,9.378544E-2,5.5259433E-2,6.559555E-2,-3.7246607E-2,3.829463E-2,-9.311553E-3,9.693293E-3,-5.57018E-2,-2.0272038E-3,2.446321E-3],"split_indices":[2,3,2,3,0,3,2,0,3,0,3,3,3,0,0,0,0,0,0,0,0,0,0,0,0,0,0,0,0],"split_type":[0,0,0,0,0,0,0,0,0,0,0,0,0,0,0,0,0,0,0,0,0,0,0,0,0,0,0,0,0],"sum_hessian":[4.7464546E3,3.6444332E1,4.7100103E3,2.0199362E1,1.624497E1,1.3063422E2,4.579376E3,3.8985305E0,1.630083E1,1.8968055E0,1.4348165E1,4.766708E1,8.296714E1,2.7620316E2,4.303173E3,1.9485986E0,1.949932E0,3.2113113E0,1.30895195E1,3.1946764E0,1.1153488E1,2.4421997E0,4.522488E1,9.479974E0,7.348717E1,2.6821982E2,7.98335E0,3.208362E3,1.0948108E3],"tree_param":{"num_deleted":"0","num_feature":"6","num_nodes":"29","size_leaf_vector":"1"}},{"base_weights":[-8.352084E-3,1.7566605E-2,-3.504075E-2,8.534411E-4,1.2094458E-1,1.12504296E-1,-4.595242E-2,-5.4744747E-2,5.2072987E-2,-2.2975405E-1,1.4988463E-1,1.4325914E-1,-6.473026E-1,-6.553889E-2,3.9964154E-2,-3.5012488E-3,-5.410275E-2,2.1367897E-3,3.4324273E-2,-5.8865767E-2,1.5223384E-2,2.3546772E-2,4.4772057E-3,-2.2546077E-2,1.5016689E-2,-8.978733E-2,-5.233959E-3,-1.9758812E-3,-1.0734719E-2,4.0907267E-2,1.7010539E-3],"categories":[],"categories_nodes":[],"categories_segments":[],"categories_sizes":[],"default_left":[0,0,0,0,0,0,0,0,0,0,0,0,0,0,0,0,0,0,0,0,0,0,0,0,0,0,0,0,0,0,0],"id":45,"left_children":[1,3,5,7,9,11,13,15,17,19,21,23,25,27,29,-1,-1,-1,-1,-1,-1,-1,-1,-1,-1,-1,-1,-1,-1,-1,-1],"loss_changes":[3.2849166E0,4.1627426E0,3.7717524E0,5.912039E0,3.437541E0,3.8641963E0,3.6696973E0,6.763586E0,1.0320343E1,5.6574116E0,4.1939626E0,2.9992874E0,1.7121918E0,4.972809E0,3.5608444E0,0E0,0E0,0E0,0E0,0E0,0E0,0E0,0E0,0E0,0E0,0E0,0E0,0E0,0E0,0E0,0E0],"parents":[2147483647,0,0,1,1,2,2,3,3,4,4,5,5,6,6,7,7,8,8,9,9,10,10,11,11,12,12,13,13,14,14],"right_children":[2,4,6,8,10,12,14,16,18,20,22,24,26,28,30,-1,-1,-1,-1,-1,-1,-1,-1,-1,-1,-1,-1,-1,-1,-1,-1],"split_conditions":[3.3989534E0,1.277496E0,4.1279472E1,2.966649E0,1.8980787E0,2.8090944E1,2.3177002E1,2.8824222E0,6.040427E1,6.992916E-1,2.7006564E0,4.178377E0,4.3665504E0,9.58176E-1,1.915036E0,-3.5012488E-3,-5.410275E-2,2.1367897E-3,3.4324273E-2,-5.8865767E-2,1.5223384E-2,2.3546772E-2,4.4772057E-3,-2.2546077E-2,1.5016689E-2,-8.978733E-2,-5.233959E-3,-1.9758812E-3,-1.0734719E-2,4.0907267E-2,1.7010539E-3],"split_indices":[2,2,0,4,4,2,2,3,0,3,4,2,4,3,4,0,0,0,0,0,0,0,0,0,0,0,0,0,0,0,0],"split_type":[0,0,0,0,0,0,0,0,0,0,0,0,0,0,0,0,0,0,0,0,0,0,0,0,0,0,0,0,0,0,0],"sum_hessian":[4.7469165E3,2.4083704E3,2.3385461E3,2.0740637E3,3.3430655E2,1.6039618E2,2.17815E3,9.944892E2,1.0795746E3,2.4955393E1,3.0935117E2,1.5493625E2,5.4599295E0,1.7739731E3,4.0417688E2,9.782789E2,1.6210308E1,1.01252325E3,6.705136E1,1.0977743E1,1.3977649E1,1.21046104E2,1.8830507E2,1.4161809E1,1.4077443E2,2.4945664E0,2.965363E0,1.1130966E3,6.608765E2,1.4417844E1,3.8975903E2],"tree_param":{"num_deleted":"0","num_feature":"6","num_nodes":"31","size_leaf_vector":"1"}},{"base_weights":[-5.1547033E-3,-1.3362986E-2,6.731028E-2,-6.709153E-3,-1.7561208E-1,4.8479214E-1,2.9221328E-2,4.601289E-3,-7.2118595E-2,-2.2068633E-1,9.820355E-1,1.0316333E0,3.0061904E-1,-3.9273033E-1,5.0325498E-2,-4.2339068E-4,1.5230005E-2,-2.540791E-3,-1.7806059E-2,-2.5084132E-2,1.1454827E-2,2.9319927E-2,8.750934E-2,-2.6321164E-3,9.8345146E-2,-7.208875E-2,3.2101426E-2,1.189166E-2,-5.9840035E-2,3.6737613E-2,1.9498619E-3],"categories":[],"categories_nodes":[],"categories_segments":[],"categories_sizes":[],"default_left":[0,0,0,0,0,0,0,0,0,0,0,0,0,0,0,0,0,0,0,0,0,0,0,0,0,0,0,0,0,0,0],"id":46,"left_children":[1,3,5,7,9,11,13,15,17,19,21,23,25,27,29,-1,-1,-1,-1,-1,-1,-1,-1,-1,-1,-1,-1,-1,-1,-1,-1],"loss_changes":[2.8204207E0,4.596439E0,7.6577415E0,3.0276215E0,8.968882E0,3.745947E0,3.966368E0,6.414956E0,3.6564536E0,5.527849E0,4.443407E-2,2.0891314E0,4.176199E0,4.1933517E0,4.477231E0,0E0,0E0,0E0,0E0,0E0,0E0,0E0,0E0,0E0,0E0,0E0,0E0,0E0,0E0,0E0,0E0],"parents":[2147483647,0,0,1,1,2,2,3,3,4,4,5,5,6,6,7,7,8,8,9,9,10,10,11,11,12,12,13,13,14,14],"right_children":[2,4,6,8,10,12,14,16,18,20,22,24,26,28,30,-1,-1,-1,-1,-1,-1,-1,-1,-1,-1,-1,-1,-1,-1,-1,-1],"split_conditions":[1.1320971E1,9.7124195E0,2.2419088E0,1.3001154E1,4.930548E0,1.9441925E1,2.3521378E0,7.5255065E0,3.4890177E0,2.3177002E1,5.131722E0,1.3001154E1,2.0429642E1,1.322308E1,2.4901187E0,-4.2339068E-4,1.5230005E-2,-2.540791E-3,-1.7806059E-2,-2.5084132E-2,1.1454827E-2,2.9319927E-2,8.750934E-2,-2.6321164E-3,9.8345146E-2,-7.208875E-2,3.2101426E-2,1.189166E-2,-5.9840035E-2,3.6737613E-2,1.9498619E-3],"split_indices":[1,1,4,2,4,2,4,1,4,2,4,2,2,1,4,0,0,0,0,0,0,0,0,0,0,0,0,0,0,0,0],"split_type":[0,0,0,0,0,0,0,0,0,0,0,0,0,0,0,0,0,0,0,0,0,0,0,0,0,0,0,0,0,0,0],"sum_hessian":[4.7391807E3,4.257715E3,4.81466E2,4.0909849E3,1.6672989E2,3.9273438E1,4.4219257E2,3.4886633E3,6.0232153E2,1.6126042E2,5.46948E0,8.73533E0,3.0538109E1,2.0224272E1,4.219683E2,3.313186E3,1.7547739E2,4.758818E2,1.26439705E2,1.2858257E2,3.2677845E1,1.4985399E0,3.97094E0,1.4986249E0,7.2367043E0,1.745395E0,2.8792715E1,8.243723E0,1.1980548E1,2.4187243E1,3.9778104E2],"tree_param":{"num_deleted":"0","num_feature":"6","num_nodes":"31","size_leaf_vector":"1"}},{"base_weights":[-6.005007E-3,-1.3262092E-2,7.022803E-2,-9.683396E-3,-2.1775942E-1,-1.6660295E-1,9.722743E-2,-9.084641E-3,-8.363443E-2,-5.578565E-1,6.495292E-2,7.723597E-2,-5.231958E-1,2.1130395E-1,-1.8226883E-3,1.6978135E-2,-9.318526E-4,2.0944674E-2,-5.9424285E-2,3.8862184E-2,-2.141671E-2,-5.6231555E-2,1.8240659E-2,8.44899E-3,-5.6196526E-2,-5.351588E-2,1.8140404E-2,-1.1120051E-2,1.1041188E-2],"categories":[],"categories_nodes":[],